weights = [[[[[0.10549993067979813, -0.0005434550112113357, -0.038967739790678024, 0.042552415281534195, -0.2657001316547394, -0.3451783061027527, -0.2587358355522156, 0.1437331587076187, 0.3143461346626282, 0.07818714529275894, -0.1758332997560501, 0.038985006511211395, 0.1268068552017212, -0.07885229587554932, 0.3200124502182007, 0.12156646698713303, -0.14399033784866333, -0.3153160512447357, -0.0863344594836235, 0.03195691108703613, -0.2740868926048279, -0.02779914066195488, 0.06594333052635193, -0.03379048779606819, -0.11800359189510345, 0.05928192660212517, -0.025911763310432434, 0.15297871828079224, 0.1063413918018341, -0.2710534930229187, -0.06946490705013275, -0.370500385761261]], [[0.0433703251183033, 0.10551013052463531, 0.049664877355098724, 0.32277509570121765, -0.22795288264751434, -0.06547416746616364, -0.34816890954971313, -0.011594627052545547, 0.17852306365966797, 0.2225082963705063, -0.17869676649570465, 0.16885828971862793, 0.18789628148078918, 0.12722791731357574, 0.0582539439201355, -0.016712194308638573, 0.11264564096927643, -0.0237007737159729, 0.03344563767313957, 0.025483407080173492, -0.18064582347869873, -0.3347150385379791, 0.10742869228124619, 0.16482898592948914, 0.2723989486694336, -0.2006765902042389, 0.18322594463825226, -0.11839991062879562, 0.11378513276576996, -0.09668225795030594, 0.10448966175317764, -0.2799704372882843]], [[0.1500011533498764, -0.08950018882751465, 0.06807971000671387, 0.3293333053588867, 0.0635872408747673, 0.03422430530190468, -0.1778135597705841, -0.3669661283493042, 0.26637381315231323, 0.1908790022134781, -0.22876624763011932, 0.2559889554977417, -0.1560218632221222, -0.02438429929316044, -0.012520833872258663, -0.11757364869117737, -0.009426104836165905, 0.04620489105582237, -0.009290292859077454, -0.29467761516571045, -0.005264806095510721, -0.32089951634407043, 0.1234751045703888, 0.043238118290901184, 0.10403317958116531, -0.14708340167999268, 0.14054453372955322, -0.2089053839445114, 0.05327613651752472, 0.25803473591804504, -0.05592592805624008, -0.09801402688026428]]], [[[0.15130656957626343, -0.03976956009864807, -0.024722004309296608, -0.11508718132972717, -0.33100536465644836, -0.35149261355400085, 0.21551907062530518, 0.2553673982620239, -0.03721994906663895, 0.12497489899396896, -0.11231120675802231, -0.021724289283156395, -0.15002548694610596, 0.11563487350940704, 0.26705944538116455, -0.10442634671926498, 0.0006844332674518228, -0.055698417127132416, -0.11812541633844376, -0.13435597717761993, -0.03849644213914871, 0.20655225217342377, 0.12032751739025116, 0.311871737241745, -0.4069829285144806, 0.17203158140182495, -0.04435865208506584, 0.080049067735672, 0.16809594631195068, -0.2933361530303955, -0.016880366951227188, -0.015609042719006538]], [[0.0057931216433644295, 0.09547898918390274, 0.013904653489589691, -0.09783706814050674, -0.1797565221786499, 0.04184175282716751, 0.1577899158000946, 0.09260699152946472, 0.06851805746555328, 0.24099718034267426, -0.1424042284488678, -0.015110616572201252, 0.1331714391708374, 0.07256199419498444, 0.06230924651026726, 0.18174566328525543, 0.23318517208099365, 0.29900914430618286, 0.10146430879831314, -0.48138487339019775, 0.191146120429039, -0.05467981472611427, 0.14946557581424713, 0.0046766819432377815, 0.057810623198747635, 0.07242254912853241, 0.15381461381912231, 0.2209588587284088, -0.031647421419620514, -0.04437391459941864, 0.14373436570167542, 0.25103768706321716]], [[0.08359049260616302, 0.10842375457286835, -0.00023826674441806972, 0.06466726958751678, 0.18641838431358337, 0.2585812509059906, -0.07206694781780243, -0.41290321946144104, -0.03967166692018509, -0.1926334798336029, -0.02415725402534008, 0.18382707238197327, 0.010567107237875462, -0.05761124938726425, -0.4293926954269409, 0.03469082713127136, 0.020046433433890343, 0.08975312858819962, -0.05721399560570717, -0.20881463587284088, 0.16775552928447723, 0.012561826035380363, 0.14178451895713806, -0.22828160226345062, 0.25693780183792114, 0.13012917339801788, 0.14462949335575104, -0.21375672519207, 0.014563487842679024, 0.3098388910293579, -0.1413402110338211, 0.2374410778284073]]], [[[-0.22111573815345764, 0.021472394466400146, 0.05296389013528824, -0.21765829622745514, -0.22523261606693268, -0.05802976340055466, 0.19218894839286804, 0.0858265683054924, -0.23758457601070404, 0.04473122954368591, 0.2780741751194, -0.3250180184841156, -0.0050943773239851, -0.01537790521979332, 0.18140144646167755, -0.17383286356925964, 0.05525948107242584, 0.14098583161830902, 0.11606386303901672, -0.2599583566188812, 0.051998019218444824, 0.15870733559131622, -0.2852220833301544, 0.12762854993343353, -0.3250789940357208, 0.0012753362534567714, -0.40478670597076416, -0.03910798951983452, 0.0555494949221611, -0.131264790892601, -0.028657669201493263, 0.19761817157268524]], [[-0.27379655838012695, 0.017646457999944687, 0.11279214173555374, -0.31083422899246216, 0.050681259483098984, 0.2470257431268692, 0.10326769202947617, 0.2780870199203491, -0.3941583037376404, -0.2910563051700592, 0.2259950041770935, -0.4023864269256592, 0.018779143691062927, 0.14808398485183716, -0.32599425315856934, 0.12670201063156128, 0.017707424238324165, 0.14696623384952545, 0.22043511271476746, -0.035844989120960236, 0.06847187876701355, 0.20615120232105255, -0.29830074310302734, -0.1646725982427597, -0.06393735855817795, -0.17823748290538788, -0.19872087240219116, 0.1585843712091446, -0.0006810200866311789, 0.20600183308124542, 0.11162368953227997, 0.1599310338497162]], [[-0.16574622690677643, -0.020648794248700142, 0.042042076587677, -0.047719135880470276, 0.343767374753952, 0.18804486095905304, 0.16607843339443207, -0.08267860859632492, -0.2343336045742035, -0.44800496101379395, 0.13740696012973785, -0.3403184413909912, 0.15009215474128723, -0.04496326297521591, -0.4269053637981415, 0.04842099919915199, -0.1426927149295807, -0.2739902138710022, -0.09934885054826736, 0.252055823802948, 0.1333412379026413, 0.22935107350349426, -0.2436799705028534, -0.22665205597877502, 0.17304247617721558, 0.03431696072220802, 0.18716612458229065, 0.1946031004190445, 0.00824644137173891, 0.021433629095554352, 0.16519659757614136, -0.1449887901544571]]]], [[[[-0.18298344314098358, 0.09892284125089645, -0.04235917329788208, -0.06351359188556671, -0.1011328473687172, -0.14797256886959076, 0.0339759960770607, 0.1674845963716507, -0.14443339407444, 0.021987056359648705, 0.03782062605023384, -0.12454280257225037, -0.04822854325175285, 0.000938827870413661, -0.04279797896742821, -0.0470384880900383, 0.10157124698162079, -0.048376429826021194, -0.03043428063392639, 0.028789084404706955, -0.11761384457349777, -0.18949221074581146, -0.07622716575860977, 0.034948281943798065, -0.08375497162342072, -0.07742517441511154, 0.06194433197379112, -0.06630662828683853, 0.15237551927566528, 0.09925298392772675, 0.04579414427280426, 0.03706158697605133, 0.05328311771154404, -0.013269614428281784, -0.022789552807807922, 0.22110731899738312, -0.07219672203063965, 0.12479401379823685, -0.10488813370466232, 0.009125711396336555, 0.12225359678268433, 0.02355123870074749, -0.02560313418507576, -0.14287690818309784, -0.15692974627017975, -0.07185199111700058, 0.051293473690748215, -0.030948929488658905, -0.09942920506000519, 0.018894826993346214, 0.09709711372852325, -0.15010659396648407, 0.01662602461874485, 0.03265143185853958, -0.03099248930811882, -0.016826804727315903, 0.0403226763010025, -0.10104414820671082, -0.07080618292093277, -0.07715977728366852, -0.08243013918399811, -0.023434987291693687, 0.09647978097200394, -0.05456444248557091], [0.03625936806201935, 0.04029281809926033, 0.0999901294708252, -0.14443378150463104, 0.003785227658227086, -0.053169265389442444, 0.07909595966339111, -0.06546428799629211, -0.020481323823332787, -0.000463507923996076, -0.010677521117031574, 0.022724708542227745, 0.05750180780887604, -0.05131247267127037, 0.04504364728927612, -0.07870983332395554, 0.07963193953037262, -0.03155478090047836, 0.014278925955295563, 0.044906653463840485, -0.11453269422054291, 0.04666600748896599, -0.04548320174217224, -0.050347767770290375, -0.049797724932432175, -0.04136780649423599, 0.006549553479999304, 0.03720588609576225, 0.004372529219835997, 0.01787615567445755, 0.021980106830596924, -0.15969830751419067, 0.05663637816905975, -0.017975909635424614, -0.07761476188898087, 0.10176379233598709, 0.014031508006155491, 0.07109923660755157, 0.060135193169116974, -0.2479284256696701, 0.06285480409860611, -0.04148825258016586, -0.0036527414340525866, -0.040591392666101456, 0.09942777454853058, -0.11899392306804657, 0.11187665164470673, -0.05130588635802269, -0.11371082067489624, -0.006569193676114082, -0.11566537618637085, -0.02353675290942192, 0.07148236781358719, 0.07738379389047623, -0.02364293858408928, 0.05805989354848862, -0.08253107219934464, -0.16108490526676178, 0.09233399480581284, 0.05443247780203819, -0.1821080893278122, 0.00039569547516293824, 0.0815400630235672, -0.05406416207551956], [0.021109607070684433, 0.05824729800224304, 0.0023877513594925404, -0.11307276785373688, 0.04941432550549507, -0.11656570434570312, -0.05796452611684799, -0.0787833034992218, 0.01675763539969921, -0.0398942306637764, -0.044963665306568146, -0.00978599302470684, 0.04238985478878021, -0.04559420794248581, -0.030764931812882423, -0.1344878226518631, 0.004777987953275442, -0.02639267034828663, 0.11744969338178635, 0.05188038945198059, -0.04901827499270439, -0.007233246695250273, 0.06015259400010109, -0.05696885287761688, -0.06552411615848541, 0.02733529545366764, 0.0501522496342659, 0.010018834844231606, 0.025310928001999855, -0.020902957767248154, -0.03119913674890995, -0.038264546543359756, 0.009176322259008884, 0.058116935193538666, -0.009140415117144585, 0.011566990055143833, 0.014090526849031448, 0.05444920435547829, 0.0016751820221543312, -0.24726127088069916, -0.015119688585400581, 0.050599418580532074, 0.07223525643348694, -0.07707773149013519, -0.017250096425414085, 0.030493905767798424, -0.0808367133140564, 0.03613204509019852, -0.02402770146727562, 0.004749817308038473, -0.08598777651786804, -0.19994445145130157, 0.008194304071366787, -0.00888023991137743, 0.029819801449775696, -0.033213235437870026, -0.006463225930929184, -0.10487920045852661, 0.12083989381790161, 0.037552278488874435, -0.02191135287284851, 0.14346346259117126, 0.008852323517203331, -0.0864391103386879], [-0.09802194684743881, 0.22522062063217163, -0.1468467265367508, -0.09286573529243469, -0.1396850347518921, -0.05382802337408066, -0.04357152804732323, 0.35134968161582947, -0.17591513693332672, -0.16457170248031616, -0.15515774488449097, -0.006631367839872837, -0.04547509923577309, 0.05941508337855339, -0.09796255826950073, -0.1853349804878235, -0.15178953111171722, -0.09859269857406616, -0.27607154846191406, -0.09624071419239044, -0.007879219017922878, -0.45943647623062134, -0.1276727020740509, 0.0696273222565651, -0.2768430709838867, -0.1746138036251068, -0.08634816855192184, 0.11522798240184784, 0.11716646701097488, 0.08563534170389175, 0.1309201866388321, 0.07579044997692108, 0.19808749854564667, -0.07258198410272598, -0.07659899443387985, -0.027456242591142654, -0.0839729756116867, -0.09949998557567596, -0.43114984035491943, 0.16912205517292023, 0.12838996946811676, -0.07178928703069687, -0.1009317934513092, 0.03199147805571556, -0.19945010542869568, -0.08878112584352493, -0.10599394887685776, -0.047822702676057816, 0.05800662562251091, 0.10006479173898697, 0.12048452347517014, -0.08213452994823456, -0.02228851243853569, 0.0041467431001365185, 0.01370322797447443, -0.30391088128089905, 0.06908588856458664, -0.09017100185155869, -0.06974347680807114, -0.07507196068763733, -0.043208733201026917, -0.3571197986602783, -0.006999284960329533, -0.12845712900161743], [-0.18973582983016968, 0.0022387749049812555, 0.1370207816362381, -0.18828052282333374, 0.10867257416248322, -0.03618350252509117, -0.08708536624908447, 0.014840955846011639, -0.043061546981334686, -0.06923013180494308, -0.054309941828250885, 0.09085308015346527, -0.08935100585222244, 0.06667567044496536, 0.0328543558716774, -0.024726347997784615, -0.06561746448278427, 0.04367624595761299, -0.009977481327950954, -0.03436320647597313, -0.041385721415281296, 0.12089522182941437, -0.11918441206216812, -0.07415838539600372, -0.11102710664272308, 0.13409407436847687, 0.006572687532752752, 0.2144709974527359, 0.04770210012793541, 0.2283366173505783, -0.002391904592514038, -0.02357015386223793, 0.16937123239040375, -0.048813484609127045, -0.002525690710172057, -0.0015235863393172622, 0.04201716184616089, 0.08787712454795837, 0.10567948967218399, -0.3120479881763458, -0.128153458237648, 0.026310494169592857, 0.06905075907707214, 0.1541740447282791, 0.025858212262392044, -0.19085811078548431, -0.25882381200790405, -0.09195965528488159, -0.014286478981375694, 0.05388690158724785, 0.02757648006081581, -0.18539519608020782, 0.14319439232349396, -0.061804864555597305, 0.022271836176514626, 0.07974394410848618, -0.1407257467508316, -0.07339823246002197, -0.04187050089240074, -0.09560078382492065, -0.013999724760651588, 0.002927429974079132, -0.02076123282313347, 0.19247759878635406], [-0.19039100408554077, -0.0007622039411216974, 0.040841907262802124, -0.07885699719190598, 0.15169596672058105, -0.027932174503803253, -0.13251370191574097, -0.06164318323135376, -0.09391267597675323, 0.048010047525167465, -0.05230874940752983, -0.05388329550623894, 0.1375287026166916, 0.03002295270562172, 0.11263606697320938, -0.034143079072237015, -0.11574727296829224, -0.013362102210521698, 0.10259668529033661, 0.052346371114254, -0.14387495815753937, 0.11216042935848236, -0.06420077383518219, -0.03966140002012253, -0.062282733619213104, 0.014210009016096592, -0.06062289699912071, 0.15669405460357666, -0.06071491912007332, 0.09025797247886658, 0.014227569103240967, -0.13044939935207367, 0.08620709180831909, 0.05305025354027748, -0.08058315515518188, -0.06567969173192978, 0.07794167846441269, -0.03907971829175949, 0.07631920278072357, -0.2669369578361511, -0.16100409626960754, 0.02280161902308464, 0.09963786602020264, 0.04855787754058838, 0.12840566039085388, -0.19402994215488434, 0.0033997315913438797, -0.11205287277698517, -0.27610573172569275, 0.12553800642490387, -0.02467930130660534, -0.18040263652801514, 0.027624838054180145, -0.009685308672487736, 0.08436975628137589, 0.0688481330871582, -0.11107879132032394, -0.039077021181583405, -0.009743860922753811, -0.04352832958102226, -0.032509636133909225, 0.06177564710378647, -0.0006184063968248665, 0.12786784768104553], [0.11176571995019913, -0.2077435702085495, -0.11067710071802139, -0.22068481147289276, -0.18060582876205444, 0.12881773710250854, -0.08671904355287552, 0.035428911447525024, 0.04221564158797264, 0.12370385974645615, 0.09846670180559158, 0.09538563340902328, -0.04275336489081383, -0.0005107606993988156, 0.03062218427658081, 0.0017487861914560199, -0.17823858559131622, 0.06711568683385849, -0.10627433657646179, -0.34560754895210266, 0.05827563256025314, 0.019542288035154343, 0.017136648297309875, -0.017413239926099777, -0.00908462330698967, -0.035546574741601944, 0.0779554545879364, -0.3609645366668701, 0.1492282599210739, -0.03177705034613609, -0.05114557221531868, -0.27803412079811096, -0.14958827197551727, 0.0911860466003418, -0.02882767841219902, -0.06173890084028244, -0.12859801948070526, -0.2292647510766983, -0.14144586026668549, 0.23072165250778198, -0.3228413462638855, -0.024436065927147865, -0.10604823380708694, -0.07102372497320175, -0.02391205169260502, 0.2204202264547348, -0.1644514948129654, 0.037554532289505005, -0.27598515152931213, -0.19917459785938263, 0.030907042324543, -0.2487519234418869, -0.32348886132240295, -0.06510251760482788, -0.15933558344841003, -0.10627010464668274, -0.22682540118694305, 0.07281617820262909, 0.040782250463962555, -0.031370241194963455, 0.11274057626724243, -0.11179202049970627, -0.11142352968454361, -0.1055939570069313], [0.16928380727767944, 0.09314772486686707, 0.1658603399991989, 0.06642041355371475, -0.0568566732108593, -0.22679610550403595, -0.010163156315684319, -0.12057711184024811, 0.15398947894573212, 0.26023897528648376, 0.08940177410840988, 0.10009163618087769, -0.06407006084918976, 0.018347283825278282, -0.1080673560500145, 0.044840939342975616, 0.09904895722866058, -0.12754346430301666, -0.10921593010425568, 0.006618014071136713, 0.07323820888996124, -0.05989294871687889, -0.2160496860742569, 0.053985051810741425, -0.061424411833286285, 0.0332704596221447, -0.028002401813864708, -0.028948666527867317, -0.10353395342826843, -0.044933345168828964, 0.07324692606925964, -0.022946935147047043, 0.14042897522449493, -0.04890484735369682, 0.0608675554394722, -0.014168031513690948, -0.10307884961366653, -0.014616291038691998, -0.14699067175388336, -0.013085123151540756, 0.006670767441391945, 0.09332004934549332, 0.06643236428499222, -0.184822678565979, -0.23519934713840485, 0.15648993849754333, 0.15584297478199005, 0.16752779483795166, 0.05925644934177399, -0.1648900806903839, 0.029903724789619446, -0.18598616123199463, -0.044118523597717285, -0.09475904703140259, 0.001658203429542482, -0.0005620514857582748, -0.10043206810951233, -0.04616793990135193, -0.04242885857820511, 0.10534117370843887, 0.0033686738461256027, -0.0145531315356493, 0.07501288503408432, -0.04279686138033867], [-0.04886633902788162, 0.026950938627123833, -0.23905082046985626, -0.06101534143090248, -0.2382282018661499, 0.058085694909095764, -0.01151601504534483, 0.23595334589481354, -0.17000757157802582, -0.17533791065216064, -0.06203300505876541, -0.2789979875087738, -0.00244834553450346, -0.01703360304236412, -0.11842749267816544, -0.07055549323558807, -0.20032747089862823, -0.12482932209968567, -0.2646147310733795, -0.12002590298652649, -0.06524874269962311, -0.1991298347711563, -0.02775835059583187, -0.11769241839647293, -0.12607645988464355, -0.08685369789600372, 0.06831123679876328, -0.05368098244071007, 0.15352918207645416, 0.10126844048500061, 0.0410887748003006, -0.07815591990947723, -0.015853088349103928, 0.06216508895158768, -0.01084926538169384, 0.10585333406925201, -0.0834922045469284, -0.02845468558371067, -0.3180907070636749, 0.10993130505084991, 0.04164353385567665, 0.09042496234178543, -0.01311861164867878, -0.0327405147254467, -0.1087101548910141, -0.06113553047180176, 0.015482737682759762, -0.24941501021385193, -0.017047837376594543, 0.0701327845454216, 0.1403467208147049, -0.05295589566230774, -0.13953401148319244, 0.0863349661231041, -0.07661320269107819, -0.08895042538642883, 0.14485614001750946, -0.23019778728485107, -0.3054131269454956, -0.004070468246936798, -0.16943730413913727, -0.2962140738964081, 0.0013419282622635365, -0.040052033960819244], [-0.07621627300977707, 0.043712317943573, -0.07315962016582489, 0.05735575407743454, -0.18817725777626038, -0.2215857058763504, -0.06175487861037254, 0.0686936005949974, -0.10526358336210251, -0.041363488882780075, 0.032838594168424606, -0.1665993332862854, -0.10002691298723221, 0.0662708580493927, -0.08523128181695938, -0.11662037670612335, 0.04689168930053711, -0.21883639693260193, 0.011163347400724888, 0.15554888546466827, -0.009136136621236801, 0.02514592930674553, -0.07533425092697144, -0.0691845715045929, -0.11133677512407303, 0.041592784225940704, -0.041534364223480225, -0.2084408700466156, -0.004721193108707666, 0.11665718257427216, 0.09068194776773453, -0.07456605136394501, -0.0550130195915699, -0.07636576890945435, 0.03945881128311157, 0.07087846100330353, 0.07174912095069885, 0.012372585944831371, -0.13419973850250244, -0.15595468878746033, 0.036770619451999664, 0.036927834153175354, 0.16527059674263, -0.042325519025325775, -0.05024776980280876, -0.029557494446635246, 0.10855397582054138, -0.04174986109137535, 0.06358212232589722, -0.12266886979341507, -0.033869821578264236, -0.11006027460098267, -0.04941002279520035, 0.05114760249853134, -0.02999456599354744, 0.0031751985661685467, 0.018505260348320007, -0.2446422576904297, -0.19618143141269684, -0.08893020451068878, -0.19426274299621582, -0.006390926893800497, -0.04277097433805466, -0.017818117514252663], [0.1479918360710144, -0.2726700007915497, -0.020855572074651718, -0.20278054475784302, -0.12398172914981842, 0.17092359066009521, -0.11153411120176315, -0.06336205452680588, -0.02058809995651245, -0.06743420660495758, -0.015913065522909164, 0.1316877156496048, -0.0823606327176094, -0.024931102991104126, 0.006214607506990433, 0.03948316350579262, -0.21216075122356415, 0.14241746068000793, -0.2355857938528061, -0.3121248185634613, 0.05561903491616249, 0.0784212201833725, -0.08177173137664795, -0.09273957461118698, 0.09894543141126633, -0.10084088891744614, 0.007782704196870327, -0.17265476286411285, -0.010880200192332268, -0.013951998203992844, -0.09682097285985947, -0.00892435759305954, -0.047762855887413025, 0.12283755093812943, -0.09556090086698532, -0.05527245253324509, 0.052021972835063934, -0.11854322999715805, -0.07534603029489517, 0.4195689558982849, -0.27276092767715454, -0.13320136070251465, -0.08491083979606628, 0.03407476842403412, -0.024259625002741814, 0.1323736608028412, -0.08256690949201584, 0.005664110649377108, -0.15139569342136383, -0.10611776262521744, -0.018230151385068893, -0.21987605094909668, -0.35455331206321716, -0.18696796894073486, -0.05187129229307175, -0.02854718267917633, -0.1496267169713974, 0.09963380545377731, -0.01053056214004755, -0.07270429283380508, 0.16163738071918488, -0.19025450944900513, -0.0856143981218338, -0.011852066963911057], [-0.11712388694286346, 0.019890446215867996, -0.21321271359920502, 0.0036581442691385746, -0.22499965131282806, -0.008067557588219643, -0.01387980580329895, 0.31580278277397156, -0.33380448818206787, -0.2134191393852234, -0.3031098246574402, -0.09063930809497833, -0.09513135254383087, 0.023058045655488968, 0.006879168096929789, -0.04037890210747719, -0.06739386916160583, -0.10491249710321426, -0.3449804484844208, -0.1769455224275589, -0.038490064442157745, -0.45216500759124756, -0.0016363271279260516, -0.06165185943245888, -0.3725617527961731, -0.1956174671649933, -0.05579681321978569, 0.11045626550912857, 0.11178654432296753, 0.12333162873983383, 0.09709352999925613, 0.016120826825499535, 0.02492097020149231, 0.01388128474354744, -0.003915648441761732, 0.16066686809062958, -0.1367369145154953, -0.035014960914850235, -0.4043691158294678, 0.18589314818382263, -0.02304333634674549, -0.21445611119270325, -0.12547840178012848, 0.03460715338587761, -0.2298245131969452, -0.21969597041606903, -0.11980769038200378, -0.022072777152061462, 0.04097633808851242, 0.0030104569159448147, 0.019485609605908394, -0.004815411753952503, -0.18069911003112793, -0.02666175179183483, -0.020190276205539703, -0.179176464676857, 0.13971126079559326, -0.043012142181396484, -0.07582999765872955, -0.018809273838996887, -0.07126712799072266, -0.2602192163467407, 0.002119173062965274, -0.15334546566009521], [0.05927194654941559, 0.009895164519548416, 0.12546168267726898, -0.08369617164134979, -0.0389721542596817, -0.1355726569890976, -0.02333097904920578, -0.05742355063557625, 0.043987907469272614, 0.005567424464970827, 0.08021124452352524, 0.09023445099592209, 0.017330560833215714, 0.0694977268576622, 0.02810763008892536, -0.10042331367731094, 0.10348039865493774, -0.16564849019050598, -0.0017466136487200856, -0.05265379697084427, 0.005667520686984062, -0.09983425587415695, 0.10630839318037033, -0.025506863370537758, 0.011828016489744186, 0.0296025387942791, -0.09764044731855392, -0.049792688339948654, 0.02277405560016632, 0.09123038500547409, 0.054303430020809174, -0.028122272342443466, 0.07377353310585022, -0.01607719250023365, -0.048463013023138046, 0.04404747858643532, -0.04072049260139465, 0.08043579757213593, -0.01305472943931818, -0.2784712612628937, 0.09891495108604431, 0.023251300677657127, -0.03113015741109848, -0.02656860277056694, -0.04118344187736511, 0.09528539329767227, 0.07334242761135101, -0.015450740233063698, -0.12429222464561462, 0.053936656564474106, -0.01209354866296053, -0.09182777255773544, -0.039375659078359604, 0.050194982439279556, 0.06318481266498566, -0.014003855176270008, -0.03528665751218796, -0.1747591197490692, 0.04986247420310974, -0.029489709064364433, -0.07815026491880417, 0.1002134308218956, 0.11986194550991058, 0.008305681869387627], [0.06105881929397583, 0.0631692111492157, 0.13752107322216034, -0.011781136505305767, 0.028556376695632935, -0.08614442497491837, -0.05066704377532005, -0.0814262181520462, -0.04496249556541443, -0.03473144397139549, -0.04520898684859276, 0.024854056537151337, 0.02911836840212345, -0.022687949240207672, 0.03876713663339615, -0.0644868016242981, 0.044936805963516235, -0.1819085329771042, 0.05279260128736496, 0.04691850021481514, 0.043958261609077454, -0.071158267557621, 0.06578650325536728, 0.07438956201076508, 0.0013298924313858151, 0.04436933994293213, -0.08784326910972595, 0.04301697388291359, -0.05360904708504677, 0.03039640001952648, -0.0076094320975244045, -0.1982617825269699, 0.05919646844267845, -0.07588614523410797, 0.050043292343616486, 0.07167506963014603, -0.06855010986328125, 0.015713857486844063, 0.03970874473452568, -0.28569290041923523, 0.09682939946651459, -0.017071790993213654, 0.07323260605335236, -0.045706383883953094, 0.10939086228609085, -0.021566694602370262, 0.0543820895254612, -2.8633618057938293e-05, -0.13046911358833313, -0.020026851445436478, -0.07714954763650894, -0.21345354616641998, 0.059431012719869614, 0.09703177213668823, 0.01612815260887146, -0.009529138915240765, 0.06479329615831375, -0.11651569604873657, 0.06720207631587982, 0.05919753015041351, -0.07307915389537811, 0.14602477848529816, 0.08008500933647156, 0.0037867568898946047], [0.11969546973705292, 0.1070656031370163, -0.005730104632675648, 0.055245496332645416, -0.13094867765903473, -0.163942351937294, -0.19537509977817535, 0.005713392049074173, -0.03831174969673157, 0.10210350900888443, -0.007082403637468815, -0.10925569385290146, -0.09138624370098114, 0.15098966658115387, -0.1463111937046051, -0.1547844558954239, -0.008456830866634846, -0.22130729258060455, -0.0045355563051998615, 0.23158885538578033, 0.11926528811454773, 0.027783295139670372, -0.0369996577501297, -0.05887257307767868, -0.03552088886499405, 0.0816493034362793, -0.06418628990650177, 0.04600101709365845, -0.042454954236745834, 0.052385758608579636, 0.07672210037708282, -0.03275298699736595, -0.03175682947039604, -0.06587452441453934, 0.07128511369228363, 0.11653751134872437, -0.04246578365564346, -0.12601232528686523, -0.039353713393211365, -0.08162296563386917, 0.013888123445212841, 0.160702183842659, 0.12169094383716583, -0.04701609909534454, -0.08333119004964828, -0.12775614857673645, 0.21970249712467194, -0.11252360045909882, -0.0032592355273663998, -0.03304870426654816, 0.04168158024549484, -0.17227961122989655, -0.07279643416404724, -0.047677893191576004, -0.055437780916690826, 0.013637611642479897, -0.029276937246322632, -0.17077292501926422, -0.2532654404640198, -0.17363177239894867, -0.22733895480632782, -0.03788362443447113, 0.06237081438302994, 0.0026170804630964994], [0.007219242863357067, -0.022098759189248085, 0.09432055056095123, -0.010506550781428814, 0.03548828884959221, -0.01618470437824726, 0.08549538254737854, -0.05060463771224022, 0.037345655262470245, -0.021165544167160988, -0.027305686846375465, 0.08792367577552795, 0.0006673531024716794, 0.0861339271068573, 0.00421787379309535, -0.13052059710025787, 0.07029315084218979, -0.0721895769238472, 0.0002929005422629416, -0.06336728483438492, -0.04645863175392151, -0.06390859186649323, -0.017393944784998894, -0.060352444648742676, 0.023980464786291122, 0.023644376546144485, 0.01590384915471077, -0.007776869926601648, -0.0949796736240387, 0.14224684238433838, 0.09133798629045486, -0.07843387871980667, 0.1109197586774826, 0.10490349680185318, 0.011612851172685623, 0.016567960381507874, 0.05762343853712082, 0.14031662046909332, 0.05245545133948326, -0.341406911611557, -0.10202302783727646, -0.04199346527457237, 0.007810315117239952, 0.028384307399392128, -0.01260662917047739, -0.027344390749931335, 0.0201618280261755, 0.02328978292644024, -0.24820689857006073, 0.038829851895570755, -0.0976969376206398, -0.03535982593894005, -0.07898692786693573, -0.04476943239569664, 0.06266969442367554, 0.010592577047646046, -0.14945583045482635, -0.0407022088766098, 0.10978091508150101, 0.09000805765390396, -0.20659467577934265, 0.04319055750966072, 0.06294119358062744, 0.057933155447244644], [-0.025799322873353958, 0.03314293175935745, 0.1162470132112503, 0.015810543671250343, -0.0090278759598732, -0.11821768432855606, -0.060500241816043854, 0.06502988934516907, -0.022025184705853462, 0.029878851026296616, 0.101163849234581, -0.027337223291397095, -0.053173214197158813, 0.008939722552895546, 0.0033506464678794146, -0.06011543422937393, 0.07949451357126236, -0.046173762530088425, 0.12661117315292358, 0.17020879685878754, -0.018239963799715042, -0.03834344446659088, 0.05557559058070183, 0.003830939531326294, 0.0018942483002319932, -0.12619978189468384, -0.04968392848968506, -0.05535023286938667, -0.0994652807712555, 0.03187040239572525, -0.04549839720129967, -0.19509664177894592, 0.09164302051067352, -0.10769122838973999, -0.12527406215667725, 0.09146954119205475, -0.020714472979307175, 0.04224531352519989, -0.08345799148082733, -0.2854364812374115, -0.04722125455737114, 0.052675068378448486, -0.017219241708517075, -0.08721137046813965, 0.11011864244937897, -0.08996642380952835, -0.03220696002244949, 0.026201846078038216, -0.10178064554929733, 0.0008768535917624831, -0.20538030564785004, -0.13244126737117767, 0.037394389510154724, 0.0956818237900734, 0.016122791916131973, 0.13739733397960663, 0.03474026173353195, -0.21002162992954254, 0.017306659370660782, -0.015464928932487965, -0.16753295063972473, 0.10218855738639832, 0.1042814627289772, -0.030188055709004402], [-0.10314099490642548, 0.026070058345794678, 0.08350595831871033, -0.02187371999025345, 0.05867799371480942, -0.048435039818286896, -0.1625462770462036, -0.04014110937714577, -0.05783091112971306, -0.10376528650522232, 0.08904952555894852, 0.010563542135059834, 0.10511139035224915, 0.12583117187023163, 0.06599295139312744, -0.030189447104930878, -0.03741705045104027, -0.07121963053941727, 0.08761762082576752, 0.19577232003211975, -0.019978072494268417, 0.18368493020534515, 0.044081926345825195, 0.0017156447283923626, 0.006221784744411707, 0.025807615369558334, 0.05775921791791916, -0.16997702419757843, -0.06730949133634567, 0.016743790358304977, -0.097578264772892, -0.29965445399284363, 0.0052947429940104485, 0.04213327541947365, -0.0031943959183990955, 0.04311511665582657, 0.034037962555885315, 0.051357727497816086, 0.06751810014247894, -0.24342866241931915, -0.08188153058290482, 0.15753479301929474, 0.12056221067905426, -0.15340884029865265, 0.022875197231769562, -0.1214018166065216, 0.03481186553835869, -0.0026112962514162064, -0.24911189079284668, -0.02341599576175213, -0.3007570207118988, -0.2933425009250641, -0.06217513233423233, -0.06333372741937637, -0.05137697607278824, 0.18419182300567627, -0.07252466678619385, 0.0041071223095059395, 0.10579980909824371, 0.018930187448859215, -0.04233258590102196, 0.03055945597589016, 0.027158455923199654, 0.028787417337298393], [0.07636307924985886, -0.07505492866039276, 0.1424785703420639, -0.09856683015823364, -0.046834833920001984, 0.02896333672106266, -0.1399410516023636, -0.13012449443340302, -0.03332719951868057, -0.05378012731671333, 0.07173716276884079, 0.1464781016111374, 0.03838544338941574, -0.0088044423609972, 0.01182570680975914, 0.03747575730085373, -0.07306812703609467, -0.06034865230321884, -0.042400747537612915, -0.062054023146629333, 0.022782936692237854, 0.003580366959795356, -0.07833254337310791, -0.015067042782902718, -0.0822405070066452, -0.013547799549996853, -0.07497614622116089, -0.05392088741064072, -0.11019705981016159, -0.006902218796312809, 0.013195273466408253, -0.21043837070465088, -0.07211413979530334, -0.009650152176618576, -0.014384583570063114, -0.011470957659184933, -0.03222283348441124, -0.05475807562470436, -0.001118109212256968, -0.03274422138929367, -0.08731977641582489, -0.022602250799536705, 0.12315335869789124, -0.013086022809147835, 0.05527422949671745, 0.09445247054100037, 0.017115077003836632, 0.03600022941827774, -0.2599714398384094, -0.027404144406318665, -0.09280116111040115, -0.35357803106307983, -0.13584618270397186, 0.05483982339501381, 0.11638326197862625, 0.0016763861058279872, -0.16533444821834564, -0.10625236481428146, -1.9764465832849964e-05, -0.006052270065993071, -0.07816566526889801, 0.07366589456796646, 0.053338393568992615, 0.031070968136191368], [-0.10188905149698257, 0.0009502687025815248, -0.039296962320804596, -0.14534245431423187, -0.02001805789768696, 0.021811651065945625, -0.03200696408748627, -0.1550721973180771, -0.18365466594696045, -0.1258910894393921, -0.10777835547924042, -0.07035978883504868, 0.02617943100631237, 0.00808931514620781, -0.24851638078689575, -0.03252571076154709, -0.20605972409248352, 0.037663187831640244, -0.1379435509443283, -0.2294420599937439, -0.016834912821650505, 0.08120079338550568, -0.04623159393668175, -0.1684388667345047, 0.0663425475358963, 0.09483176469802856, -0.058727145195007324, 0.014757592231035233, -0.05926896259188652, -0.09785819053649902, -0.13659201562404633, -9.501051681581885e-05, -0.09948600083589554, 0.09184930473566055, -0.01771257258951664, -0.02811679057776928, 0.03416123613715172, -0.09427402168512344, -0.013389240019023418, 0.19911687076091766, -0.05019629746675491, -0.062151145190000534, -0.14942871034145355, 0.14081430435180664, -0.056934140622615814, -0.06413678079843521, -0.05048517510294914, -0.23296140134334564, 0.07142113894224167, -0.06429926306009293, 0.028194494545459747, 0.047432828694581985, 0.013616109266877174, -0.15975674986839294, -0.1453990936279297, -0.1240280419588089, -0.16694223880767822, 0.08708769828081131, -0.12126820534467697, -0.11112314462661743, 0.01577015221118927, -0.2401198297739029, -0.1573987454175949, 0.0676659494638443], [-0.04494813457131386, -0.07271012663841248, 0.1330260932445526, -0.1310843676328659, 0.10506265610456467, -0.08492372184991837, 0.02740667015314102, -0.03464460000395775, 0.07788117229938507, -0.05220296233892441, -0.005908274557441473, 0.06067676097154617, -0.019700344651937485, -0.010830622166395187, -0.03930673375725746, 0.0311531163752079, -0.04290076717734337, -0.018080109730362892, 0.007550063077360392, -0.030326901003718376, -0.1125350072979927, 0.006911716423928738, -0.05698895826935768, -0.03374259173870087, 0.08983314037322998, -0.013125593774020672, -0.02012813277542591, -0.08546063303947449, -0.02336513251066208, 0.04307469353079796, -0.014168856665492058, -0.20671652257442474, 0.027433933690190315, -0.009906160645186901, -0.14218614995479584, -0.028707973659038544, -0.022904090583324432, -0.08309230953454971, -0.02220856584608555, -0.18718348443508148, -0.0644390732049942, 0.05420198664069176, -0.009579001925885677, 0.04848532751202583, 0.07480712234973907, -0.08476956933736801, -0.17108875513076782, 0.04089159518480301, -0.2492975890636444, -0.07589434087276459, -0.17658497393131256, -0.1307322233915329, 0.0763542428612709, 0.06758616864681244, -0.05998676270246506, -0.014542126096785069, -0.1751079112291336, -0.027415737509727478, 0.08421489596366882, -0.042550455778837204, -0.13176406919956207, -0.004825843498110771, 0.09300000965595245, -0.0604909285902977], [0.13606271147727966, -0.2640078663825989, 0.048029109835624695, -0.21899592876434326, -0.05399683490395546, 0.013089016079902649, -0.04641568660736084, -0.11509309709072113, 0.02414921671152115, 0.11475617438554764, 0.005974991712719202, 0.035962410271167755, 0.033674344420433044, -0.027394572272896767, -0.028160586953163147, 0.09911378473043442, -0.1270323544740677, 0.0704682394862175, 0.022481540217995644, -0.09828004986047745, 0.033800117671489716, 0.13108982145786285, -0.004401503596454859, 0.020283350721001625, -0.03508574143052101, -0.028574028983712196, 0.080202117562294, -0.32454732060432434, 0.153465136885643, -0.05862703546881676, 0.002961964812129736, -0.08903083950281143, -0.12637166678905487, 0.0973559021949768, -0.07727877795696259, 0.08795101940631866, -0.021513119339942932, -0.08675601333379745, 0.05583749711513519, 0.07928233593702316, -0.257722944021225, -0.03845783695578575, -0.09405069053173065, 0.06816786527633667, 0.06526289880275726, 0.12163491547107697, -0.043444182723760605, 0.030614877119660378, -0.11089257150888443, -0.22638684511184692, -0.036151155829429626, -0.26695311069488525, -0.030402299016714096, 0.02060186304152012, -0.03320499509572983, 0.02651611529290676, -0.13754144310951233, 0.05756717920303345, 0.033259905874729156, 0.05240234360098839, 0.12452758848667145, -0.05243460088968277, 0.06014275923371315, -0.060364678502082825], [-0.21691757440567017, 0.0908392071723938, -0.034073103219270706, -0.13475793600082397, -0.13671810925006866, -0.12355547398328781, -0.01268154289573431, 0.13527625799179077, -0.1467546969652176, -0.08923491835594177, -0.029257819056510925, -0.15939222276210785, -0.04279790446162224, 0.06896678358316422, 0.04742228239774704, -0.13057976961135864, -0.005492139142006636, -0.14939463138580322, -0.06465703248977661, -0.04990699142217636, -0.01549169234931469, -0.06794679909944534, -0.09915319830179214, -0.10589413344860077, -0.17599017918109894, -0.1220349371433258, 0.029495522379875183, -0.0681520402431488, 0.07907184958457947, 0.12465407699346542, 0.07603076100349426, -0.1215081736445427, 0.026140661910176277, -0.10024557262659073, -0.020764753222465515, 0.19893673062324524, -0.1726064532995224, 0.04241812229156494, -0.10389290004968643, 0.10230568051338196, 0.06897010654211044, 0.006054592318832874, 0.017857685685157776, -0.10693249106407166, -0.06336703151464462, -0.04549045488238335, -0.02030954696238041, -0.09973705559968948, -0.038698725402355194, -0.02715534344315529, -0.02556830644607544, -0.1591845452785492, -0.029327595606446266, -0.018741127103567123, -0.09140065312385559, -0.029986685141921043, 0.04633457213640213, -0.19980989396572113, -0.13303202390670776, -0.09511902183294296, -0.19875198602676392, -0.1449083536863327, 0.0833841934800148, -0.16635602712631226], [0.04382919892668724, 0.06728638708591461, 0.11970490962266922, -0.05267389491200447, -0.11883357167243958, -0.14455866813659668, -0.0425494946539402, 0.041484396904706955, -0.0553898848593235, 0.10038533061742783, 0.04317589849233627, 0.10966917127370834, 0.07283126562833786, 0.12709729373455048, -0.011301122605800629, -0.03680001571774483, -0.017016075551509857, -0.23437033593654633, 0.0917472243309021, 0.14397460222244263, -0.007127293851226568, 0.10850778967142105, -0.004146805498749018, -0.002105081919580698, -0.10761480033397675, 0.1012444794178009, 0.04204948991537094, -0.1275169998407364, -0.1683586686849594, 0.045864976942539215, -0.08503155410289764, -0.008404591120779514, 0.015988918021321297, -0.01345242839306593, 0.08563634008169174, 0.04808739945292473, -0.057263728231191635, -0.022356852889060974, -0.16019615530967712, -0.184566929936409, 0.001991884782910347, 0.14368829131126404, 0.1562044471502304, -0.1015835553407669, 0.0006083010230213404, 0.10406413674354553, 0.06056325510144234, 0.09519797563552856, -0.057938940823078156, -0.13446854054927826, -0.10553175956010818, -0.15508998930454254, 0.05388832464814186, -0.09934975206851959, -0.05630698800086975, 0.05538317188620567, 0.024855345487594604, -0.2800288200378418, -0.03731184080243111, -0.10409313440322876, -0.17547130584716797, 0.05241242051124573, -0.016073420643806458, 0.021829985082149506], [-0.09866871684789658, 0.2090761661529541, 0.03550456836819649, -0.023768989369273186, 0.17228418588638306, -0.07592227309942245, 0.013959404081106186, 0.15109147131443024, -0.05844499543309212, -0.0077677639201283455, 0.04045801982283592, 0.01809186302125454, 0.04063750430941582, 0.21204353868961334, -0.10389187186956406, -0.0964907854795456, -0.018989959731698036, -0.09118425846099854, -0.0955919623374939, -0.11910861730575562, -0.060888368636369705, -0.1556224673986435, -0.11127958446741104, -0.022067377343773842, -0.20545585453510284, 0.02265152707695961, -0.13435186445713043, 0.11980246007442474, -0.013554474338889122, 0.13863778114318848, 0.08349806070327759, 0.0300978422164917, 0.06423118710517883, -0.02451513335108757, -0.1788630336523056, -0.2412334382534027, -0.042121365666389465, 0.1154872477054596, 0.06544072926044464, -0.215330109000206, -0.13767153024673462, -0.05969450995326042, -0.006856533233076334, 0.09736211597919464, -0.022419314831495285, -0.1496896743774414, 0.035575080662965775, -0.006492378190159798, -0.1103278324007988, 0.1610141396522522, 0.13175132870674133, 0.036416079849004745, 0.06322668492794037, 0.05405781790614128, -0.020142769441008568, 0.02794143743813038, -0.06251484155654907, -0.027974877506494522, 0.06052476540207863, -0.010380459018051624, -0.014127464033663273, 0.006108722183853388, -0.026459401473402977, 0.0827844887971878], [0.06078626960515976, -0.03540772199630737, -0.04762284830212593, -0.03067396767437458, 0.001455910038203001, -0.09995804727077484, -0.04921354725956917, 0.022501083090901375, 0.04195563122630119, 0.013768541626632214, 0.03916095569729805, 0.087629035115242, 0.05352180823683739, -0.017078842967748642, 0.033508241176605225, -0.10935036092996597, 0.09212224930524826, -0.1613430678844452, 0.0996926873922348, 0.025457441806793213, -0.043073929846286774, -0.05691900849342346, -0.009945987723767757, 0.04205295816063881, -0.00014785020903218538, -0.11498332768678665, 0.01611681468784809, -0.17517060041427612, 0.05377189442515373, 0.07932255417108536, -0.06723952293395996, -0.1044357493519783, -0.09118577837944031, 0.07672876864671707, 0.04902024194598198, 0.07805502414703369, -0.006852513179183006, -0.020332742482423782, -0.0703258067369461, -0.17042124271392822, -0.07919197529554367, 0.03510528430342674, -0.08547430485486984, -0.15071693062782288, 0.06838440150022507, 0.02938576228916645, 0.14849324524402618, 0.022427044808864594, 0.017559852451086044, -0.028408536687493324, -0.07023744285106659, -0.1321512758731842, -0.012767774984240532, 0.05861655995249748, -0.01788800023496151, -0.08052665740251541, -0.002604009583592415, -0.13993604481220245, 0.024407053366303444, -0.061904795467853546, -0.10103784501552582, -0.04574572294950485, 0.1430167257785797, -0.016525857150554657], [-0.02988632209599018, 0.02137482538819313, 0.015916749835014343, -0.08631689101457596, 0.12118986994028091, -0.12910275161266327, 0.1424463391304016, 0.20020195841789246, -0.008178625255823135, -0.09959293901920319, -0.06816957890987396, -0.06946178525686264, 0.0918692797422409, 0.09698867052793503, 0.021365506574511528, -0.08688071370124817, 0.1008288562297821, -0.16207370162010193, -0.09806746244430542, -0.08635873347520828, -0.008024991489946842, -0.14171648025512695, 0.007532489486038685, -0.051779501140117645, -0.14058896899223328, -0.09588070958852768, -0.08508826792240143, 0.12246669828891754, 0.07721474766731262, 0.2134682685136795, 0.004672727547585964, -0.0629400834441185, 0.05377662554383278, -0.08647804707288742, -0.01451333612203598, -0.0247962549328804, -0.09067921340465546, 0.2241356521844864, -0.07544349879026413, -0.2284007966518402, 0.028912466019392014, -0.1623358130455017, -0.053456421941518784, -0.00628331582993269, -0.010849990881979465, -0.056853409856557846, -0.019128698855638504, -0.030903499573469162, -0.06004635617136955, 0.04346894472837448, -0.03992288559675217, 0.004622120875865221, 0.06993884593248367, -0.011893315240740776, 0.036122724413871765, -0.005024112295359373, 0.0793883353471756, -0.0982760488986969, 0.107916921377182, 0.13571853935718536, -0.06097119301557541, -0.021323518827557564, 0.06711938977241516, -0.07330936938524246], [0.2106979489326477, 0.006585878320038319, 0.1747475266456604, -0.02581085078418255, -0.06191704794764519, -0.03627924993634224, -0.047237005084753036, -0.017158547416329384, 0.08279918134212494, 0.09033388644456863, 0.00913235079497099, 0.11518066376447678, 0.07250922173261642, -0.023817960172891617, -0.07265029847621918, -0.023199843242764473, 0.07390414923429489, -0.032702572643756866, -0.02563844993710518, -0.17756566405296326, -0.024595832452178, -0.04853152856230736, -0.08683927357196808, 0.08879949152469635, -0.07555007189512253, -0.015476200729608536, -0.05347735062241554, -0.023433983325958252, -0.022180868312716484, -0.04405144602060318, -0.019375603646039963, -0.26588764786720276, -0.006089814472943544, 0.07075409591197968, -0.013152051717042923, -0.040043413639068604, 0.048625022172927856, -0.028398752212524414, -0.07326905429363251, -0.044318847358226776, -0.0980350524187088, -0.01281793788075447, -0.048971690237522125, 0.030868414789438248, -0.06043924391269684, 0.0637667179107666, 0.014563703909516335, -0.008232572115957737, -0.1519218236207962, -0.06746084988117218, 0.058701060712337494, -0.011005140841007233, -0.00836916733533144, -0.00533533887937665, 0.053358521312475204, -0.07898157089948654, -0.05569934472441673, -0.019759103655815125, 0.05036599561572075, 0.1221066489815712, -0.06680331379175186, -0.043675247579813004, 0.11004588752985, -0.04401426762342453], [-0.030467910692095757, -0.011773040518164635, 0.09565072506666183, -0.09212281554937363, 0.08392138034105301, -0.19086726009845734, -0.06626354902982712, 0.06587289273738861, 0.05800950154662132, 0.034841254353523254, -0.04443180933594704, 0.00048810968291945755, -0.047649890184402466, 0.025084419175982475, 0.01952257938683033, -0.17042824625968933, 0.07305991649627686, -0.10451866686344147, 0.061982013285160065, 0.11076579988002777, -0.022031137719750404, -0.1074804961681366, 0.008715794421732426, -0.05357882380485535, -0.139089435338974, -0.08744850754737854, 0.04762773588299751, 0.009352590888738632, 0.01685558818280697, 0.08081649988889694, -0.11800061911344528, -0.06675706803798676, -0.02755599655210972, -0.07330767810344696, -0.06678300350904465, -0.007716630585491657, -0.010114059783518314, 0.05403972417116165, -0.06919336318969727, -0.21163706481456757, 0.024122191593050957, -0.017315903678536415, 0.0969804972410202, -0.1466260850429535, 0.07942333072423935, -0.01967492699623108, -0.024700533598661423, 0.023913325741887093, 0.020789850503206253, -0.14803631603717804, -0.1498361974954605, -0.10709791630506516, -0.04525783285498619, 0.1309591829776764, 0.08533689379692078, -0.058555420488119125, -0.05649438127875328, -0.0920211672782898, 0.11161475628614426, -0.05994907021522522, -0.21557514369487762, 0.15500132739543915, 0.038702722638845444, -0.0333213247358799], [-0.18852224946022034, 0.16654345393180847, -0.031091254204511642, 0.1280285269021988, 0.08824677020311356, -0.08389146625995636, -0.10857416689395905, 0.015082075260579586, -0.14160925149917603, 0.0907515436410904, 0.02562730573117733, 0.04987061396241188, 0.040915511548519135, 0.16795800626277924, 0.10449942201375961, -0.19748717546463013, -0.031559333205223083, -0.11469905823469162, 0.025162581354379654, 0.16256430745124817, -0.22847259044647217, 0.012751000002026558, -0.09912759810686111, -0.08878432214260101, -0.09576751291751862, 0.131597101688385, -0.003635205328464508, 0.2051142305135727, -0.039797358214855194, 0.26831525564193726, 0.07604243606328964, -0.00959745142608881, 0.010702060535550117, 0.05716017261147499, -0.08050532639026642, -0.1671716272830963, 0.07060353457927704, -0.023190710693597794, 0.07646190375089645, -0.3755738139152527, -0.15620100498199463, 0.059267908334732056, 0.02356533333659172, -0.024350738152861595, 0.08615625649690628, -0.34866082668304443, -0.1972062736749649, 0.017517494037747383, -0.16821305453777313, 0.16688509285449982, -0.14043395221233368, -0.03312462940812111, 0.10765217244625092, 0.025158444419503212, 0.2040853053331375, 0.09968111664056778, -0.07028419524431229, 0.05242159962654114, -0.004274275619536638, -0.06449735909700394, -0.14598679542541504, -0.012424143962562084, -0.08480096608400345, 0.14775682985782623], [0.0525101013481617, 0.040933337062597275, 0.06817323714494705, -0.11416045576334, 0.05872991308569908, -0.08984138816595078, 0.04043598100543022, -0.12305325269699097, 0.08201336115598679, -0.035983212292194366, -0.049377504736185074, 0.11550310254096985, 0.06422159075737, -0.009889557957649231, 0.031785666942596436, -0.06433283537626266, 0.012160628102719784, -0.03726566955447197, -0.03548387810587883, 0.05160345509648323, -0.12231296300888062, -0.09734027087688446, 0.03264186903834343, 0.06917841732501984, -0.08415941148996353, -0.0839758887887001, 0.00033229091786779463, 0.07334879040718079, 0.02017877995967865, 0.02867676503956318, -0.08471784740686417, -0.15683427453041077, 0.00606771744787693, 0.06581766158342361, -0.04916228726506233, 0.07330314815044403, -0.03674774989485741, -0.015497305430471897, 0.010818421840667725, -0.198952317237854, -0.034178588539361954, -0.059609267860651016, 0.1234598457813263, 0.016676172614097595, 0.010477270931005478, 0.06352695822715759, 0.025623224675655365, 0.09205269813537598, -0.1767205446958542, -0.06828120350837708, -0.029045630246400833, -0.05926303565502167, -0.007097373716533184, 0.08985719084739685, 0.1085304468870163, 0.002949959598481655, -0.0034250307362526655, -0.14060795307159424, 0.08966028690338135, 0.003129572607576847, -0.14066119492053986, 0.17348207533359528, 0.05722316354513168, -0.06595626473426819], [-0.03470483049750328, -0.10955561697483063, 0.09379252791404724, -0.12907886505126953, -0.03996947407722473, 0.07612975686788559, -0.07705163955688477, 0.05798114836215973, -0.07112821936607361, -0.02392118237912655, 0.02917967177927494, -0.003769960952922702, 0.11680172383785248, 0.061803996562957764, 0.02691514417529106, -0.08131267875432968, -0.045032061636447906, 0.08235431462526321, 0.08145064115524292, 0.11634629964828491, -0.1310971975326538, 0.10048843175172806, 0.09311233460903168, -0.10463779419660568, 0.06214514002203941, -0.06305437535047531, 0.07875582575798035, -0.21743790805339813, 0.042288023978471756, 0.08096286654472351, -0.09486638754606247, -0.2342684268951416, -0.07951094955205917, 0.12652291357517242, -0.08781211823225021, 0.05933776870369911, -0.020974863320589066, -0.08897434175014496, 0.01840272918343544, 0.01260859053581953, -0.2525129020214081, -0.00322748813778162, 0.08046294748783112, -0.10530957579612732, 0.10472899675369263, -0.05037658289074898, -0.11623553931713104, -0.009904222562909126, -0.3889316916465759, -0.11633364111185074, -0.3128353953361511, -0.32556211948394775, -0.033162426203489304, -0.06764218956232071, 0.05525119602680206, 0.03170761093497276, -0.1926277130842209, -0.004495793487876654, -0.03204251080751419, -0.011440775357186794, -0.10920565575361252, 0.01329211425036192, -0.017389630898833275, -0.014116372913122177]], [[-0.24786683917045593, 0.08775351196527481, 0.061471544206142426, -0.07123954594135284, 0.01874518021941185, -0.216421440243721, -0.15733258426189423, 0.19598348438739777, -0.1374269425868988, -0.07777127623558044, 0.09884761273860931, -0.09533584117889404, 0.003392533864825964, 0.026495281606912613, 0.019648870453238487, 0.019837528467178345, -0.04124833270907402, -0.13925215601921082, 0.12302996218204498, -0.024682246148586273, -0.0616791695356369, -0.04478824883699417, -0.0824192613363266, -0.1765882521867752, -0.14628291130065918, -0.14860232174396515, 0.05019228160381317, -0.047456029802560806, 0.07205978780984879, 0.13542872667312622, 0.00742179062217474, -0.06255114078521729, -0.0653853490948677, -0.06600967049598694, -0.013011744245886803, 0.13710536062717438, 0.06354652345180511, 0.03120371513068676, -0.1322486251592636, -0.16271059215068817, 0.10124187916517258, -0.06953516602516174, 0.14888331294059753, -0.10319872200489044, 0.013426714576780796, -0.1317337453365326, -0.21698130667209625, -0.0772739127278328, -0.03307981416583061, 0.1166197881102562, -0.1489514261484146, -0.029735445976257324, 0.025175930932164192, 0.06396312266588211, -0.08193118870258331, 0.10520019382238388, 0.061525873839855194, -0.10171270370483398, -0.19428110122680664, -0.0499531514942646, -0.2605368196964264, -0.049791887402534485, -0.004576105624437332, -0.049405232071876526], [-0.17967163026332855, 0.006644831504672766, -0.004430250730365515, -0.06052697077393532, 0.00960705429315567, -0.014076205901801586, -0.011884610168635845, -0.0006964631611481309, -0.09427908807992935, -0.0017618213314563036, -0.04932253435254097, -0.014871541410684586, -0.014136072248220444, -0.09934866428375244, 0.057325445115566254, -0.0721384584903717, -0.061468567699193954, -0.08238178491592407, 0.07896298170089722, -0.012917537242174149, -0.13126705586910248, 0.04850165918469429, 0.010606826283037663, 0.016091985628008842, -0.10804837197065353, -0.1379270702600479, -0.03479766100645065, 0.021300645545125008, -0.054452333599328995, 0.0598553903400898, -0.05238496512174606, 0.05472659319639206, 0.03497500717639923, 0.008660647086799145, -0.050913672894239426, -0.03739892318844795, 0.061557307839393616, 0.06642390042543411, -0.08262497186660767, -0.261136919260025, 0.0805865153670311, -0.06977904587984085, -0.031274691224098206, 0.05094891041517258, -0.008781250566244125, -0.09077479690313339, -0.094355508685112, 0.00026067672297358513, -0.0010939703788608313, 0.12272563576698303, -0.009026682004332542, -0.05934956297278404, 0.07475926727056503, 0.027511829510331154, -0.018503479659557343, -0.005041065625846386, -0.09894407540559769, 0.012151339091360569, 0.05994186922907829, 0.07293710112571716, -0.027399731799960136, 0.02654123306274414, -0.0509367473423481, 0.07241068035364151], [-0.1630793809890747, 0.12290415167808533, 0.0064682140946388245, -0.03692474961280823, -0.03601592034101486, 0.02166595868766308, 0.0305122509598732, -0.04394029453396797, -0.05822722986340523, 0.005168208386749029, -0.04674028605222702, 0.1067126914858818, 0.11430760473012924, -0.04552619904279709, 0.03154139965772629, -0.05109185352921486, -0.06541718542575836, 0.03394024074077606, 0.06841018050909042, -0.031678229570388794, -0.028122734278440475, -0.011828921735286713, -0.0025054230354726315, -0.06956413388252258, 0.020335102453827858, 0.011756328865885735, -0.09143713116645813, 0.05051233246922493, -0.049115847796201706, 0.036044731736183167, -0.0321536660194397, 0.11314547806978226, -0.02558995969593525, -0.055226556956768036, 0.018928829580545425, 0.0617731474339962, 0.015053548850119114, 0.039740126579999924, -0.03724842146039009, -0.14340780675411224, -0.039306312799453735, -0.021384108811616898, 0.024371694773435593, 0.015624945051968098, 0.13643087446689606, -0.035693589597940445, -0.08320756256580353, -0.096993587911129, -0.04954838380217552, 0.034590575844049454, -0.0894797295331955, -0.08224377781152725, 0.008050147444009781, 0.11164010316133499, 0.05662951245903969, 0.016381554305553436, -0.12442551553249359, 0.005926785059273243, 0.09665120393037796, 0.07962679862976074, 0.012254004366695881, -0.037918537855148315, -0.0199749618768692, 0.04904782399535179], [-0.10454167425632477, -0.0868307501077652, -0.10869093239307404, 0.1667732149362564, -0.2589651048183441, -8.66906630108133e-05, -0.1833995133638382, 0.23267117142677307, -0.18899855017662048, -0.01944633200764656, -0.16725169122219086, -0.24039579927921295, -0.03197449818253517, -0.1326371282339096, 0.11711721867322922, -0.06598719209432602, -0.14983206987380981, 0.07056549191474915, -0.057316407561302185, 0.09754879027605057, 0.11308560520410538, -0.0023940340615808964, -0.0880473181605339, -0.16913846135139465, -0.2538881003856659, -0.20647013187408447, -0.06081008166074753, -0.07417870312929153, 0.12737441062927246, 0.02095767669379711, -0.06997843831777573, -0.08715584129095078, -0.270456999540329, -0.009585564024746418, 0.13152408599853516, 0.08787892758846283, -0.10592584311962128, -0.2365136593580246, -0.24687744677066803, 0.007987462915480137, 0.11278418451547623, -0.08164718002080917, 0.06815933436155319, -0.007376490626484156, -0.20867706835269928, -0.02459481731057167, -0.21391382813453674, -0.05505279079079628, -0.1485227644443512, 0.15697021782398224, -0.031766075640916824, 0.0035779615864157677, -0.2676810026168823, 0.1799802929162979, -0.0735405683517456, 0.11086853593587875, 0.2517879903316498, 0.04368054121732712, -0.4484125077724457, -0.10060447454452515, -0.08040774613618851, -0.07979906350374222, -0.035931624472141266, -0.07509564608335495], [0.03247297927737236, 0.027968378737568855, -0.2426518350839615, -0.13290804624557495, -0.08738383650779724, 0.048869140446186066, -0.03695451840758324, -0.13738372921943665, 0.02216500975191593, 0.17019714415073395, 0.10720329731702805, 0.1685074269771576, 0.010922089219093323, -0.02902887389063835, -0.05670744925737381, 0.1314883530139923, -0.010833034291863441, 0.028884783387184143, 0.0070144725032150745, -0.039461806416511536, 0.024128559976816177, 0.1791478991508484, -0.015473167411983013, -0.06192077696323395, 0.055250778794288635, 0.06879272311925888, -0.09864004701375961, 0.14282149076461792, -0.1986357569694519, 0.1412944197654724, -0.06250949203968048, 0.18059304356575012, 0.03304280340671539, -0.001203178777359426, -0.008965249173343182, -0.06531445682048798, 0.10426057130098343, 0.02189427986741066, 0.08409454673528671, -0.22232799232006073, 0.12333038449287415, 0.03355669602751732, -0.24908339977264404, -0.03945302218198776, 0.02037685550749302, -0.2836761176586151, 0.056139808148145676, 0.007951898500323296, 0.13880208134651184, 0.10319498181343079, 0.16989853978157043, -0.155689999461174, 0.10971532016992569, -0.11972972750663757, -0.05194971710443497, -0.06459294259548187, -0.09777934849262238, 0.0006979701574891806, -0.22698642313480377, 0.01015399768948555, 0.07692893594503403, -0.15175502002239227, -0.20078322291374207, 0.1386694312095642], [-0.020625650882720947, 0.14352141320705414, -0.2476513534784317, -0.14340119063854218, -0.029604963958263397, -0.059263117611408234, 0.07966171950101852, 0.06550386548042297, -0.211651012301445, 0.18026350438594818, -0.00929506216198206, 0.15641243755817413, 0.013702222146093845, -0.05511356517672539, 0.024290068075060844, 0.11780983954668045, -0.15100659430027008, 0.012929904274642467, 0.08880791068077087, 0.044713422656059265, 0.13450124859809875, 0.15338842570781708, -0.013828443363308907, 0.019871722906827927, -0.037389226257801056, 0.09938403218984604, -0.13033828139305115, 0.08353875577449799, -0.16399885714054108, -0.01540429051965475, -0.04071556031703949, 0.12631814181804657, -0.10131412744522095, 0.049670033156871796, -0.059329498559236526, -0.06016245484352112, 0.10913225263357162, -0.09210469573736191, 0.09285081923007965, -0.1963745802640915, -0.0500381700694561, 0.0408482626080513, -0.1787831038236618, 0.09433230757713318, 0.01860554702579975, -0.22857803106307983, -0.021818574517965317, 0.01823079213500023, 0.001872019493021071, 0.023388516157865524, 0.049473781138658524, -0.05200699344277382, 0.12493382394313812, -0.005980393849313259, -0.14334078133106232, -0.0030083146411925554, -0.20367351174354553, 0.06973755359649658, -0.11427325755357742, 0.03372593969106674, 0.21564191579818726, -0.2255217730998993, -0.07291822135448456, 0.034310709685087204], [-0.03947123512625694, -0.11618518084287643, 0.01696564257144928, -0.14195029437541962, -0.0819847583770752, 0.17591606080532074, -0.07889091223478317, 0.09441305696964264, -0.008383441716432571, 0.1275056153535843, -0.10186149924993515, -0.11064333468675613, -0.06513740122318268, -0.014753894880414009, -0.006896046921610832, 0.11542201787233353, -0.15218771994113922, 0.10016760975122452, -0.14141370356082916, -0.23430241644382477, -0.03756947070360184, -0.0003768274327740073, -0.017173491418361664, 0.011970479972660542, 0.15891076624393463, -0.07482451945543289, -0.05159243941307068, -0.2685384154319763, 0.11515063792467117, 0.053258299827575684, -0.09678575396537781, -0.13869218528270721, 0.06581652164459229, 0.08562198281288147, -0.21141773462295532, -0.025995228439569473, -0.13336777687072754, -0.11517457664012909, -0.10005299001932144, 0.024114659056067467, -0.4275972247123718, -0.09129229933023453, -0.34715181589126587, 0.06588523089885712, -0.09618969261646271, 0.21164008975028992, -0.28001099824905396, 0.0527702160179615, -0.04751038923859596, -0.08064115792512894, 0.005352041684091091, -0.04669453576207161, -0.27767542004585266, -0.14314265549182892, -0.01620771363377571, -0.10288287699222565, -0.1856338083744049, -0.07554680109024048, -0.0011922200210392475, 0.08028516173362732, -0.03655935078859329, -0.19671735167503357, 0.0015637044562026858, -0.080376535654068], [-0.20298749208450317, 0.12552101910114288, 0.21007895469665527, 0.0008303453796543181, 0.14143674075603485, -0.05257735028862953, -0.017503606155514717, 0.07477232068777084, 0.025305017828941345, -0.011412601917982101, 0.0981840193271637, -0.053941693156957626, -0.11878680437803268, 0.07202951610088348, -0.08837068825960159, -0.04005373269319534, 0.24929219484329224, -0.19642755389213562, -0.048896849155426025, -0.036697808653116226, -0.0789920836687088, -0.06217477470636368, 0.00533137284219265, 0.09418266266584396, 0.02217152714729309, -0.054872941225767136, 0.02469232864677906, 0.03312874585390091, -0.18902963399887085, 0.13266779482364655, -0.10401877760887146, -0.19317016005516052, 0.20783939957618713, -0.1501636505126953, -0.24480882287025452, -0.06347798556089401, -0.08769873529672623, 0.14727097749710083, -0.08362798392772675, -0.29676100611686707, -0.09320973604917526, -0.07633302360773087, -0.0695793628692627, -0.26808229088783264, -0.130753755569458, 0.11517801880836487, -0.03928477317094803, 0.07444756478071213, -0.2370605170726776, -0.04364420473575592, -0.0933024063706398, -0.12770146131515503, 0.02627323754131794, 0.12460704892873764, 0.09445356577634811, -0.06871117651462555, -0.12507081031799316, -0.2229665368795395, 0.02652035653591156, 0.004465555772185326, -0.16285307705402374, 0.15506193041801453, -0.00429143151268363, -0.0472320131957531], [-0.2047654688358307, -0.18902893364429474, 0.03643219918012619, 0.08718889951705933, -0.11662739515304565, -0.0451890267431736, -0.09696685522794724, 0.20816117525100708, -0.17007365822792053, 0.03998217359185219, 0.10310864448547363, -0.10072635114192963, -0.056639138609170914, 0.038195814937353134, 0.04986198619008064, -0.07932266592979431, -0.14492833614349365, -0.03279821574687958, 0.16532784700393677, 0.0799565538764, 0.04408702626824379, 0.09350273013114929, -0.16568849980831146, -0.2320232391357422, -0.10371015220880508, -0.10673636943101883, -0.12212058156728745, -0.2671780288219452, 0.12744857370853424, 0.06656362861394882, -0.005516452714800835, -0.1899971067905426, -0.31281232833862305, -0.09961020201444626, 0.10655581951141357, 0.10483422875404358, 0.05550701543688774, -0.0940013900399208, -0.0513012558221817, 0.006251971237361431, 0.19626852869987488, -0.12128481268882751, 0.11563096195459366, -0.0561240054666996, -0.25716808438301086, -0.1061253771185875, -0.05035262554883957, -0.015683770179748535, 0.004274497274309397, 0.1361442357301712, -0.30407625436782837, -0.02007841132581234, -0.14212484657764435, 0.052862342447042465, -0.13680009543895721, 0.12032593786716461, 0.20294073224067688, -0.1406262069940567, -0.36245906352996826, -0.09516590088605881, -0.16900306940078735, -0.0020343177020549774, 0.039327461272478104, -0.11684415489435196], [-0.2570432722568512, -0.22696125507354736, 0.10632774978876114, 0.08201909065246582, 0.10927516967058182, -0.2191603183746338, -0.03877308592200279, 0.11924205720424652, 0.019451553001999855, 0.033221181482076645, 0.04460666701197624, -0.03194383159279823, 0.043157488107681274, 0.03425789996981621, 0.14439891278743744, -0.18184791505336761, 0.13022170960903168, -0.08991093188524246, 0.26401999592781067, 0.17047521471977234, -0.01953977718949318, 0.19245240092277527, -0.07410504668951035, 0.05213094502687454, -0.03471450135111809, 0.028828857466578484, -0.0874025970697403, -0.15374664962291718, 0.0638522282242775, 0.21360686421394348, 0.0632205531001091, -0.26932764053344727, -0.16666269302368164, -0.09680420905351639, -0.08193379640579224, 0.06678624451160431, 0.009064598940312862, 0.10627178847789764, 0.05751310661435127, -0.17409351468086243, 0.1340329498052597, -0.026970122009515762, 0.15850867331027985, -0.22374369204044342, 0.016984310001134872, -0.17076127231121063, -0.07264772057533264, -0.08581000566482544, -0.08135563135147095, 0.050433848053216934, -0.06506996601819992, -0.1223929300904274, 0.16381148993968964, 0.018908550962805748, -0.01644439809024334, 0.1109626442193985, 0.09447544813156128, -0.24861064553260803, -0.03906658664345741, -0.0017829656135290861, -0.1213824674487114, 0.022757474333047867, -0.01502431184053421, 0.05978851392865181], [-0.0960146114230156, -0.14212514460086823, -0.21805229783058167, -0.12778343260288239, -0.22730652987957, 0.042561110109090805, -0.017950134351849556, -0.07570138573646545, -0.07732237875461578, -0.013189462013542652, -0.041912004351615906, 0.010353263467550278, -0.07741241157054901, -0.1847051978111267, -0.1315905749797821, 0.17748741805553436, -0.07494163513183594, 0.04486400634050369, -0.24587559700012207, -0.20450754463672638, 0.1606956422328949, 0.02456028014421463, -0.046347495168447495, 0.036559753119945526, 0.08673740178346634, -0.025861583650112152, -0.16331836581230164, -0.17846719920635223, -0.043616075068712234, -0.0768679827451706, -0.10066738724708557, -0.17025187611579895, 0.09032970666885376, 0.025543352589011192, -0.03851955756545067, 0.017380399629473686, -0.023205095902085304, -0.15195703506469727, -0.06948623806238174, 0.18939033150672913, -0.3375515341758728, -0.13749024271965027, -0.335182785987854, 0.20999889075756073, -0.142997607588768, 0.1780126839876175, -0.0531049408018589, 0.16123181581497192, -0.025393923744559288, -0.11652880907058716, 0.18079164624214172, 0.02091323770582676, -0.17663221061229706, -0.14072388410568237, -0.05335626006126404, -0.22925803065299988, -0.015400302596390247, -0.07176641374826431, -0.026419376954436302, 0.15548820793628693, 0.07661529630422592, -0.21955928206443787, -0.06831658631563187, -0.021273937076330185], [-0.17159315943717957, -0.19010400772094727, -0.006111218594014645, 0.13349436223506927, -0.24648907780647278, -0.06129962578415871, -0.17045988142490387, 0.23847685754299164, -0.12092313170433044, -0.19625525176525116, -0.05989394709467888, -0.10955692082643509, -0.028410084545612335, -0.017865221947431564, 0.12388761341571808, -0.047478172928094864, -0.21762239933013916, 0.008227922022342682, -0.1240232065320015, -0.08457035571336746, -0.039128389209508896, -0.14514301717281342, -0.03260202705860138, -0.2750625014305115, -0.19216091930866241, -0.18289220333099365, 0.004802247975021601, -0.184700608253479, 0.07880517840385437, 0.08548226952552795, -0.06323444098234177, -0.13723646104335785, -0.13815616071224213, 0.0515754260122776, 0.12008556723594666, 0.011939866468310356, -0.05954531580209732, -0.25727882981300354, -0.3061157464981079, -0.013688546605408192, 0.010013163089752197, -0.20552122592926025, 0.09093425422906876, -0.15266203880310059, -0.1796097755432129, 0.037821609526872635, -0.2776402235031128, 0.07766728848218918, -0.0980435386300087, 0.1778339445590973, -0.19576846063137054, 0.04873669147491455, -0.4043291509151459, 0.1024460643529892, -0.03566955029964447, 0.08900529146194458, 0.10723164677619934, -0.06504444777965546, -0.2825717329978943, -0.12518244981765747, -0.2608383297920227, -0.09013980627059937, -0.09493666142225266, 0.03329579904675484], [-0.10897815972566605, -0.023624476045370102, -0.0362103134393692, -0.15925592184066772, 0.05698039382696152, -0.1314251720905304, -0.02570243924856186, 0.134346604347229, -0.08233635872602463, -0.04415794834494591, -0.07338297367095947, -0.048976048827171326, 0.04306454956531525, 0.048089396208524704, 0.08849205076694489, -0.02183409593999386, 0.08731544017791748, -0.11908121407032013, -0.04635615646839142, -0.060000836849212646, -0.026523996144533157, -0.0409025140106678, -0.027997974306344986, -0.08783002942800522, -0.15804514288902283, -0.0655851736664772, -0.050430990755558014, 0.052086297422647476, -0.022807421162724495, -0.047059036791324615, 0.019882073625922203, 0.05465332046151161, 0.05760752409696579, 0.07978981733322144, -0.04348865896463394, 0.013277297839522362, -0.015622837468981743, -0.03119329735636711, -0.008555865846574306, -0.16449473798274994, 0.0740787610411644, -0.082706518471241, -0.0224887914955616, -0.07964120805263519, 0.07743164896965027, -0.16671207547187805, -0.09621893614530563, 0.08413585275411606, -0.10910501331090927, 0.08058051019906998, -0.044744014739990234, -0.15575788915157318, 0.08273053914308548, 0.11451979726552963, -0.02422974817454815, -0.1400294154882431, -0.030117740854620934, -0.026888757944107056, 0.011811019852757454, 0.023812970146536827, -0.022968729957938194, -0.007454991806298494, 0.038541439920663834, -0.046475812792778015], [-0.09775951504707336, 0.03144008293747902, 0.025288082659244537, -0.07623335719108582, -0.005791210103780031, 0.002361312275752425, 0.08433717489242554, 0.07972629368305206, -0.060036614537239075, 0.028526080772280693, -0.04193417727947235, -0.029687823727726936, 0.05951064079999924, -0.07985197752714157, 0.007110854145139456, -0.07579614222049713, 0.0054035549983382225, -0.11559046804904938, 0.06435836851596832, -0.040673643350601196, -0.16401608288288116, 0.09962437301874161, 0.08914631605148315, 0.09522727876901627, -0.09487196803092957, -0.08189242333173752, -0.018769150599837303, -0.006770594511181116, 0.05822615325450897, 0.13759005069732666, -0.017303237691521645, -0.046675242483615875, 0.028735434636473656, 0.06851400434970856, -0.01676178351044655, 0.077122263610363, 0.0030958359129726887, 0.09119397401809692, 0.07849513739347458, -0.23635973036289215, 0.07731921225786209, 0.03564104437828064, -0.03865465894341469, 0.02648424357175827, 0.05512674152851105, -0.04274911805987358, -0.08263631910085678, -0.049102477729320526, -0.1456950306892395, -0.0028034555725753307, -0.04979323595762253, -0.09714242815971375, -0.01105697825551033, -0.031087439507246017, 0.03343569487333298, -0.03648597002029419, -0.00988154485821724, 0.02815457433462143, 0.047553736716508865, -0.006386372726410627, -0.10699589550495148, -0.05146172642707825, -0.04486536607146263, 0.014171627350151539], [-0.03722318634390831, -0.15904493629932404, 0.054968178272247314, 0.01439610030502081, 0.044803518801927567, -0.15870772302150726, -0.03251441568136215, -0.020013827830553055, 0.06722161918878555, 0.05045997351408005, 0.0402524471282959, -8.538440306438133e-05, -0.02140224538743496, 0.07164653390645981, -0.0662369579076767, -0.26323169469833374, 0.2207806557416916, -0.22565370798110962, 0.11585472524166107, 0.16219335794448853, -0.10572902113199234, 0.0647701844573021, -0.017021020874381065, 0.035155586898326874, -0.1468287855386734, 0.1297571063041687, -0.051156867295503616, -0.08123098313808441, -0.02744564600288868, 0.17192767560482025, 0.09298298507928848, -0.15372750163078308, 0.11700380593538284, -0.2730138301849365, -0.14164863526821136, 0.09409531205892563, 0.1737888604402542, 0.18811041116714478, 0.09765253216028214, -0.2729840576648712, 0.07063141465187073, -0.049275632947683334, 0.024567171931266785, -0.14565932750701904, -0.16347570717334747, -0.1037830039858818, 0.13284270465373993, -0.020677082240581512, -0.07092661410570145, -0.003605358302593231, -0.12855857610702515, -0.1170276328921318, 0.27632462978363037, -0.29129931330680847, -0.05087216943502426, 0.10858678072690964, 0.08292108029127121, -0.38088566064834595, -0.18346619606018066, -0.13319191336631775, -0.21551893651485443, 0.08972715586423874, -0.1326412856578827, 0.04883129149675369], [-0.08193421363830566, 0.12593479454517365, -0.07503175735473633, -0.017358507961034775, -0.0588897205889225, 0.05878223106265068, 0.0200564693659544, 0.15655836462974548, 0.006810692138969898, -0.05865924432873726, -0.002035843674093485, -0.013823862187564373, 0.11941682547330856, -0.048826664686203, 0.035113487392663956, -0.004431250970810652, -0.018761849030852318, -0.10092782974243164, -0.11608517915010452, 0.02816236950457096, 0.05360895395278931, 0.012356878258287907, -0.01690371334552765, 0.017974454909563065, -0.13339830935001373, 0.0018008919432759285, -0.010794308967888355, -0.05159245431423187, 0.026012154296040535, 0.037498846650123596, 0.002834857674315572, 0.029507320374250412, 0.0573989637196064, 0.02926754020154476, -0.02777816355228424, -0.0575886033475399, -0.040041930973529816, -0.05790027230978012, 0.042383912950754166, -0.18008287250995636, -0.1455940306186676, 0.08060663938522339, -0.08228457719087601, 0.05741250142455101, 0.07645075023174286, -0.12085478752851486, -0.19130459427833557, -0.071701280772686, -0.14186221361160278, 0.006864776834845543, 0.00976512860506773, -0.22530697286128998, 0.040110524743795395, -0.0013365378836169839, -0.03527034819126129, -0.04670059680938721, -0.16481462121009827, 0.02273617871105671, -0.04689081013202667, 0.11422037333250046, -0.05362914130091667, -0.10768189281225204, 0.080487921833992, 0.06823012977838516], [-0.16143769025802612, -0.04786107316613197, -0.06509214639663696, -0.03141554445028305, -0.019341174513101578, -0.02269759215414524, 0.03748404607176781, 0.0975533276796341, -0.0317191444337368, -0.02133934013545513, 0.05902814120054245, 0.05012444406747818, 0.0378989540040493, 0.09844061732292175, -0.00020686339121311903, -0.008086449466645718, -0.02452038787305355, -0.0887783020734787, 0.022773945704102516, 0.06456930190324783, -0.1197684109210968, 0.029057003557682037, -0.0657699853181839, 0.055250562727451324, -0.08836055546998978, 0.04244086891412735, 0.06767179816961288, 0.04266386851668358, -0.048970285803079605, 0.07589659094810486, -0.10456686466932297, -0.05491659790277481, -0.017097685486078262, 0.007794870994985104, -0.015460288152098656, -0.03475409373641014, -0.059504441916942596, 0.02219017967581749, -0.030911553651094437, -0.3348110616207123, 0.05903232470154762, 0.09549418091773987, 0.0860070064663887, -0.004254300147294998, 0.071761354804039, -0.1916445642709732, -0.22582533955574036, -0.0015420912532135844, -0.10183924436569214, 0.002039635553956032, 0.006384878419339657, -0.036167897284030914, 0.059748198837041855, 0.09640909731388092, 0.01578957587480545, -0.04562700539827347, -0.049927301704883575, -0.09205694496631622, -0.04534617438912392, -0.0175943560898304, -0.1122967079281807, 0.034498851746320724, 0.060349609702825546, 0.02187003195285797], [-0.17624431848526, -0.10135957598686218, -0.08825580030679703, -0.19837236404418945, -0.07212818413972855, 0.02397848293185234, 0.07724892348051071, 0.057711150497198105, -0.0029125490691512823, 0.1185450553894043, 0.10204364359378815, 0.14027637243270874, 0.1480138897895813, -0.01410356443375349, 0.07500388473272324, -0.02550862729549408, -0.04868682473897934, -0.08017698675394058, 0.1343928575515747, 0.0936640277504921, -0.08828479796648026, 0.0796242281794548, 0.10090184211730957, 0.10999283194541931, 0.029273033142089844, -0.05627253279089928, -0.02548205852508545, -0.07534566521644592, 0.07989464700222015, 0.14183703064918518, -0.12537230551242828, -0.022338157519698143, 0.03008192777633667, 0.07041318714618683, -0.02334129437804222, 0.092439666390419, 0.0578853040933609, 0.08083505928516388, 0.06277309358119965, -0.2657806873321533, -0.11569515615701675, 0.04388567805290222, 0.013425160199403763, 0.04694962501525879, 0.0753258466720581, -0.11146606504917145, -0.2431478351354599, 0.03892117738723755, -0.013267950154840946, -0.007668785285204649, 0.0028215148486196995, -0.04950186610221863, 0.0773586854338646, -0.08838295936584473, 0.09478533267974854, 0.03110622987151146, -0.20505687594413757, -0.11480917781591415, 0.013929742388427258, -0.019102880731225014, 0.12368901073932648, -0.06794184446334839, -0.09574345499277115, 0.09691665321588516], [-0.14795386791229248, 0.08029994368553162, -0.03468063473701477, -0.19136382639408112, 0.009694271720945835, -0.06195039302110672, 0.014630409888923168, -0.0446322076022625, -0.04273826628923416, 0.010249562561511993, -0.0691983550786972, 0.03616780787706375, 0.022771645337343216, 0.016556458547711372, 0.09693506360054016, 0.12451338022947311, 0.018964236602187157, -0.02299589477479458, 0.011671148240566254, -0.09658855944871902, -0.06590686738491058, 0.023218564689159393, -0.0728573277592659, 0.08743812143802643, 0.004419337958097458, -0.049355264753103256, -0.10148468613624573, 0.018026050180196762, 0.09488517045974731, 0.08971042186021805, -0.174578458070755, 0.007147075142711401, 0.08370070904493332, 0.06686603277921677, -0.10598268359899521, 0.0710548684000969, 0.040275488048791885, 0.03011574223637581, -0.0463588610291481, -0.0409531332552433, -0.01844746433198452, -0.02942061796784401, -0.053404826670885086, 0.04262890666723251, -0.05572694167494774, -0.014424239285290241, -0.16813431680202484, 0.04157837852835655, -0.03915543481707573, -0.05371948331594467, -0.0008776846225373447, -0.26917529106140137, 0.08800841867923737, 0.034449052065610886, -0.010762583464384079, -0.13157522678375244, -0.20952348411083221, -0.1131414845585823, 0.057261306792497635, 0.05758533999323845, 0.09292185306549072, 0.05200665071606636, 0.046364717185497284, 0.019288068637251854], [0.1200726106762886, -0.05434982478618622, -0.007317689713090658, -0.054960690438747406, -0.22987225651741028, 0.07838652282953262, -0.01176826935261488, -0.022381804883480072, 0.032880548387765884, -0.14678026735782623, -0.0823528990149498, 0.0876116082072258, -0.09679759293794632, 0.01290916744619608, -0.31806638836860657, -0.09987292438745499, -0.17938315868377686, -0.07300738990306854, -0.2953731417655945, -0.03689247742295265, 0.127328559756279, -0.04807959124445915, -0.10698908567428589, -0.29345327615737915, -0.11896864324808121, 0.05032099410891533, -0.07070719450712204, -0.1019376888871193, -0.2617522180080414, -0.2316596657037735, 0.041176505386829376, 0.0690479651093483, -0.07679534703493118, 0.15819764137268066, 0.0282537080347538, -0.020209893584251404, 0.04056337848305702, -0.1474476456642151, -0.12447881698608398, -0.08378663659095764, -0.14531362056732178, -0.19889259338378906, -0.19719159603118896, 0.06628096103668213, -0.010478540323674679, 0.03152385354042053, -0.026016389951109886, -0.08409994095563889, 0.15056350827217102, -0.10741438716650009, 0.02017051912844181, -0.0014595140237361193, -0.10187866538763046, -0.3698374927043915, -0.16642585396766663, -0.19493380188941956, -0.07082659751176834, -0.08841824531555176, -0.1588272601366043, -0.04202435910701752, 0.19917182624340057, -0.005987322889268398, -0.08394380658864975, -0.0035702975001186132], [-0.1710587590932846, -0.04511003568768501, -0.133042111992836, -0.12882429361343384, 0.04548126459121704, -0.026097888126969337, 0.03535359725356102, 0.05051017552614212, -0.16119667887687683, 0.02994191274046898, -0.01496325246989727, 0.05569960176944733, -0.019801193848252296, -0.12249483168125153, 0.07727760821580887, 0.08905905485153198, -0.07911559194326401, 0.04106432572007179, 0.018289176747202873, -0.0710633397102356, 0.054783884435892105, 0.06434334814548492, 0.08940555900335312, 3.7988400436006486e-05, -0.005984881892800331, -0.06409528851509094, 0.007219112478196621, 0.00778152933344245, -0.07847528904676437, -0.026576396077871323, -0.04184665158390999, 0.00628494331613183, -0.10598132014274597, 0.05955735594034195, 0.011339527554810047, 0.06689812242984772, -0.06073204055428505, -0.009579315781593323, 0.040901053696870804, -0.2508567273616791, -0.06379370391368866, -0.03228404000401497, -0.0404508039355278, 0.07565223425626755, 0.0880512073636055, -0.13077230751514435, -0.14934219419956207, -0.07961029559373856, -7.175320934038609e-05, -0.03666004166007042, -0.04374989867210388, -0.12178097665309906, -0.04241901636123657, 0.034060291945934296, -0.006063893903046846, 0.02173732779920101, -0.2187717854976654, 0.049769409000873566, 0.055861588567495346, 0.12338608503341675, 0.008606904186308384, -0.10156389325857162, -0.047110408544540405, -0.0007194812642410398], [-0.11412562429904938, 0.02886735275387764, 0.015637019649147987, -0.16612979769706726, -0.07402413338422775, 0.09449827671051025, -0.09797503799200058, 0.17853090167045593, 0.004654827993363142, 0.10360239446163177, -0.0009348401217721403, 0.0015594196738675237, 0.019325798377394676, -0.047977808862924576, -0.013944150879979134, 0.10968600958585739, 0.059566427022218704, -0.05394531786441803, -0.11952954530715942, -0.09703395515680313, 0.09304166585206985, -0.10516263544559479, -0.06418310850858688, 0.015683794394135475, 0.05213648080825806, 0.020181836560368538, -0.13574068248271942, -0.0654916912317276, 0.061268389225006104, -0.026728132739663124, 0.005966325756162405, 0.030182749032974243, 0.11467946320772171, 0.030789660289883614, -0.2593093514442444, -0.01927664503455162, -0.099916972219944, -0.04207681119441986, -0.13632313907146454, -0.0822114497423172, -0.23756849765777588, -0.1532498002052307, -0.2968955338001251, 0.11645146459341049, -0.11517277359962463, 0.020206283777952194, -0.032838162034749985, 0.018929678946733475, 0.08022187650203705, -0.13073976337909698, 0.11887167394161224, -0.10889016836881638, -0.07133374363183975, -0.09491381049156189, 0.05325019732117653, -0.1282692551612854, -0.09710203856229782, -0.05217163637280464, 0.02346714772284031, 0.11037519574165344, 0.004253822844475508, -0.14646503329277039, 0.09860794991254807, -0.024096526205539703], [-0.24814490973949432, -0.0679941177368164, -0.052105024456977844, 0.04276084154844284, 0.001622833777219057, -0.18743962049484253, -0.10650619864463806, 0.16075636446475983, -0.03691093251109123, -0.0074906800873577595, 0.056087274104356766, -0.14697664976119995, -0.004156382754445076, -0.04945529252290726, 0.07338528335094452, -0.0061386963352561, -0.1630658209323883, -0.0803738385438919, 0.18206709623336792, -0.01139978040009737, -0.05798543989658356, 0.05670586973428726, -0.08908823132514954, -0.004710117354989052, -0.22964628040790558, -0.1596350073814392, -0.08458839356899261, -0.148203507065773, 0.19973602890968323, 0.13480745255947113, -0.08501513302326202, -0.17373712360858917, -0.0011989898048341274, -0.15915124118328094, 0.03707839176058769, 0.0711965262889862, -0.1192859336733818, -0.04497552663087845, -0.039215900003910065, -0.06997071951627731, 0.11136986315250397, -0.14413823187351227, 0.07959694415330887, -0.10728377848863602, -0.07272626459598541, -0.15724124014377594, -0.22439096868038177, -0.05951789394021034, -0.16714563965797424, 0.11963503062725067, -0.16988669335842133, -0.0497194342315197, 0.06200318783521652, 0.05418607220053673, -0.08284152299165726, 0.056981656700372696, 0.12640617787837982, -0.16289442777633667, -0.3026563823223114, -0.002107897773385048, -0.19598042964935303, 0.052782610058784485, 0.017397476360201836, -0.07039559632539749], [-0.08401031792163849, -0.06831895560026169, 0.12756001949310303, 0.07739093899726868, 0.10326257348060608, -0.1249956488609314, 0.01702616550028324, 0.0560389943420887, -0.07343989610671997, 0.047393497079610825, 0.1781579554080963, 0.04698849096894264, 0.09144172817468643, 0.12072372436523438, 0.08602403104305267, -0.21551582217216492, 0.1020488440990448, -0.01219582837074995, 0.21664045751094818, 0.09509599208831787, -0.18584497272968292, 0.16101786494255066, 0.09853291511535645, 0.06802181154489517, -0.0332966148853302, 0.054714418947696686, 0.018308095633983612, 0.03903232887387276, -0.06648316234350204, 0.14364595711231232, 0.08897764980792999, -0.08929658681154251, 0.10642848908901215, -0.15896490216255188, -0.07366931438446045, 0.008815881796181202, 0.011037830263376236, 0.2438313066959381, 0.02503824792802334, -0.29663971066474915, 0.13101176917552948, -0.09283049404621124, -0.010890650562942028, -0.0171225406229496, 0.05751657485961914, -0.1255074143409729, -0.03962104022502899, -0.023402301594614983, -0.11215408891439438, 0.044855330139398575, -0.12742958962917328, -0.16584575176239014, 0.11879196017980576, -0.0789683610200882, 0.021930625662207603, 0.17670637369155884, 0.0869971364736557, -0.2876112163066864, 0.026973234489560127, 0.02562933973968029, -0.1920272260904312, 0.11080598086118698, -0.09451320767402649, 0.019517578184604645], [0.003782597603276372, 0.10395340621471405, -0.10907173901796341, 0.09722720086574554, -0.035852763801813126, -0.08377233147621155, 0.031246598809957504, 0.03446892648935318, -0.03112087771296501, -0.0004984135739505291, -0.11058970540761948, -0.027479305863380432, -0.011431318707764149, -0.029096150770783424, -0.08678979426622391, -0.03886111080646515, -0.026979701593518257, -0.019758520647883415, -0.2533860206604004, -0.15374408662319183, -0.01816253736615181, -0.03762980177998543, -0.15923553705215454, -0.06427001953125, -0.17948280274868011, -0.050193946808576584, -0.12991829216480255, 0.10389582067728043, -0.07232382148504257, 0.013539902865886688, -0.11077700555324554, 0.0971025601029396, -0.11139475554227829, -0.11432905495166779, -0.06641577929258347, -0.030845537781715393, 0.0008208871586248279, -0.1037159338593483, -0.022186623886227608, 0.012719547376036644, 0.12333843111991882, 0.049232061952352524, 0.006893010810017586, -0.04048403352499008, 0.0030296167824417353, -0.29368406534194946, -0.16164547204971313, -0.2905779182910919, 0.020559057593345642, 0.12495719641447067, 0.08140963315963745, -0.19461224973201752, 0.023724570870399475, 0.015500850975513458, -0.15243755280971527, -0.01919057033956051, -0.041522007435560226, 0.012440217658877373, -0.2888200581073761, 0.061003878712654114, 0.009866202250123024, -0.25042426586151123, -0.08747988939285278, -0.012184719555079937], [-0.11719323694705963, 0.018185580149292946, -0.015329631045460701, -0.15440885722637177, -0.028074823319911957, -0.10011586546897888, -0.08237212151288986, 0.0829358845949173, -0.047470949590206146, 0.0861484631896019, -0.0675329715013504, 0.04888533055782318, 0.0902642235159874, 0.06159188598394394, -0.03706999868154526, -0.09828127175569534, 0.07466557621955872, -0.04831380397081375, 0.015277665108442307, -0.07225098460912704, -0.22747990489006042, 0.09254757314920425, 0.04652748256921768, 0.03952248394489288, -0.01765960082411766, -0.017618417739868164, 0.023256419226527214, 0.0035614988300949335, -0.0549708753824234, 0.11042515188455582, 0.0371122732758522, -0.0996571034193039, 0.06427279114723206, 0.039791714400053024, -0.20296332240104675, -0.01572977937757969, 0.009845682419836521, -0.025793807581067085, -0.027254680171608925, -0.3123116195201874, 0.03127266839146614, 0.04876018315553665, 0.025060147047042847, -0.0006511525716632605, -0.021540170535445213, -0.10698898136615753, -0.11417248845100403, 0.010432342067360878, -0.1447059065103531, 0.054203230887651443, 0.005339162889868021, -0.1010756641626358, 0.04303811490535736, 0.03646526485681534, -0.01964559592306614, 0.009254758246243, -0.11080016195774078, -0.07709739357233047, 0.1202535629272461, 0.03625185787677765, -0.12468618899583817, 0.0053427997045218945, 0.052302587777376175, -0.012591882608830929], [-0.13708026707172394, 0.12294931709766388, -0.05718434974551201, -0.04763766750693321, -0.013353966176509857, -0.08847324550151825, -0.06252191215753555, 0.18477198481559753, -0.1380068063735962, -0.15634967386722565, -0.046272192150354385, 0.10797686129808426, 0.11299031227827072, -0.025629159063100815, 0.13402652740478516, -0.023248091340065002, -0.12069909274578094, -0.12357264757156372, -0.1109379380941391, 0.04420768469572067, -0.1134442463517189, -0.06095488741993904, -0.010494565591216087, -0.016290007159113884, -0.25623050332069397, -0.11655814945697784, -0.014189635403454304, 0.05386301130056381, 0.11853685230016708, 0.12791621685028076, -0.05170853063464165, 0.03802553936839104, -0.12488502264022827, -0.07987099885940552, 0.09330698847770691, 0.012629632838070393, -0.16576261818408966, 0.017857316881418228, -0.02305549755692482, -0.10325998812913895, 0.13681326806545258, -0.007417717017233372, 0.027471454814076424, -0.015360858291387558, -0.04514697939157486, -0.15990319848060608, -0.22207745909690857, -0.16974830627441406, -0.00986029114574194, 0.0707492008805275, -0.0024100099690258503, -0.031759824603796005, -0.029099836945533752, 0.08858773112297058, -0.11236532032489777, 0.08629903197288513, 0.021917711943387985, 0.13261473178863525, 0.007523319683969021, 0.02285728044807911, 0.09464888274669647, -0.0014617275446653366, -0.03065677545964718, -0.09405140578746796], [-0.18768277764320374, 0.023914385586977005, 0.07126344740390778, -0.10585322976112366, -0.05716940015554428, -0.0820721909403801, 0.04411700740456581, 0.02842441201210022, 0.03651423752307892, -0.07978817075490952, -0.13303908705711365, 0.008192849345505238, 0.12242893129587173, -0.0962638258934021, -0.017250852659344673, 0.04149399325251579, 0.13166272640228271, 0.03595401346683502, -0.16881419718265533, 0.024063944816589355, -0.057970546185970306, -0.06621688604354858, -0.09635721892118454, 0.05279616639018059, 0.10289157181978226, -0.07783978432416916, -0.0740915983915329, 0.057277049869298935, -0.0431373305618763, -0.09467295557260513, 0.01882524974644184, -0.0024457762483507395, 0.11690039932727814, 0.04503136873245239, -0.15132425725460052, -0.06539607793092728, -0.0904572382569313, 0.15908651053905487, -0.11280888319015503, -0.25538912415504456, -0.16688914597034454, -0.02102041058242321, -0.14429998397827148, 0.08084771782159805, -0.030392391607165337, 0.14269791543483734, -0.016295980662107468, -0.035243067890405655, -0.18460679054260254, 0.04734614118933678, -0.015620254911482334, -0.08021022379398346, 0.01465804036706686, 0.08992693573236465, 0.08594810962677002, -0.15599870681762695, -0.08244730532169342, -0.14449205994606018, 0.12547537684440613, 0.006414527539163828, -0.10787838697433472, 0.035980381071567535, 0.06998184323310852, -0.04879424348473549], [-0.1370832622051239, 0.0994771346449852, 0.006354566663503647, -0.09536341577768326, 0.08772824704647064, -0.19785721600055695, 0.07704158127307892, 0.11733314394950867, 0.005909343250095844, -0.08447038382291794, 0.08103328198194504, 0.0017242564354091883, -0.03841891884803772, 0.013873920775949955, 0.058485113084316254, -0.21065092086791992, 0.0545903742313385, -0.16366451978683472, 0.03733569756150246, 0.06159309670329094, -0.19984251260757446, 0.0726838931441307, -0.05985864996910095, -0.003952693659812212, -0.10237337648868561, -0.04456368088722229, 0.001486265449784696, -0.01678059995174408, 0.07036911696195602, 0.120061494410038, -0.05274747312068939, 0.03372519835829735, -0.07367567718029022, -0.07524227350950241, -0.09560298919677734, -0.03241639584302902, 0.0005801905645057559, 0.0865352675318718, 0.0292041078209877, -0.3613244593143463, 0.11683645844459534, -0.029059723019599915, 0.06712697446346283, -0.08754995465278625, 0.10337737202644348, -0.14537426829338074, -0.06917417794466019, -0.06089705228805542, -0.031632307916879654, 0.030684808269143105, -0.15399867296218872, -0.12074627727270126, 0.15261608362197876, -0.019901448860764503, 0.0388467013835907, 0.060212742537260056, -0.10183264315128326, 0.05485045164823532, 0.04897155985236168, -0.04618843272328377, -0.1848917156457901, 0.13265268504619598, 0.0019576558843255043, 0.018837902694940567], [-0.1458655744791031, 0.0882936641573906, -0.285630464553833, 0.08753545582294464, -0.10357308387756348, -0.16595765948295593, -0.02900746650993824, 0.04021715000271797, -0.2716291844844818, 0.16494083404541016, 0.07331443578004837, 0.16393877565860748, -0.04280425235629082, -0.022277379408478737, -0.03905825689435005, 0.08060838282108307, 0.0222360510379076, -0.10136722773313522, -0.03200303018093109, 0.05420415475964546, -0.020452409982681274, 0.25124529004096985, -0.051235951483249664, -0.09031899273395538, -0.09658946841955185, 0.09688706696033478, -0.13200737535953522, 0.03322379291057587, -0.020888596773147583, 0.009795118123292923, -0.0887790247797966, 0.11548987776041031, 0.01236853189766407, -0.1079539880156517, 0.02079319953918457, -0.12705332040786743, 0.06423996388912201, -0.02630387432873249, 0.03771961107850075, -0.10220406949520111, -0.03728390112519264, 0.056690946221351624, -0.24601179361343384, 0.06746016442775726, -0.0014625906478613615, -0.35973992943763733, -0.19533872604370117, -0.09743861854076385, -0.08154836297035217, 0.08708540350198746, 0.111850306391716, -0.08805209398269653, 0.18325726687908173, 0.053611382842063904, -0.2303803563117981, 0.12884390354156494, -0.009038352407515049, 0.05106465518474579, -0.24273742735385895, -0.051604703068733215, 0.2056684046983719, -0.22808590531349182, -0.13495099544525146, 0.1258484125137329], [-0.22160397469997406, 0.11549172550439835, -0.09170772135257721, -0.10045480728149414, -0.04504351317882538, -0.031003300100564957, 0.06449519097805023, -0.014704522676765919, 0.03479455038905144, 0.009781411848962307, -0.04871691018342972, 0.09897692501544952, 0.03506701812148094, -0.08622398227453232, 0.05514919012784958, 0.06798011064529419, -0.03753522038459778, 0.0061240061186254025, -0.0953778624534607, 0.048366136848926544, -0.11528120934963226, 0.005422146059572697, 0.018364684656262398, 0.012391326949000359, -0.07626833766698837, -0.05674612149596214, -0.03713235259056091, 0.06687427312135696, -0.08047857880592346, 0.1214483380317688, -0.1457304209470749, 0.06771676987409592, -0.025476282462477684, 0.0823216363787651, -0.13278551399707794, -0.08311735093593597, 0.023840636014938354, -0.07278639078140259, 0.06409104913473129, -0.23470933735370636, -0.08602726459503174, 0.019934333860874176, -0.053537432104349136, -0.005088970996439457, 0.10803483426570892, -0.0912649855017662, -0.1988658756017685, -0.05659119039773941, -0.07753949612379074, 0.1252644956111908, -0.09660308063030243, -0.087077796459198, 0.04975084960460663, 0.11413336545228958, -0.03819470480084419, 0.006089257542043924, -0.18159641325473785, 0.014058959670364857, 0.10111919045448303, 0.09110300242900848, 0.013803930953145027, -0.008350789546966553, 0.06125102564692497, -0.05579513683915138], [-0.22693458199501038, -0.06999437510967255, -0.12983739376068115, -0.18824560940265656, -0.05732684209942818, 0.037345729768276215, 0.06474325060844421, 0.10365144908428192, -0.07835914194583893, 0.16854482889175415, 0.07576600462198257, 0.04901581257581711, 0.09053817391395569, -0.06154796853661537, 0.06768010556697845, -0.03727591037750244, -0.10627054423093796, -0.05457313731312752, 0.032428812235593796, -0.06669428944587708, 0.003973829559981823, 0.06271395832300186, -0.05063942074775696, -0.03959786519408226, 0.04181569442152977, -0.11401115357875824, -0.039598431438207626, -0.10130739957094193, 0.0075392285361886024, 0.005712145008146763, -0.09565775096416473, -0.037475310266017914, -0.01171853207051754, 0.09972362220287323, -0.050320785492658615, -0.022421572357416153, 0.019102416932582855, 0.05740255117416382, -0.030821001157164574, -0.1495184451341629, -0.23361548781394958, -0.0015639771008864045, -0.19897109270095825, 0.1412884145975113, 0.09762503951787949, 0.022139592096209526, -0.3161678612232208, -0.02450183779001236, -0.10705769062042236, -0.1337296962738037, 0.08397245407104492, -0.04464900121092796, 0.0932915210723877, -0.03596238046884537, 0.01102688629180193, -0.018509255722165108, -0.22373561561107635, -0.14268803596496582, -0.10701104998588562, 0.0018231552094221115, 0.12876828014850616, -0.24286215007305145, 0.06459210067987442, 0.06921583414077759]], [[-0.09876160323619843, -0.13654954731464386, -0.01606673188507557, -0.055569734424352646, -0.05576058849692345, -0.18635529279708862, -0.025372548028826714, 0.08138924837112427, -0.17927402257919312, 0.01709793694317341, 0.1685713231563568, -0.050355684012174606, 0.08473636955022812, -0.0654841959476471, 0.09391371160745621, -0.15995672345161438, 0.009156007319688797, -0.06671717762947083, 0.14304037392139435, -0.07322163134813309, -0.06205281242728233, -0.0009860987775027752, 0.07777901738882065, 0.1773252785205841, -0.1894305795431137, -0.18738779425621033, -0.009304606355726719, -0.18244856595993042, -0.04666217789053917, 0.047467466443777084, -0.07530064135789871, 0.043896254152059555, -0.2035549283027649, -0.08247925341129303, 0.06194757670164108, 0.07991284132003784, -0.056275781244039536, 0.11143103986978531, 0.054048582911491394, -0.025356454774737358, 0.03213702514767647, -0.15995870530605316, 0.11708880960941315, -0.015621219761669636, 0.04036545008420944, -0.017660969868302345, -0.15465261042118073, -0.11836232244968414, 0.01166987419128418, 0.08501801639795303, -0.03395247831940651, -0.005611501168459654, 0.10979613661766052, -0.016665048897266388, -0.07689996063709259, -0.03239254653453827, 0.015950340777635574, -0.06847960501909256, -0.10170202702283859, 0.06845571100711823, -0.02371801808476448, 0.1282200962305069, -0.029861630871891975, -0.0349259153008461], [0.015095728449523449, -0.08843709528446198, -0.1689368188381195, -0.05463465675711632, -0.12092310935258865, -0.08669441938400269, 0.029891543090343475, 0.09731732308864594, -0.027642175555229187, -0.11843238770961761, -0.03719447925686836, 0.08267015218734741, 0.011022129096090794, -0.07335453480482101, -0.002639849204570055, -0.056161362677812576, -0.17435437440872192, -0.0160637516528368, -0.021242914721369743, -0.05339879170060158, 0.0016508599510416389, -0.1175232082605362, 0.0047680591233074665, -0.08008753508329391, -0.16426262259483337, 0.024439498782157898, 0.08573149144649506, -0.02541196346282959, 0.025349000468850136, -0.16005484759807587, -0.051316168159246445, 0.051959555596113205, -0.042294714599847794, 0.01731867529451847, -0.07416638731956482, 0.03596833720803261, 0.006228224374353886, -0.054089851677417755, -0.02025207318365574, -0.09644085168838501, 0.04959927499294281, 0.042004507035017014, -0.045538630336523056, 0.04221997410058975, 0.07259085774421692, -0.08282418549060822, -0.023600229993462563, -0.037505701184272766, 0.05107205733656883, 0.09741824865341187, -0.06832145154476166, -0.15775224566459656, 0.04767746105790138, 0.05286542698740959, 0.03994676098227501, 0.014180324971675873, -0.25521591305732727, 0.02180914394557476, 0.012508697807788849, 0.15657027065753937, 0.05704778432846069, 0.01894126646220684, 0.11278907209634781, -0.03765549883246422], [0.07884577661752701, -0.025851260870695114, -0.12599791586399078, -0.0839155986905098, -0.12309503555297852, -0.10435107350349426, 0.009062034077942371, -0.02186494693160057, -0.05716855078935623, -0.01612885110080242, -0.09459053725004196, 0.10237479954957962, 0.021581202745437622, -0.06728535890579224, 0.03351696953177452, 0.0075593553483486176, -0.10277040302753448, -0.08069831132888794, -0.025229576975107193, -0.03335464000701904, -0.017900727689266205, -0.06762173026800156, -0.012668628245592117, -0.06551508605480194, -0.09421289712190628, -0.008861671201884747, -0.04657956212759018, -0.019116157665848732, 0.01203597616404295, -0.00303754024207592, -0.10340181738138199, 0.11302202939987183, -0.10291571170091629, 0.009606536477804184, -0.1500866413116455, -0.04313003271818161, -0.03426095470786095, -0.04254221171140671, -0.03296039253473282, -0.13837917149066925, 0.06262189894914627, -0.04801354557275772, -0.04809879884123802, 0.056190744042396545, 0.0015842351131141186, -0.14599038660526276, 0.12431257963180542, 0.01740267500281334, -0.04102477803826332, 0.006996374111622572, -0.08125998824834824, -0.11470963805913925, 0.05826384946703911, -0.08628927171230316, -0.00034772619255818427, 0.013477344065904617, -0.18999210000038147, 0.033544789999723434, 0.08105498552322388, 0.13719400763511658, 0.04106177017092705, -0.056824300438165665, 0.04582598805427551, -0.019112713634967804], [-0.061908889561891556, -0.1564846783876419, 0.06310472637414932, 0.128701314330101, -0.1563253253698349, 0.006896316073834896, -0.16691817343235016, 0.20925268530845642, -0.08606026321649551, 0.030655905604362488, 0.12429063767194748, -0.14434105157852173, -0.020895207300782204, -0.2610941231250763, 0.2010039985179901, -0.13754603266716003, -0.00207308167591691, 0.17180098593235016, -0.019442716613411903, 0.0279044471681118, 0.01281080860644579, 0.005083465948700905, 0.04723445326089859, 0.07294543832540512, 