weights = [[[3.202720951805834e-126, 4.4957106627154426e-126, -5.049153042355919e-115, 3.545423665180784e-122, -7.414824999722948e-115, -4.056643446915742e-117, 2.098313341272182e-116, -1.275429747726276e-115, -1.3279061471960584e-117, -1.1724224133343061e-115, -9.596665776178683e-121, -1.7357316358812607e-123, -0.03435831444496529, -0.008042707859060402, -0.007905091692658281, -0.012617516949708267, -1.581215796301869e-125, 1.9171417152517515e-124, -1.1833962385502572e-125, -7.804612109638507e-119, -2.6829129705381282e-126, 4.8251757605886504e-123, 2.3265355418315007e-121, 8.054653998508134e-127, -5.426190139423867e-122, -9.955290926234542e-115, -2.554226035625595e-118, -3.3165314878821287e-127, 5.1311554926289105e-118, -3.2422282227634655e-119, 4.406227915126391e-123, 3.7432711475422416e-116, -0.0025381374374476955, 0.024900339793103115, -0.027129003568777312, -0.04681886229341735, -0.004764967544273213, 0.07482539970936605, 0.037697227933235176, 0.13655080243582363, -0.08425821198493141, -0.03483156086537099, -0.008400885771155225, 0.002891749908887813, 0.030525971973882352, 0.032693397165397084, 0.08789505076168254, 0.07841925399653106, 0.062285021853166714, 0.02752825125740143, -0.0014236006402740746, 0.004024439815371626, -1.0868313520131582e-118, -1.548302413065433e-127, -4.78726450270519e-118, -1.7516530908365423e-124, -1.9659198677373728e-120, 1.3890077686970985e-124, 0.052317138729655904, -0.04042272325163571, 0.0750247722277453, -0.10508661754884524, 0.07419258927197815, 0.00914507954199839, 0.06678922584101611, -0.11768722215477566, 0.0643585317376608, 0.1069740652206394, 0.001066870010283956, -0.07660073031171578, -0.17182702199232777, -0.17473928626076013, -0.12501974358898124, 0.02475632207513898, 0.1832922769792859, 0.10489387378173899, 0.061259247226285236, 0.018694361380235842, 0.06960631737525813, 0.029204752165893102, 0.0740529094292351, 0.07082218363388115, 1.2021381543808188e-126, 1.779332168473399e-123, -8.090855785905968e-125, -5.2010783776473085e-126, -0.09653046733193761, 0.049979301972774545, -0.07473246941264534, 0.07160849199233785, 0.044674279019320605, 0.06443774508461247, 0.048438525654740286, -0.010437315294126753, -0.03211735837374905, 0.050522151532101246, 0.10406400081911192, 0.05409948875544195, 0.0729740120048888, 0.18994343261480948, -0.11282743068498864, 0.05733388531422772, 0.045490392801444096, -0.05370262665557515, 0.009478403647541244, -0.17567196625759204, 0.041697234190232926, -0.04640929004945828, 0.03650888994849415, -0.035683251870447893, 0.0059755031902271015, 1.8097832928742736e-123, 1.6961004041715593e-117, 0.005307010882820586, 0.01886384143342749, 0.048953307592891515, -0.0066227343950659235, 0.020714346981479014, -0.006150577596909063, -0.06530484245844759, 0.07527730416571143, -0.01529788935008217, -0.008913071281783142, 0.0338929675336094, 0.126586370953177, 0.1318122035109827, 0.157875977633007, 0.2568335016362346, 0.15941699897950085, -0.03393661621613553, 0.12057816694490507, 0.04715535943367628, 0.045573315471197695, 0.13887676097807933, 0.1535737847991349, -0.12165452117176688, -0.1029753661024101, 0.023212351741953963, -0.015765546516101858, -0.012003210765978748, -3.130667082294756e-121, 0.01592715180694904, 0.080986257830404, -0.0448562704823937, 0.08659827892037436, 0.030515188694358417, -0.05915465779461785, 0.05785817204653892, 0.05701540560454815, -0.13787099011526543, 0.0806985297975721, 0.08543476878566944, 0.04557967713739764, 0.05174163210501262, -0.002661801091725532, 0.06251625625238559, 0.06814493877985167, 0.0018967255864204137, 0.08743801352002184, 0.011166596958363792, 0.11914767826247123, -0.005353940578151291, 0.07317928484347308, 0.0963742042808647, 0.006242746419283414, 0.1701289809424939, 0.03569829470304977, -0.10892684029064356, -1.2526949053670341e-123, 0.07533748305660884, -0.018225210193314374, -0.021201202975497227, 0.049018369801442835, 0.0954598187912802, 0.14027296028216119, -0.0780151197509153, 0.008287326089222514, 0.07301110173922755, -0.0059229029729527425, 0.06633294853975795, 0.14004538668681132, 0.05648172239180316, 0.0772368168582714, -0.04776868197208348, -0.029913565135273264, 0.022081239016256325, 0.01709362531801401, -0.10690549949013585, -0.09371785855489143, -0.0025887743006141124, -0.01900621973890318, 0.037880127576941064, -0.04252513947639828, -0.15747766905079247, -0.11951508222149516, 0.010473801867907587, 0.12596210106537772, -0.02925294262094235, 0.07355035813679658, -0.020762390145741473, -0.01796042984318296, -0.014508174670170362, -0.06508329104876197, -0.07175442878307584, 0.07761809320606296, -0.05427581232787632, 0.05627250827157093, 0.020162180074920922, 0.15927568901737202, 0.12125592046293335, 0.06545916636784607, 0.02994993672046449, 0.10156529146226362, -0.043512604574304295, -0.06355547575560917, -0.013755615695144637, 0.004285541797460328, -0.03167960009254709, 0.05617063044489549, 0.009637394790597106, 0.039994821840149276, 0.032471759925605685, 0.04256709826178695, 0.06696854550286246, 0.05639652486780928, -0.0861941444276382, 0.03807957086807387, -0.02737887513983105, 0.08256650042260281, -0.030119267550534682, -0.02752367328647989, -0.08238549083645315, -0.01408198670767051, 0.09207926598537676, -0.0008860527565731231, 0.03726962324109911, 0.12153356970809133, -0.003597892467136137, 0.008558556264750248, 0.10328707912254254, 0.030927698073287907, 0.020089751798403298, 0.07150993222196732, 0.20376027703799213, 0.029690918589469997, 0.011075114892506557, 0.08018053897542769, -0.0826711397736402, 0.14040608034984445, -0.1906461764253142, -0.16596523970121496, 0.07972952974255379, 0.05454233372000732, 0.058004478232266614, 0.0881576861474154, -0.014539702951436905, 0.09014472553882097, 0.035790983918737786, -0.010102453363738474, 0.09216016837751491, 0.03217444253129377, -0.01586469475712528, -0.035448451617703186, -0.09694017512552204, 0.029766221245990578, 0.028194131836611562, 0.06504357808611717, 0.17261168083647024, 0.10236005591914255, 0.3048859108154504, 0.11437208651620162, -0.00312060412148762, 0.17793010546785065, 0.03737483342546272, 0.16061498002066094, 0.08324120617516452, -0.1442933829290273, -0.06872814115344285, -0.18909611744725402, 0.10878495417289644, -0.004977113469229163, -0.053238636578106756, 0.005212363921183814, 0.10496648219831217, -0.01698580046530102, -0.007082490815775916, 0.016486156765855072, 0.0011469784268516416, -0.05772089384488663, -0.20386054933585288, -0.10932532520606418, -0.10246939259558208, -0.12456874216386077, -0.028645008963535168, 0.014954476229990285, -0.04641415248887275, 0.1703475272059957, 0.10399915414597023, 0.1330097086614955, 0.08128336799996845, 0.06967334978360545, 0.0068364709442291826, 0.05803374218684396, 0.035444020932330594, -0.011126989002335101, -0.084753140013329, -0.02244689984367662, 0.017589949556938503, 0.009896497368571122, -0.0070467484883357506, -7.905229004867171e-05, 0.1355209030384437, 0.08612971719932325, -0.15992274532588502, -0.03416466664673796, -0.07031930933362746, -0.08747953977619446, -0.1323995452238309, -0.20738749843982074, -0.03897503582462619, 0.04160552372967145, 0.0601279297190759, 0.04349660451588842, -0.07892220408931912, -0.01676756005115745, 0.053483494982756154, 0.06477209055272239, -0.02557291669547547, 0.02611325115609672, -0.00047401201592872226, -0.05489090674284444, -0.08254216698739943, -0.09790470778177106, 0.06234440315097806, 0.09407914072410413, 0.1085455865732273, 0.018580154271560848, -0.012776058170709738, -0.17248189763085509, -0.045463449229054174, -0.14235427012119037, -0.0869065949661005, -0.05960913592143532, -0.11028856823319183, -0.07314136170687943, -0.020861270675156997, 0.021520853700232677, 0.03929507831339932, 0.10564153172090807, 0.16479206591200923, 0.05700593235757954, 0.01646977096247079, 0.01091052518283505, -0.005697841328906865, 0.028231891059478258, -0.13722219275429864, 0.021549206742196656, -0.22595429018281624, -0.05016714273144743, -0.04597945632558667, -0.17241568064165397, -0.06332623193607367, 0.06818321571962357, -0.09370156178205757, 0.011319734101609523, -0.02760672079330493, -0.02004718946685815, 0.007627718369739622, -0.023890956647486042, 0.047617437677180796, -0.06484213120983254, -0.041521290636325744, -0.05781540904668259, 0.059758484618420676, -0.022608406518104, 0.08755941842600944, 0.21757202082841876, 0.15217038507742758, 0.14209111793932877, -0.014923893700981251, 0.10910572781946765, -0.01676465224271965, 0.007008970608248983, -0.13788651525878667, -0.15300697946999867, -0.056996314908851965, -0.10534517756414466, -0.04303840300150883, -0.01655206107754746, 0.006368792464620203, -0.016564279231336843, -0.1445930763435803, 0.03681744830768698, 0.07784505138521268, -0.02540625651807035, 0.10554450581737208, -0.13959623980919555, -0.08833982658462079, 0.0602294247226359, 0.1065933854127099, 0.09276644452995662, 0.037763697096541086, 0.08140940600314421, 0.043199011919245627, 0.1568996216183625, 0.020615635380248704, -0.03657163050530548, -0.06980951397793775, 0.003889587120357403, -0.06684615919571688, -0.1108887468392474, -0.1539847596271757, -0.07925302445534674, 0.09851591877466849, -0.06485827882951399, 0.029728057072899525, -0.010615533791498991, 0.01479418833816773, 0.013099911854901567, -0.017604794795285525, -0.08299169416373152, 0.06944229998542391, -0.009221427199980852, 0.04537225279730307, -0.07606500298765881, -0.09317028072233494, -0.10934258860704194, -0.16848218158735903, -0.11545485929839784, -0.0053323902870617505, 0.10013970491718532, 0.17192909691964342, 0.0524655719682201, -0.0027111931256798808, 0.011346532939951734, -0.06999827308578022, 0.032422503613213326, -0.06200450010854573, -0.11262532324195448, 0.04981033253486482, 0.04453508431080066, 0.07942592637621027, 0.13541471291018717, 0.06945670752440694, -0.19077766148478828, 0.05484765064440829, 0.0610833929298814, 0.01798036003720905, 0.01673463333750511, -0.05622066882061789, 0.10796172442351679, 0.04879122239570783, 0.01498927038854791, -0.060858933121026255, -0.1305994074802976, -0.19985405189253472, -0.2864562830461953, -0.16402891575532855, 0.08381616640850964, 0.010981949247953671, 0.1371508252477853, 0.008002196721419537, -0.03394991431653714, -0.2518724394393814, -0.07696585860177302, -0.047156973350802794, 0.09552826101849249, 0.06101366831643708, -0.006693407807285668, 0.1390055035093535, 0.11070476350041536, 0.1315939990233583, 0.18058417576490793, -0.10987247856628486, 0.07380967000248309, -0.010228939268271012, -2.7691608590263677e-116, 0.07063895276520804, 0.011254105882083348, -0.008548400400618071, 0.04754556005249399, -0.14702068536593452, -0.3618449668349998, -0.38367568547232944, -0.45056267626852176, -0.29401385591549767, -0.36894234710793833, -0.3753953089411985, -0.3344602747681075, -0.17306849851007663, -0.18198839064528002, 0.019001672152597217, -0.17279034213951944, -0.090627529799845, 0.06840261477888233, 0.0701292108688479, -0.01370794326747722, 0.061372351155817066, 0.026172974501469153, 0.0664866479568919, 0.025541862307179208, -0.2787737377657031, -0.06357055333198373, 0.02318694646323401, 0.014508293413481236, -0.002907121639883001, 0.006662453187868266, 0.07977067821215961, 0.010175552210349622, -0.05552083739907483, -0.14530696917945649, -0.1357194928553768, -0.20305384185912315, -0.5112349322132631, -0.4496267576275403, -0.7971276190784858, -0.6146176968016934, -0.36506531019897215, -0.08457948336511197, -0.0845974125948438, 0.044816049807443456, 0.10580889199508087, -0.01290887944604406, 0.11110566770272172, 0.04921075546781808, 0.11298538958912703, 0.12865205231054477, -0.06602109557850953, -0.1323198441164893, -0.2643752237042561, -0.023332426786612435, 0.007140596225713212, 0.01409405611395098, -0.02634056936678109, 0.007768096038709353, 0.0681686722445306, -0.05381038069806601, -0.07021065983108216, -0.0017756469760918689, 0.005441244008007691, -0.07650675407429275, -0.09308866910780154, -0.10878175212691522, -0.36315133851441944, -0.36114456652485305, -0.19535021980778364, -0.031165854952404332, -0.017442330178132574, -0.04803729226898026, 0.14318480115970675, 0.03322965245651398, -0.07178858995212217, 0.0012989970719175837, 0.04153561983532356, -0.11564199388954383, -0.0012953631281584525, -0.050990127544230615, -0.15931197534378932, 0.0055386992763989595, -0.03836839007079096, -8.892539863198912e-127, 0.021692128508328353, 0.016987319808906123, 0.0027984648399350864, 0.05335854183665349, 0.08941219268545429, 0.14971684162485174, 0.10574709645969511, 0.160720579239841, 0.14348882312149044, 0.058164562312027684, -0.007419453748049531, -0.060784379452674994, -0.08570070841025416, -0.02554372283169462, -0.12584581619079296, -0.16880541724200532, -0.06542389431127128, -0.09817799196139766, -0.03722249974614525, 0.0177722606485313, 0.03396348368638055, 0.0064834658355954, 0.030416136770814325, -0.052488973612235, -0.26816058682610394, -0.037969592683724226, -0.013597656529202416, -0.03528496250382796, 0.0812018064697111, 0.053466284056044075, 0.06272387812346678, 0.0837607019787868, -0.020324490408673367, 0.06876710513290499, 0.185916741209894, 0.149596750795172, 0.12654495752194725, 0.21088822227230383, 0.15023595014304697, 0.15448217501206413, 0.07374212510937556, 0.03315371042303401, -0.02343090689454656, 0.09357406991799294, -0.050001568863126476, -0.023717697315593898, 0.05938227464190911, -0.020723080434736668, 0.001581204769716927, -0.03400612123841683, 0.10162155469166571, -0.15067531535331874, -0.008185841720678759, 0.042656823861439895, 0.013595264855413172, 0.00681286574357266, 0.06323426400148688, 0.10876152463487063, 0.0005760095273363085, 0.044117289001878064, 0.062099150562958054, 0.007623623961208785, 0.12309394097637336, 0.19104722123085938, 0.09548048729025956, 0.195209895463824, 0.22788152507706533, 0.09387863942975619, 0.12232409623858748, 0.050029667707400256, 0.03992708804202962, -0.032856241375566, -0.030178498986490023, -0.007838008928385156, -0.06562837614584491, 0.016464669159195755, -0.019666603542725133, 0.0653332877671676, -0.04352570971892148, -0.057531159850291294, -0.06444114728059071, 0.04470459290866617, -0.003653327588792152, 6.405958035003334e-125, 0.12081109230993785, 0.0771447861071203, -0.011719469447792764, -0.022931787409082437, 0.024232477302468473, 0.016334274317237954, 0.21398887519576365, 0.026588589924934198, 0.07118769845290782, 0.19133113423833426, 0.21161606936354221, 0.02893252019391361, 0.03561226215714836, 0.008592756332535659, 0.07517099736916279, -0.029655334710233405, 0.05452064245001348, -0.03607631642073971, -0.0134180877170832, -0.019212117288430017, -0.10368641827170726, -0.0785615417826321, 0.021248378135021142, -0.017240105399625318, -0.10310510198640176, -0.0016989314418070502, 2.658377985882404e-122, -6.385247435037859e-125, -2.549982119631913e-120, 0.0013336661772142043, -0.010597942452605646, 0.09021371179260743, -0.039558573610409216, 0.07063930746949537, 0.10391640936424999, 0.04372737866386768, 0.057459071506655496, 0.17109068443111433, -0.0023963174392902385, -0.10672059232886433, 0.05099781246288815, 0.020543866876291682, 0.10203019950780955, -0.04567355744520088, 0.04335095353621418, -0.07226206470353658, -0.06315775899515326, -0.0625561972718922, -0.009251582378800041, -0.0823584185397484, 0.029920076953519507, 0.08322866086749874, -0.06562536866608182, -0.0358013630297792, -1.5603598084252478e-114, -3.0026494144278597e-121, -1.1302936132157103e-125, 0.04836171816020395, -0.044929582497333025, 0.00690081795205509, 0.013047818368743618, -0.009666360280690883, 0.04359677399337466, 0.04213415829382245, -0.09353628591561954, 0.07513420812051938, 0.09331680016185333, 0.019906853652255196, 0.06310794743689971, -0.08498172608710247, -0.038354758814064784, -0.0020776448688786327, 0.029892971147277524, -0.021441765975827497, -0.041257949412569404, -0.056657895626300234, -0.02832580279946657, 0.02846470428064383, -0.03509920645946119, -0.02812972486287541, -0.002636600456654603, -0.008586171671653944, -2.757685844646583e-123, 2.0804490177175208e-121, -2.7616786986628376e-115, 1.0424625108639738e-121, 0.09859764357536555, 0.033630371634738435, 0.04140754865919395, -0.07134275232850584, -0.02549827888638228, -0.013304230144998031, 0.06970308057269269, 0.09528426437348195, -0.010709421415584081, 0.1005509269978706, 0.15276167520596076, 0.14217944238647195, -0.04965685251984565, -0.019969527989015717, 0.06518245723190987, 0.07780775306190459, 0.030656846334459652, 0.10274752497316225, 0.20288094797876635, -0.08107344017458966, -0.013288945735501035, 0.04742326362865142, -0.0038996960423658476, 1.7853466906909096e-116, -2.422568052391593e-125, -1.862872835185933e-117, 4.822253337099245e-127, 2.033243345851009e-117, -4.546130662643094e-123, 0.03157384274335683, -0.07316406574644482, 0.06520991849793978, 0.04392612824313082, -0.016570448052440085, -0.024472082864398267, 0.08295148017192797, 0.052733704405436906, -0.09015093488171337, 0.11695290142380681, 0.09594370721393183, -0.04654904611245963, 0.0007360980645116636, -0.008696111420416219, 0.08083116727692762, 0.01231545581706571, 0.11396008117359473, 0.038490708805268344, -0.0627901642628149, 0.0880445146116638, 1.0318339171951655e-120, 3.524986595423903e-114, -2.0308757600194506e-122, -1.2971642158666473e-113], [4.068063884556703e-122, 6.374446220186341e-126, 4.257901225715661e-127, -2.043433215582311e-117, -3.1192919925169185e-127, 2.4057430010432157e-124, -1.419024927731774e-125, 9.954412751082889e-123, -4.757204295549787e-122, 7.977391131884207e-117, 5.918132884251311e-128, 2.3972472187751745e-122, -0.018253742254578487, -0.01617404064670775, -0.03414122379020808, -0.04228423502977551, 2.5239383665610802e-124, 5.4523143739539416e-126, 3.7420181347051993e-122, -4.353198876359278e-127, 7.134005749652759e-126, 2.039569942385635e-117, 3.1326866403543515e-121, -1.0239951911416835e-117, 1.3220989314889946e-121, 2.7737917155438485e-120, 8.98580137467349e-126, -7.723442907745724e-127, 5.153209756502467e-119, -1.0237558413599695e-122, -2.8564667991112025e-119, -1.641289146476669e-118, 0.0017750823308806667, -0.014072716923975302, -0.12328331739717206, -0.004272467665810121, -0.08098276168818054, -0.025828988421417082, 0.12132619706018509, 0.06212802721920077, 0.10819678558390736, -0.036391792044495594, -0.03405932289126822, 0.07919312059961707, 0.0718037794661349, 0.12143789550488669, 0.007527081108494818, -0.004759019835649439, -0.04512403291146158, -0.03178519179367719, 0.01740956154897108, -0.02271798672541834, 5.004567251449466e-118, 1.3252671663264475e-122, -5.938784301970891e-122, 2.988215729969164e-119, 1.4567258132332645e-126, 7.170343092691532e-114, 0.07190993077609563, 0.04055296553193753, 0.08045621649655477, -0.02207990614975043, 0.007903866198231026, 0.09198392919626609, 0.10572175848502471, 0.07744919100644188, 0.0007020762797797736, 0.09246927352395286, 0.1640039586602537, 0.07040930684778128, -0.06228897031359998, 0.09991233866479385, 0.0011085658412145372, 0.12281867978580696, 0.09147265558583062, 0.0024088841304290426, 0.06697267474811176, 0.09403498617590351, -0.0661985181831627, 0.015785440629571802, -0.08490284364905727, 0.05047526736145025, -3.776224474229571e-124, -3.646396676300155e-116, -2.0196911889458243e-116, -1.4807960972257104e-115, 0.1749930033473916, 0.02162185941166375, -0.02527940469717805, 0.14332294816674074, 0.05122777454150719, -0.08355247632893822, 0.1352320153416479, 0.023309328133234677, -0.023659292524789884, -0.03676314233340469, 0.1459558086686115, 0.174610122006481, -0.04186405317100186, 0.03040208575858525, 0.10299373221635891, -0.027392850600431562, 0.04254852308896614, 0.1087844480068292, 0.037477652843781135, -0.14055528980024948, -0.03811740421753, 0.04018960752498127, 0.08127230403078942, -0.30457276250825405, 0.0006661981538468524, -1.6656801193246542e-124, -4.747113677057097e-118, 0.023757099106281866, 0.0009489461577579004, -0.034336721350080784, -0.03561216575117647, 0.050205859548443144, 0.0013328149226472055, 0.004337343012359262, 0.17744241095764487, 0.12741284034603526, 0.24107726324144618, 0.12490767985020976, 0.09443967477384893, 0.053253659458942504, -0.03281729338775242, -0.008256950734625216, 0.0415008600552109, -0.11268238255207454, 0.06702142677004912, 0.14537508347556644, 0.007782377373147786, -0.03492786311837653, -0.13688388103588583, -0.05951216546301958, 0.05755563650363883, -0.03841522710102727, 0.01247137437197299, -0.07093417466515808, -1.8112733421412536e-123, 0.044122271864739306, 0.04978881554598807, 0.09458973163214189, 0.03267422684323376, -0.09083887759130238, -0.03816399792589458, 0.04494519161255042, -0.20919405064644267, -0.018427136685978538, -0.15504817049869152, -0.18683725079821167, -0.0002454003764578917, 0.11501159967006237, 0.028073219695748792, 0.09888102720749711, 0.005689866019295215, -0.13522050661979498, 0.11428762913964496, 0.07992727032697318, -0.1218348566986561, 0.02316920163838206, -0.02462286021881083, -0.03884222236171391, -0.08156880974151857, -0.03765932810889137, 0.046165790916867476, -0.05432366530054636, -1.0128458787865565e-122, 0.05312876835303636, 0.06800177151136613, 0.09885841886129385, 0.03699769244332876, 0.017099109294167962, 0.12275130692714961, -0.03127736058000045, -0.06773987061639726, -0.041948801551931106, -0.11188661874757298, 0.11698201552871662, 0.0068394193882932676, -0.028795612841416844, 0.07636674763253458, -0.09010082705902452, -0.06886309869400739, -0.11144136182770079, 0.006888707466246868, -0.04574096584759, -0.08467799211350911, -0.13098627931959378, 0.08681476346080647, 0.11319404289624427, 0.06602459470314728, 0.03959140809183518, 0.05798720140288365, -0.02947274035480618, 0.15871715049574697, 0.021337749791918756, 0.07868993845918316, 0.10632760440571985, 0.13332713688174438, -0.0882779043819059, -0.06498495254645795, -0.033773051861761334, -0.005261169376885915, -0.11539918746332654, -0.05531316371802163, -0.01631383019066077, -0.07912026031432066, -0.11887791111626989, 0.03452955524746659, 0.027309137296239572, -0.26009842948443435, -0.21131175094081833, -0.18384564137333495, -0.16963619649479084, -0.005426006485565543, -0.14462469982825485, -0.060477092519368815, 0.009368488567277813, -0.015808973822064466, -0.05644406620397529, 0.007774820590150037, -0.21197638005182332, 0.09345524752799718, 0.10525791768854229, -0.061542848194482115, -0.026092323444707393, -0.11490355329977252, -0.0066926462113004945, -0.0012080859609359472, -0.06256748543293109, -0.02644998467465058, -0.1597636114010322, -0.08309658135018713, -0.11396306591895393, -0.1592467003323558, -0.1869754508789932, -0.05988952115713512, -0.08481997368924458, -0.21116449001777465, -0.10293066891781982, -0.14981539926899826, -0.19384182440568742, 0.1546188179063055, -0.03632251020205034, 0.012056420258891537, -0.019268835938884985, 0.042698028281872795, 0.101524129562734, 0.026115693697749527, 0.022124496635582105, 0.0073463659716472614, -0.06702190121217583, 0.13286431563054293, -0.05438673576832511, 0.0762004417604602, 0.07724342426809556, -0.1725903831941932, -0.04454920989099313, -0.13742811691336104, -0.20696679050906325, -0.09487025471818959, -0.17361765224602319, -0.036424621114881144, -0.08947972054544004, 0.02930986587176374, -0.14412972816822334, -0.09314044524183589, -0.09246132511971304, 0.05424158253316952, -0.14640075737012845, -0.08154722336277427, -0.05326797725959486, -0.06393613850587573, -0.24008667220342889, -0.04134364411954016, 0.04952109013688129, 0.08115524433347499, -0.031904678339504805, -0.02258892830081145, -0.01794302605808287, -0.14780599404023345, 0.05895934522947948, 0.11531542703240497, 0.17659855644804148, -0.09542949579985095, 0.06228917772568725, 0.10891800025912017, -0.08581205713814266, -0.22403928872283888, -0.10491476139311544, -0.0326247398599042, -0.10661810061485913, 0.059685045894806464, 0.13317078497536677, 0.3076504305443916, 0.020919668773656253, 0.005478534678387616, 0.0946574675753321, 0.1477078445783773, 0.0339304551573377, -0.11070982122485307, -0.06441398515116945, -0.012215886930928373, 0.09423704368178414, 0.05855441141643262, -0.14594188893541796, 0.01654583409745793, -0.10887351500871423, 0.10064450356770792, 0.018152312137227844, 0.09612597156978649, 0.00890078762472282, -0.012468779059694346, 0.01658598815457236, -0.12195117784863606, -0.2088248353507085, -0.24553503380365577, -0.09836997200296052, -0.33447919111309016, -0.1793575340053584, 0.1797895868547568, 0.05062881283872182, 0.1283464440712561, -0.027119511816079033, -0.03333053125827024, 0.1209610784140263, 0.08660251537657267, -0.028961484159421597, -0.12666433780257294, 0.004007857692859128, -0.08595735343716286, 0.03138810430249132, -0.0168024318996914, 0.07022134514138605, 0.02460117315539725, 0.0011445195416604408, 0.021937019167277413, -0.21401788248921141, -0.06809332841246248, -0.17350611502832433, -0.24058467355926724, -0.13597830717630952, -0.17966256173096753, -0.07078049839798696, -0.16805114699776724, -0.1459544097992191, 0.03188736507111419, 0.0773908334839958, 0.22282494720613644, 0.06000529707236863, 0.21531669277421286, 0.020432774691130858, -0.01730637733121102, -0.04390544227394328, -0.12399102493674478, 0.06991985615761118, -0.13163260335043034, -0.1884707367381649, -0.03546652299102143, -0.0005607058253596662, 0.027415990011127017, -0.013775003597681787, 0.08289345463483155, -0.05885630445821917, -0.006964293728269872, -0.06650766900211494, -0.29036366695079463, -0.2982748595043107, -0.24688162083362877, -0.2471448974417926, -0.10126093891345149, -0.04090817818770896, 0.15357823223431855, 0.0050325141298282515, 0.16059403447262072, 0.25635164119762627, 0.10131803520401861, -0.002992851148209406, 0.16554694140357026, 0.04292367557559084, 0.028149722092366256, -0.01457805406996947, -0.055674516832104545, -0.0350777706175353, 0.015470970843518225, 0.015480529379387209, 0.1009882438398597, -0.07215152314527949, -0.03624669613185222, -0.020089057179109464, 0.08819341596078427, -0.056414068295441225, -0.0021766785731991427, 0.07800776690864848, 0.004895343830311227, -0.17615291628622115, 0.10224186381878331, -0.01769822327407721, -0.07002246208377474, 0.08849852874993565, 0.0991699729204683, 0.041255244488028905, 0.05421796012870491, 0.18236558542921466, 0.22832040732467082, -0.038861889355558274, -0.047449437625330146, -0.10718825492038993, 0.13567252550957792, 0.009044414008626944, -0.04520641565625095, 0.047771112559329955, 0.009714728347731948, 0.04031338946291542, 0.06775349717763714, 0.03862341675802436, 0.06489378116734808, -0.1333660475058501, -0.09345080439327554, 0.04712807565344902, 0.06723835771375708, 0.01862485116603303, 0.11205317219274075, 0.24646042324538384, 0.2329715860853016, 0.018251411107112845, -0.024954761581705998, -0.11658228052233954, 0.020219283688667034, -0.14751637499762663, 0.00014125313217545142, 0.2825796993423633, 0.1695346389914767, 0.028780353556844038, 0.02409921721087113, -0.04602681698569932, 0.11109588316123216, 0.12855006148565346, 0.06111762938974018, 0.029372512223044222, -0.07877764333554162, 0.13682573361335787, 0.23062260866692172, -0.028175226807842155, -0.11430542835493707, -0.06299342163510128, 0.01250474993828073, 0.035327497649794974, -0.06765151694233676, 0.11243509886146179, 0.14222318674855755, 0.14776523729495214, 0.09320254394708292, 0.11608842229393297, -0.20178814541142684, -0.1638605701121423, -0.04687974366843416, -0.12479075096664517, -0.00019696805869860067, 0.09636120303171658, 0.2723358444768829, 0.07382867950216326, 0.13401639064480306, 0.14620660073724706, 0.0945450558982252, -0.1287090795726083, 0.13409701210014574, 0.05336468153362197, 0.04365035987664742, 0.0187099958387767, 0.07754978405714893, 0.03478195150985667, 0.035113464542147504, 0.07628393949115513, 1.7985326278266477e-123, 0.10955867383044277, 0.02261259854671219, 0.0750013636615118, 0.09094487048969055, 0.1673760792687381, 0.24734319536594843, 0.3201248038359361, -0.021568777492002977, -0.09686890660796371, 0.03933055557778527, -0.04087648272899371, -0.1927778358786421, -0.20282556213106354, 0.029495009107577057, -0.053422552681383496, 0.04005927211737897, 0.11815398611347787, 0.01909712842909108, -0.035785411731051354, 0.00606820871216139, -0.008828063148826532, 0.020953548227476394, 0.05227696752599765, -0.09172963283128867, 0.025055667457357916, 0.02380364096254506, 0.00597275358529734, -0.0789280073947936, -0.043623927509255325, -0.09274496298624062, 0.16199314391061195, 0.09756016224874672, 0.14456453408380066, 0.14228943934618699, 0.10987024335806615, 0.1168443143131965, -0.019783357593275715, 0.14363686948527601, 0.05860570061956579, 0.09381179320489309, 0.0714131464955372, 0.033032755643751695, -0.024741639989381715, 0.028094744776470486, 0.11068508759401141, -0.022870044475608378, 0.07093128116759374, 0.0038254251518490888, 0.04962102295700112, -0.027486965553146326, -0.03094291273586462, -0.027175044733017416, 0.10463382503976255, -0.008458823958238479, 0.1043139881263306, 0.04734960036699412, 0.07911436984696787, 0.05024642393277246, -0.029335848263618406, -0.03639566352087432, 0.034081076237799074, 0.025312265629533606, 0.013662708678894492, 0.027317107136921794, -0.06760202149010969, 0.09001823484898029, 0.05726060248779548, 0.05153390922848112, 0.15513555060976525, 0.1567344941680765, 0.08317536387232671, -0.11900236023987402, 0.04045344880467534, 0.17302300330885248, -0.012938645810626648, -0.02424778559769734, 0.025958590324404104, 0.1411130628894561, -0.024508698864790582, -0.19921048557693596, 0.0474518470325008, 0.18903652255772946, 0.07246129957606183, -8.12982437454786e-121, -0.00268129125419649, 0.06241935218801757, -0.08110099880032802, -0.1583350906388175, 0.16482064025143095, 0.05210344480636061, -0.05597700109899599, 0.015320389479255039, 0.12103874223578104, 0.19585737035710868, 0.03343524235543987, -0.03231096845169053, 0.09228239190033602, 0.17259897039577035, 0.023628765702182024, -0.02841879634369242, -0.14885013495541888, 0.06598728932630887, -0.011030959311464243, 0.02782076850252808, 0.062258129496514415, 0.02107026230961107, 0.01715932208140095, -0.020988864725562655, -0.03664636083063989, 0.043677903748610684, -0.0019156481631925875, 0.03474847382229119, -0.017086835367055225, 0.013217439715370372, -0.10782594750554593, -0.3327366224431601, -0.07412624364950135, -0.0627554403364829, 0.023059549491482395, -0.0007790928947595417, 0.06887629965917239, 0.12365455404655692, -0.08078759936178227, 0.040513457371019385, -0.008261823225708275, 0.017115033558606156, -0.12476402991844107, -0.1601755368361553, -0.015606673260517793, 0.001302228388655605, -0.04133410763057519, -0.1261183366022979, 0.006393208257799307, 0.01902710923559668, 0.02833156799030753, -0.09517825046507715, 0.14142406225575885, -0.03505119530123796, -0.010456205898144123, 0.07652812048352031, 0.1044455821543438, -0.009101739648496978, -0.022229423073554945, -0.23998339187050044, -0.07126587627434668, 0.049475634891471394, 0.048102363616398296, 0.019283268659323588, 0.12258252652806895, -0.016993955020867105, -0.017148084223204126, -0.0728551466659529, 0.08642484848609505, -0.10640109897765038, -0.04131031150203275, 0.03604112008496419, -0.0711592355304613, 0.10495883834024272, -0.16062845136097328, -0.13392160676153755, -0.10024061856953144, -0.1506479462713747, -0.0455740328292674, -0.030806529843418282, 0.03503161989231599, 0.040714386147863914, 0.10584357128535232, -4.975488410814132e-118, 0.14491755428636294, 0.05208258244232945, 0.06061623934733088, 0.06864085879743266, 0.057551938075392585, 0.00956079721557058, -0.08499259290219884, -0.10729285322448558, 0.08340396306998303, 0.043081973770802806, -0.08303742663853599, 0.028973527205426165, -0.09684678817256227, -0.2849412414632846, -0.24744482841334883, -0.2737245389128626, -0.06997235907142176, -0.1057770934554884, -0.11895369045271748, -0.2132119498293754, -0.005522707281552845, 0.12789461371022423, 0.020598810425205748, -0.09012218667408252, -0.11496100388553193, 0.0900465719132508, -1.9596779687789675e-117, -3.556981573502227e-116, -3.3585454327338696e-121, -0.03658991370629677, 0.0005062987474136175, -0.028141168451435095, 0.04524515152397332, -0.009559135589371034, -0.05283129233975024, -0.12314701623040357, -0.04767243634081933, -0.10828255882812278, -0.23032269414099937, -0.21822436829289268, -0.4425682530505342, -0.37411843818511764, -0.1675933034412146, -0.1966685604639509, -0.10120357142650373, -0.4110191845080358, -0.2935025547289013, -0.09951448707243843, 0.11924703055517911, 0.056331332517528365, -0.11248532903621547, -0.10503008385806649, -0.039463046177773534, -0.06294746280232517, 5.986630890988662e-117, -1.8524550673716e-116, 7.494614063996808e-119, 0.06280464459585694, 0.015988268384701874, -0.051510529443954914, -0.10589796477536224, -0.0006846169472080866, -0.24267461509427143, -0.011515487355557604, -0.05549780910374625, -0.2750914454758633, -0.19685771448076475, -0.03591977497705251, -0.21290492568269806, -0.2441425498199512, -0.3063666901786701, -0.13300134639318809, 0.042777734377362577, 0.07694297437264967, -0.036206083855626535, -0.05034930320339048, -0.0031095213169696663, -0.24448435505693264, -0.05093991843179057, -0.1892701019561435, 0.05388717651467513, 0.14915011783959814, -2.8791425958714224e-127, -1.0951258292402688e-117, 6.700158961404498e-126, 9.233758913286553e-122, 0.03602782570304821, -0.0007478778041764667, -0.05080910013389784, -0.12949326583350296, -0.030101779161739152, -0.02518095319477942, -0.0742575951915667, -0.11477704799946016, 0.023569736168323127, -0.16030593568257412, -0.18897435168910087, 0.055177528584361125, 0.1265994867244215, 0.027343734844456662, -0.1621638185780732, -0.02545413378200376, 0.029501685652109307, 0.06943960349181147, 0.061161965651271466, 0.028617416603121358, -0.0006927924539806843, 0.06894164606203014, 0.029863642896979792, 7.399728321148469e-120, 3.316923835984322e-122, 8.902583560899767e-127, -8.550679229475055e-117, -3.731329057570621e-125, -3.0737956906253175e-120, 0.005160474168401079, -0.015871279067772782, 0.007018451290733061, 0.01639113351645196, -0.005845986550020844, -0.012527589884548362, -0.06980691330632725, -0.0031759173282613798, 0.013372086972478882, 0.06632872252720623, 0.02529169974336579, 0.05331828304688116, 0.013079906607368932, -0.009309006186368474, -0.047443111173770806, 0.01244691278473801, -0.006526183223676953, 0.0417118270044108, -0.04840414186847713, 0.02718308337606963, -3.0093539162998854e-122, -7.622596713401205e-120, -6.541983141555575e-126, 1.751491158595371e-127], [2.3375949912218839e-113, 8.610563592676383e-120, 1.2925623175627378e-122, -6.65735470241704e-114, 1.1145542337354197e-123, -7.550535388102066e-122, 3.2599425681373075e-114, 8.910613312471359e-116, 1.1770508957921721e-125, 1.9181193881059727e-120, 1.2304075199981748e-124, 9.964743055242269e-116, 0.027221909885694458, -0.06501580666035191, -0.23631705846261444, -0.2369323805062463, 2.4903739867463715e-122, -2.1058935608756034e-114, 2.586867921661794e-128, -1.2044789243565311e-123, -7.217132458005779e-121, -1.8653933509173952e-118, 5.174297514947341e-125, 6.655645757374477e-124, -1.3968223576211875e-121, 3.571526412705709e-114, 1.4402474791078425e-119, 5.003229675166512e-120, 3.2046700857342326e-119, 9.871241640946438e-114, 6.286320843736004e-126, -4.980412681366908e-116, -0.020358861443377393, 0.02071235713593599, -0.038726528906459744, -0.04430761501064819, -0.1732042903405075, -0.3173052382417331, -0.14220455087295242, -0.09927418444191642, -0.14818425162890064, -0.09087055129421907, -0.08086739403910571, -0.20072058044819077, -0.02551802809601648, -0.03075840055604825, -0.04058044412441572, -0.08198340185032839, -0.010050751244525513, 0.0023321223886204317, -0.26596191737279956, -0.21780989401889114, -2.123404571952491e-127, -2.4266069605499806e-120, -1.5201923117845634e-125, -3.074317863210042e-121, -8.417785344800487e-117, 1.6419679433364997e-117, -0.31180558001724246, -0.28715971474028656, -0.029194636859848477, -0.1568399568939459, -0.0046883183140179405, 0.0633328445146164, -0.029330057873973338, -0.1825434331644922, -0.045652253562190645, 0.0429360398175998, -0.17371003659460332, -0.23106492239758517, -0.05701029042669838, -0.14968322790452077, 0.009659371381360063, 0.03761346738597898, -0.004970719408663063, 0.005376307006544281, -0.06148820048415017, -0.1378527518712082, -0.053097582168559664, -0.19794458791793504, -0.23935372137795527, -0.2155031495575513, 3.157481015512298e-120, -2.6340067878114756e-120, 3.100211177025747e-125, 1.3228044853430006e-115, -0.22771027059033078, -0.2940032616264237, -0.1178665891797885, -0.15369998951109617, 0.06632036284755968, -0.16776024402101128, -0.30022920118780594, -0.1085744115233468, -0.27128586703899127, -0.27674938887475997, -0.3652338956250414, -0.3414585979786065, -0.11715607866238781, 0.04674757802341151, 0.04917461506907498, 0.10357560592525879, 0.11571290265603812, 0.14639542314923104, 0.035732453559508555, -0.10744529101461711, -0.07548490778338408, -0.04335414160659878, -0.021391856485274044, 0.06323098505864692, -0.31942607764151804, 1.013460329274976e-126, -1.4745168308756855e-119, -0.21322810482708612, 0.06972510225767208, 0.09057513675693926, 0.00037286908410831814, 0.0230821740113776, -0.13645867138764875, -0.10628728096690139, -0.022346622145038894, -0.12194552594465423, -0.017394637092347766, -0.1338858306282873, 0.06972851088457836, -0.06102093163535146, 0.00839713413687316, 0.04213655505709245, 0.25225323841321884, 0.16227736259409845, 0.09577171753537436, 0.14379109682314684, 0.25243071038195936, 0.1473081966518389, 0.10736248115522443, -0.11936278044026899, -0.008998387095160975, -0.15183763369962305, 0.08620238310887783, -0.3109866301455947, -5.931183771396747e-115, -0.1799183569784712, -0.19789718655066071, 0.02835957499511716, 0.13207578126591019, 0.18243787995230504, -0.02484545856554121, 0.05380426095373412, -0.1096617960876275, 0.09462855585791895, 0.09051847206952784, 0.08798657362339944, 0.0881453696782483, -0.1753666313805452, -0.18441557878397913, -0.19578839497355865, -0.014662428604700517, 0.039306004532899265, 0.014805981539753885, -0.018656497827195855, 0.0007862423324915095, -0.015437754131157262, 0.14198723121712722, 0.07109851255985553, 0.1839645739248323, 0.12002817793610486, -0.03129697219259469, -0.3213835257324978, -8.715308386436589e-127, 0.02801310218812172, 0.04007283369770036, 0.0968992119535435, 0.04899578201791458, -0.019100534263653234, -0.013549651851745594, 0.04372857666376374, -0.11009327863984077, -0.03135820446256036, -0.03846748793118646, -0.005527351705414063, -0.028693199146445, -0.1733451132163123, -0.2679780714493471, -0.3070359195109771, -0.1550458959513107, -0.06583930429502945, -0.06109629395475267, 0.1273783726135438, 0.15005694651509371, 0.15261979561756117, -0.06591428944118403, 0.01364472582420055, 0.0026815071767681132, 0.04584610914750918, -0.026503656975193666, 0.06411312717727648, -0.17629148996149105, 0.05367863798954615, -0.023405716260211623, -0.026609499527481484, -0.020450924449983345, -0.09884011476649539, 0.11540336258841141, 0.24567788311640235, 0.004513237183037242, 0.0871061704235815, -0.01957222226328906, -0.04195580316804292, -0.07868444507604933, -0.22567757880262934, -0.31685499569957776, -0.22295781643590729, -0.06024557838714208, 0.11847760510591594, 0.10313677008478819, 0.10605245696489095, 0.194566403007188, 0.0358671650881617, 0.06734876758337743, -0.15428203320974326, -0.18635126296225646, 0.08036770247433005, -0.10650031121008212, -0.01800978209079747, -0.3098075236051462, 0.06938276239624475, -0.018540171014007914, 0.11748767598899053, 0.12418280440765275, 0.10228426826802871, 0.09814571181675902, 0.1753974134938628, 0.015105012025163926, 0.0662000126027054, 0.09274577047862755, 0.10865675821877858, -0.04887977722684084, -0.1526434148831966, -0.3487483980993249, -0.21455499627072794, -0.08306409665208396, 0.03761865421530857, 0.1945994786054414, 0.0964336181325723, -0.046610526722492995, -0.010590747190441162, 0.020334978480420554, -0.09533693665251192, -0.41315361700220793, -0.0625413204572378, -0.10412285668625813, 0.012645727888914677, 0.08847475926861649, 0.16502026962041857, 0.07771614322128777, 0.12468642265814209, 0.0735112408887967, 0.03656618152400759, 0.04111996312056891, 0.06099015149206398, -0.04508329063237546, -0.022007530709712095, -0.09595273357355197, -0.1189661053947287, -0.019896624591028977, -0.20446647057109155, -0.2702656375937252, -0.04289397702136813, 0.007393502981556964, 0.06009162989800633, 0.03445424832527182, -0.01101396380766323, 0.2080463696928358, 0.062479496407956664, -0.15261788484735803, -0.11461964151515303, -0.40956660645002735, -0.13726996839329053, -0.22398587647167725, -0.19097521528493808, 0.04682924589399541, 0.1298427494765923, 0.10022104759692828, 0.12135275633476338, 0.07916777352584936, -0.06302756054850348, -0.017277351763071238, -0.010173292694076581, -0.06062872867132354, -0.07898672597331709, -0.066709279405251, -0.040133439545534985, -0.018813655502024573, -0.21192597726772638, -0.21317205184321913, 0.03274537597064883, 0.11471951792502084, 0.3237002107006976, 0.17945225246109658, -0.009993820006384166, -0.07834528844273674, -0.05440913081429789, -0.10163270140238082, 0.15852243154585546, -0.31668697684152664, -0.175080237347658, 0.0014457641650198285, -0.017000291720435382, 0.0042803652188212445, 0.04395273456354304, -0.0682005406240222, 0.1787095960609765, 0.10511459032779541, -0.016289965085870273, -0.06015759138188523, -0.12386132884302715, -0.21199986529230067, -0.05633157566667564, 0.0392998943525015, 0.07362376331828238, 0.22266918117028095, -0.050058282622379685, 0.12803606312711296, 0.19340255088277636, 0.23032700192903102, 0.23534581371805738, 0.2136594539422299, -0.02890304588475306, -0.1805233652296427, -0.21919791902523367, -0.1772136217919527, -0.21028753531199923, -0.4145115851790029, 0.07554309798440696, -0.14506795935842243, 0.14224006039734893, 0.05789165763694603, 0.18088713010600757, 0.12051911078010623, 0.11988258514217766, -0.064608867502578, 0.005817082179493436, -0.10109713585788414, 0.06085503480749963, 0.03572796121209668, -0.13106206624271521, -0.07518246044858365, 0.09599922224822272, 0.22345769604163832, 0.043913747396751704, 0.06278999666564151, 0.17917652130478945, 0.37178101771327937, 0.1138175538668264, 0.0330516057745942, -0.3161862315214023, -0.22194612829447635, -0.21634761503622865, -0.25129101189733977, -0.35039015018121855, -0.19475999657349707, 0.0021223205899066023, -0.01819827891473848, 0.18718905254528317, -0.3102871171087533, 0.03552287053016042, 0.1318904342884208, -0.07195253484478854, 0.05245942208075596, 0.029624976313180944, 0.11144561811306175, -0.004995899857479083, 0.10556374443632066, 0.016720721772833656, -0.04309615230384688, 0.0898730478247609, 0.045704617251348716, -0.18958299711291066, -0.2337881963405576, 0.1342024280856735, 0.06604761134944497, -0.00702955564451762, -0.0563080095425949, -0.18234715028941464, -0.013315029434092948, -0.06517623659504902, -0.09605504648037069, -0.19181351481359857, -0.09128623361250718, 0.11724880316638409, 0.04016102674707262, -0.13212862329685313, -0.20983343469735014, 0.05403259643913924, 0.08005272375181927, 0.003893331751390768, -0.021687862839159484, 0.08393207131585628, -0.0415825434482965, -0.04643044188625625, -0.022311190485488977, 0.032175755377344045, 0.1027931646489977, -0.030714950220917414, -0.10269703801658321, -0.06804761605762467, -0.03430167836106106, -0.04176368097237225, 0.15471832593761892, 0.17455080357577307, 0.08042392467428718, 0.1968869928079729, 0.14291658195397863, 0.0884553117813482, 0.037214258471470515, 0.029243811217648845, -0.11179957367717622, 0.1372203593963789, -0.2070999913575773, -0.2635421469812153, -0.22302603427466794, -0.17105914782226206, 0.045044594531302655, 0.05424042401710195, -0.0030243474677302345, -0.04895993583240595, 0.031225954464909948, 0.013881937905918481, 0.0009788407022372342, 0.21746262710091377, 0.035730859749258805, -0.07506350964799732, -0.042628873513444285, 0.06073187694209748, 0.0020182516764075064, 0.19239765289667626, 0.10617093010050449, 0.27086834237362345, 0.040883314199763716, 0.21726549211371018, 0.1412758554764891, 0.2376443199152183, 0.1108382012388324, 0.07429529129066785, -0.1550515960647816, 0.05528397168432732, -0.09124270012685595, -0.3107594526528336, -0.29878568416088686, -0.21056686894145207, 0.001915892809681494, 0.11973897659568464, -0.002156501131969347, -0.027549729496665613, 0.035408417511889334, 0.13831205983855072, 0.04027265051347248, -0.014472735215207129, -0.1303434287034543, -0.1735678257173307, 0.02565339841426968, 0.04292216382889487, -0.06896633466815306, 0.2128674780827299, 0.17591078115509884, 0.2367620666683942, 0.27983946690063, 0.32288868481614325, 0.12041795778705733, 0.28085425484269405, 0.26716854503592014, -0.02264433192666172, 0.08455672461177592, -0.06535503569429744, -0.3228513222954761, -0.33857129834485256, 4.860013512839039e-125, 0.03237995004385736, -0.0005824220848704589, -0.07048706563985084, 0.25054920930261804, 0.10989700916904266, -0.016725915147694618, 0.022768890149562952, -0.11972453285947825, -0.1759646656837638, -0.30851160938535466, -0.18144066697947567, -0.15697980262097558, -0.07441500717604117, 0.0943206292940289, 0.1443854657215922, 0.14251791433090355, 0.2529108580153298, 0.21083200537234145, -0.04823452400169254, 0.09905643104298348, 0.16536476571736602, -0.08099486710923112, -0.08416277932173072, 0.05450578829477925, 0.03337968653672156, 0.0952010729449694, -0.28340736231708125, -0.08626034287169652, -0.009245436703025705, 0.050994133166300776, -0.06260753499543394, -0.03437408655520253, -0.031433996476907956, -0.13206912992764586, -0.10343126791798982, -0.03876720919241364, -0.005484158955000233, -0.13632525692154512, -0.0401721235693488, -0.14213279860225744, 0.006535960806848153, -0.041468733600483185, 0.043173734618090535, 0.08529306828256902, 0.19010690478426887, 0.057276776030272064, -0.09301380288256933, 0.03184026503844542, 0.014708230083534033, -0.045001182339286266, -0.1687885837964218, -0.20833091843519927, -0.21388533265852758, -0.0471233419947579, -0.06682621206528422, 0.07022514338622825, 0.009632026962633197, -0.057094828331755415, 0.17589603316648497, 0.027773826458204906, 0.006891961808398207, -0.11199159397781691, -0.034095415554538225, -0.027807310719396364, 0.10781667448201987, -0.24288084641311664, -0.21296850255502267, -0.3933993206787669, -0.200087348779209, -0.08138286236452746, 0.010402924874368832, 0.06723981608003664, 0.026232892986119895, -0.06455344537078594, -0.05046159156349867, -0.11580277952003012, -0.13625969895064816, -0.271355533471653, -0.273549716516232, -0.08372577814285756, -0.1949720565520711, -0.26832380898183417, -0.00122774487944983, -4.506254753335984e-114, -0.09684776928688565, -0.007384479450959347, -0.003778003159547373, -0.2618979565578876, -0.24427124822010401, -0.08811968403986209, -0.06238418560121995, 0.016367033264370747, -0.026591648943451212, 0.0514009176163248, -0.10523065247947799, -0.16609023105204132, -0.14446176096880156, -0.15934634829459332, -0.05479098483470298, 0.0681271709032558, 0.03986474455027331, -0.03252784064180671, -0.0635620203539634, -0.13572957572396882, -0.12027933660858832, -0.03878895683769463, -0.06425159416183132, -0.07723186033984068, -0.1442194135739286, -0.19386455106424208, -0.2561074588239332, 0.03713579926851967, -0.08413607155569489, -0.03268357172204407, -0.1736147530495018, -0.11241972284599364, 0.12353836111258319, -0.0003773099577240741, -0.07350818591645425, 0.07543984617204909, -0.12046069343592489, -0.055458822789940035, -0.00861123982793498, -0.055811926914775024, 0.004794058276305299, -0.02544440884757136, 0.03507264274428091, -0.12062841749651931, 0.07978380682186914, 0.009213434759937775, 0.06861673540000486, -0.039635175571136445, -0.1705196562730371, 0.035672561133424596, -0.11650103348286671, 0.061664156807297005, 0.10490172044250747, -0.13614868012260944, -0.2339137806539362, 0.05801400460051591, 0.019999103502460612, -0.06028148002718459, 0.016641240358666928, 0.07700120730642321, 0.13872953387252934, 0.01945011371231068, -0.08933145899694868, -0.05384225944332667, -0.015806057582949565, -0.03872711626691836, -0.03395199315840536, -0.14126571905407662, -0.10936551751837013, -0.014575044071600643, 0.06510490789857745, 0.05724347627690069, -0.01733297138658821, -0.09919632361480545, 0.15589676148849524, 0.004658288985793669, -0.029036859762148395, 0.09323538415970004, -0.13253166238218625, 0.004741451139158806, 0.0377819405550127, -0.05688375065235112, -0.3081812142431843, 2.1205002953096868e-125, -0.3197392291183169, -0.0634459674961246, 0.1336719131845599, -0.024852014250670466, -0.14568962653039758, -0.024205276360781017, 0.0898655969029417, -0.10429773544684726, 0.07126427840196027, 0.0018442746258616864, 0.019038394495963618, -0.12362141344960602, 0.025512092139632257, 0.0632212305402184, 0.11250011301803728, -0.09781924480107033, -0.03215100162890139, 0.005877384333737176, 0.015302146135606333, 0.02400991193080628, 0.08373124220973056, -0.06981327890508948, -0.11505247143485636, 0.003020450025854454, -0.12690738233568088, 0.14532487829506865, -1.5152195024191392e-123, 3.0160695121961533e-115, 9.62535231356847e-126, -0.2809968752808514, 0.01830931583459895, 0.023422415584134347, -0.12561514692088246, 0.011166820544645965, 0.1116137618226189, -0.0201311109015684, 0.07552073868833883, -0.054208327817145366, 0.0608099073706052, -0.04088451009448935, -0.0593099061653451, -0.0894466254141867, -0.07940165387205182, -0.05428323970386667, -0.16134986620710157, -0.09896309701484755, -0.014804471856137737, 0.12716327971426641, -0.010562986223905637, -0.02840671838641019, 0.033411911020449034, 0.03325182906546612, 0.048553825270049804, -0.30970106778879136, 1.2295748967240169e-125, 2.271350606587978e-126, -4.8730079454160116e-123, -0.283474540349712, -0.04106873712075511, -0.00519361674125771, 0.09148657962328009, 0.03703803857638514, 0.06087604056865968, -0.004735917170703428, 0.07393031417721602, -0.05656621362084357, 0.10414194379758657, 0.03200191173844536, -0.05555078217487977, -0.0009790595832290586, -0.11462105791549482, -0.09848139972590204, 0.021293941822719088, -0.05243491783973451, -0.16689295815404162, -0.03696190258041509, -0.03806228751585076, 0.05569912882188586, 0.014254515244432341, 0.003913665201075198, -0.2761487910376421, -0.22429023371643714, 2.1158623876371576e-127, -7.04102075208942e-122, -3.0983800551131e-119, -6.464410891791044e-116, -0.18487256016130363, -0.03695184169862115, -0.11611435504444491, -0.046196841464827464, -0.0018851351349860408, 0.08274304342239555, 0.011385299498874738, 0.06598694058312121, -0.04871832097119864, 0.02733673664832041, -0.06569938451781807, -0.06527763203500875, -0.06938332760383158, -0.05102710716107994, 0.03999975502167562, -0.12733454981037962, -0.027318654729715515, -0.0007433623897939972, 0.0006404845473457681, 0.03591647489677089, -0.128891055015874, -0.20189540931631902, -0.31744205620962523, -9.566145407817294e-126, -5.521877670555591e-119, -3.234685900572166e-122, 8.018256049269374e-127, -8.977265388231003e-122, 3.893457034332185e-123, -0.2942852246748417, -0.3414555323802638, -0.14700777943929647, 0.05441129833505215, -0.08385960711597319, 0.054336962634794594, -0.04672837864676914, 0.09293991993925639, -0.08567615768546151, 0.020779356392226698, 0.04894228742416324, -0.11288386044452889, -0.05700181873821209, 0.08386646629504245, 0.011188906399169134, 0.08598578053029343, 0.04275155898450247, -0.051867429805518304, -0.10734691908198207, -0.29361669071721286, -3.9270299054287835e-119, 1.0135304593591383e-120, 1.0207974578170368e-120, 1.0349894345705867e-119], [-7.989940486281205e-123, -7.843943511828677e-120, -2.0306512989668617e-123, -4.26436549602827e-123, -2.0063848292998293e-127, -3.2405400972309684e-124, 2.2167323528844284e-125, 4.388551984552011e-121, -3.6474666558372084e-114, -3.27479908757093e-122, 9.248793023115591e-119, -1.9196352581074234e-124, -0.0026560493685335515, 0.0010563229417834465, -0.20151010373397682, -0.30681654608649866, 1.815187444697235e-125, -4.6756574246457234e-123, -5.5874133187264364e-121, 2.1822398793338763e-120, -1.795944169472842e-117, -1.1901573417551678e-126, -1.1766309680195257e-123, 2.1204199051508834e-114, 2.4959080781109257e-126, -3.7360838404134597e-122, 2.712632966612581e-124, -2.545656772133146e-125, 2.0956520423742443e-124, -3.13326034356814e-122, 1.1330707966183696e-122, 1.0288285095279343e-120, -0.2593431332363858, -0.32094629241787553, -0.3036586208408033, -0.3581187590915882, -0.304207559437146, -0.17067273758003518, -0.024358792338757592, -0.08125363500381018, -0.11675446433798961, -0.21553654246647316, 0.05374550254063656, 0.058560263449798436, -0.01995764643078148, -0.10341899372871535, -0.347860195825758, -0.22096191710448757, -0.24733172908746792, -0.25654107432242224, -0.20826855925916896, -0.23025759700852666, 1.5063740109439819e-117, -3.215590699496691e-123, -1.2409559485180018e-115, -1.818864755539971e-123, 6.250465222018191e-124, 1.8306634920703922e-126, -0.2713334718219601, -0.12514045774741503, 0.0176409351056794, -0.06694528916154864, 0.08764486100277198, 0.03848560157952025, -0.06935854183380914, -0.04904600832412966, -0.15510628572757887, -0.1670661697340145, -0.09396394542940395, -0.18293471363216238, -0.22932415740219422, -0.05842711719300015, 0.016027828465145406, -0.14815476119460141, -0.10833024059972227, 0.06518651478317175, -0.024381769040083056, -0.08419450986443189, 0.09596085416965235, -0.09979911098305634, -0.36054054918477574, -0.33658511144754377, -1.3906788319941387e-115, -1.7021397135717273e-129, 4.877748078912163e-114, -7.960540940264688e-122, -0.2673224330873558, 0.02259055610464706, -0.11901132407084761, -0.09225296979712098, 0.06759147532448556, -0.1364533207322187, -0.2802740139518394, -0.15007852846222539, -0.056037290301575074, -0.24585520333773267, -0.1936610257210501, -0.46783885572547473, -0.38784176082291016, -0.3846980843338688, -0.2761641826941663, -0.1598928226007635, -0.12548022643483214, -0.09014074411383145, -0.005338424272675748, -0.02590664631118149, 0.1843709754040733, -0.06992483515992495, 0.02714052040733293, -0.09626745736550305, -0.2454823034778746, 6.622971062971805e-128, -1.9691638296924954e-117, -0.22496403802805542, -0.04169358812172481, 0.011893775066614517, -0.20028674426876958, -0.069193107006975, -0.04483126976899498, 0.07937029393446124, -0.1673074587972658, -0.1414953349139612, -0.16723399072775003, -0.331769503954599, -0.362395983217062, -0.20234836029797268, -0.3371702072773276, -0.3051828151337057, -0.3429372986796376, -0.29857141962111683, -0.19650104756135459, -0.24446397094540875, -0.20432732602256778, -0.0991639647198982, -0.013845941009886028, -0.023348342759535668, 0.0733272460362917, -0.05927440266466635, 0.051600218252455914, -0.30087008113902497, 1.2466202874175234e-118, -0.25832270293347115, 0.011420288104533778, -0.06530755023814765, -0.10182571041505031, -0.13926393495803283, -0.16286183180097094, -0.09795363062393386, 0.11600532541377542, -0.07787107436907294, -0.005479198623302027, -0.06608171524106964, -0.08405571617362541, -0.07128518112288305, -0.03872311451316474, -0.2138679622436291, -0.2573324924458716, -0.17995784642384038, -0.31256197316552353, -0.328830083517591, -0.16020391655583652, -0.25747549052679214, -0.14090965023489624, -0.04467379398171276, 0.09405217936516924, 0.0692963246007285, -0.02509267294767865, -0.2915045123524291, 9.047837627589249e-126, 0.04272424238655103, -0.10674205222313744, 0.046324340876804815, 0.2243753557398064, -0.05038001957482973, -0.1201905535804729, -0.016649045338110527, 0.061843351918880005, -0.019475061424448666, 0.056216615355008215, 0.03888881213544591, 0.126201262571562, 0.0411228439425148, 0.15085174844025384, 0.05438799590411727, 0.07241095965626386, 0.15391345587004238, -0.004466056867364262, 0.12412949535293649, 0.06114615938574449, 0.07247880595192305, 0.1610102490391406, 0.08653552624594253, 0.13911210237968297, 0.0030258374182075155, 0.11941973219520526, -0.021288700275320566, -0.22621485813724126, -0.10065732420897204, -0.06621435684655606, 0.15181958257095943, 0.11613812826798108, -0.07982324609542285, 0.021463174768253917, -0.09067333796066179, -0.1378789885356306, -0.0003818729324162748, 0.13867763632221947, 0.08605010049773534, 0.19812880253995782, 0.23154717936399816, 0.0919139096997181, 0.06671756672056811, 0.18135981070871532, 0.20943242110938695, 0.11474287087378705, 0.14614852077721563, 0.16284091198230133, 0.2595484443115849, 0.054619225287288714, 0.1695989282960101, -0.0386128369496223, 0.03434705746095484, 0.014515834910865309, -0.005231505122033943, -0.07125525985483616, 0.13613282383985556, -0.15398313444841652, -0.15599910022467103, 0.008609313384341788, -0.05608104143634118, -0.01625309794051253, -0.08461908495466144, -0.03694466972800663, 0.07348045199940229, -0.041801710926260054, 0.07144120963107412, 0.018465932285911344, -0.07934687333124726, 0.038600874280219986, 0.08667950701196979, 0.09257763284592847, 0.06906066539788554, 0.09951732165956333, 0.07901876787202758, 0.02963656524652958, 0.15721679695149604, -0.06511483989448237, -0.09939684230896242, 0.11266841085203642, 0.18864605952302463, 0.14434876933013258, -0.23326614616885602, -0.3201896372608068, -0.2978118836710063, -0.1751593963470325, -0.03014297611437968, 0.06675507803034371, -0.027088465935015803, 0.1725140225975437, 0.07383569900769923, -0.05784589350818911, 0.05655169825791104, 0.04796274525288492, 0.029753890332117207, 0.08050771040447319, 0.01136353958741305, -0.06555108802611304, -0.0787209907254441, -0.03903478211656163, 0.1676755590106906, 0.17971399668684218, 0.046307243455182986, 0.0036230207594410988, -0.08084520334753109, -0.12507955776827834, -0.16980650682243761, -0.1339148941200208, -0.06399825040117639, 0.12119944990259396, -0.33237711728491126, -0.30614421514822665, -0.35305691245525817, -0.37897578206992694, -0.05652084356972189, -0.04738602731507051, 0.08622024920534918, 0.0731409117214113, 0.018403628087841056, -0.07869134607720257, -0.007150532694295203, 0.08878706687822004, 0.04718366305263321, 0.11374436548812303, -0.03987053590435769, -0.2554928794140636, -0.0235103477691232, -0.05709516453016541, -0.015911454135608582, 0.08622924140158192, 0.15797559526160504, -0.036580848938774606, 0.05868896927318114, -0.08608636060567396, -0.18719447016840507, -0.023658532403530132, 0.22679197756930428, 0.05953086126864938, -0.3315009095616229, -0.34438924826769063, -0.435778546763674, 0.11456642084121993, -0.012819066358690774, -0.05484965627463305, -0.00013459048802381968, -0.008193650812886163, -0.05444955738725915, 0.11209338689332357, 0.019482006887957006, 0.05668854757252789, 0.1461617209309013, 0.15706618567297373, -0.10756552214127758, -0.061862387096628266, -0.03894614043251356, -0.02480800999656003, 0.15139488613383312, 0.2112852290404269, -0.06700630701984789, 0.016475542620381218, 0.0048212253183269995, -0.04536865517074183, 0.04234113318256775, -0.10115121239320271, 0.06667876494766577, -0.004645086785577814, -0.33297507647410096, -0.278440012980182, -0.3210138535684227, 0.07030478383698713, -0.08413368712365271, -0.006053880230230664, -0.10152677130224877, 0.19140753538808547, 0.00521780587881307, 0.15820775106853643, 0.041057988165314044, 0.22992140222777122, 0.01948984985908667, -0.1367682693792658, -0.11260091843367065, -0.15091370032563595, -0.002016689430840841, 0.15579449845090693, 0.009278116155129879, 0.08005959564750495, 0.07252326965987445, -0.05765897648884263, -0.008608179242315578, 0.025022823255950948, -0.014965690489499599, -0.16590861033237414, -0.2208037777223474, -0.25150237595003117, -0.1966965350553247, -0.19997480911852247, -0.3007275600165801, 0.046100156525351176, -0.11097396721895174, 0.018421774926906078, -0.04806569281173087, 0.043099330042446184, 0.1586215247331136, 0.17241323651522467, 0.06001941414012116, 0.15497489489141442, -0.004430609065191539, -0.032853000653620526, 0.022449378144749257, 0.11955228070630916, 0.05119111667079661, 0.14666107790524832, 0.175836432314343, -0.07837114458768217, 0.05162809752835193, 0.03407992599305701, 0.020287127089640977, 0.059343123236545614, -0.19176487343567558, -0.178214405539199, -0.14881503826664855, -0.24877509799056488, -0.23069009381711078, -0.28468642123800425, -0.19205719820129388, -0.021973649414664884, 0.053757829614850094, 0.06109316391067007, -0.02872873863136114, 0.10492620055161986, 0.14502746887612256, 0.14472740400967654, 0.15829035497163296, 0.10609135281145135, -0.019424801938952, 0.009186664419040702, 0.008925983509336599, -0.031225789191634684, 0.08994947494752653, 0.10402458008779444, 0.02658873900962319, 0.011711529982315207, -0.08857491845988283, -0.03508532436113922, -0.0031993961911421912, -0.004571146660722347, -0.16531236910602645, -0.23855187713966133, -0.23785637582260308, -0.2746129195064726, -0.2129719878585723, -0.23774004018349645, -0.3182726969043442, -0.22565587012647204, 0.04105275200192476, 0.14349231726941344, 0.008413478607849698, 0.028492545589449896, 0.1460149595751948, 0.20128079954174613, 0.12406836860729929, 0.18690297170446785, 0.11445429971909192, 0.011621216637998482, -0.0697183715824348, -0.2029384138013913, 0.1608057834578984, 0.10077437642739547, 0.13770590265039243, 0.08327624625452909, 0.020351385342840284, 0.06899565008580567, -0.02054158195164084, 0.05760550451091598, -0.0006523969457082392, -0.100483457912059, -0.303183747853123, -0.26969184134291435, -0.31603459723373895, -0.25836476006886766, -0.2654497621010184, -0.03751622544628698, 0.02349433375267286, 0.014461817976600736, 0.13607216549334405, -0.008031271336409245, 0.15548042892273323, 0.14880110596783638, -0.0015723728657785914, 0.05439981109947544, 0.06261509472795762, -0.06019952088951467, -0.18969373190381433, -0.23178904942313827, 0.015186610200553697, 0.017428398134574866, 0.04982513584565245, 0.037384771318766434, -0.025286479823658066, -0.08249851260618898, -0.14412880695964878, -0.025463718877701404, -0.01726466983333701, -0.05368834710076, -0.09430733311890288, 0.004964027846507342, -0.04658214070849511, 5.0087034841131957e-129, -0.25225405246933924, -0.05957243452007963, 0.04378623268948345, 0.015440387493050796, 0.13038646020059935, 0.10443733350266905, 0.12065743827647533, 0.2059377576812812, 0.05630287110798199, 0.17489154312863903, -0.009321028857181966, -0.06043438165719706, -0.06738326785621748, -0.3142072610051341, 0.02356288475954743, 0.023055733675188227, -0.002514963571546549, -0.017805924424403076, 0.008073342712630905, -0.03962816376542759, 0.04895406198267764, 0.08192954059789712, -0.022434954248576843, -0.05510021159428265, 0.06534884011830516, 0.12644117890657028, -0.027250827501858022, -0.23313767858045384, -0.34434216970247394, -0.047301255880395104, 0.11107183307024929, -0.007557302213531115, 0.0318577996173742, 0.09428919923426538, 0.12096825208750961, -0.015072151929228828, 0.08721928674445306, 0.11845040963002296, 0.06040926749448944, -0.1401442995329856, -0.12411989836498472, -0.14278654785658776, -0.09245768766421983, 0.010577162322311382, 0.039648950497504866, -0.10308179027835943, -0.03382129982275412, -0.01275231184415518, -0.0378477192470697, -0.06320529770174199, -0.10615700648361265, -0.20659970782965756, -0.15973014117513581, 0.24385484456210718, -0.18252907023170856, -0.3255250914275291, -0.33785359641824547, 0.031901722832637945, -0.06766709477546033, -0.0011033868458917013, 0.02536878112685592, -0.23495057607455652, -0.15396228116478045, -0.08533507070378803, -0.17016823661936778, -0.13915823650441003, -0.0849040239939294, -0.1457597938591377, -0.2161946445305705, -0.013098103696058499, -0.0585343027937926, 0.045559353018003006, -0.10477285328687443, -0.14807766884334614, 0.010167259785712953, -0.07579030376215759, -0.13036297378067285, -0.18147001162400275, -0.1707871462280006, -0.1903925681646087, -0.016188576571217535, -0.16953327220348136, -0.2148928593305927, 1.1573314529831441e-120, -0.22855219886594422, 0.10712726901847977, 0.007538577410421877, -0.10508361919536656, -0.1644950281512923, -0.40779361075906556, -0.43536063057543706, -0.30175949108691263, -0.2046045309480794, -0.2984429418589115, -0.16714353225056983, -0.36365268177848015, -0.23177937097410123, -0.18155817943086594, -0.14005015772735205, 0.013391546488823533, -0.04234910550684887, -0.00895041467153734, 0.04840612185965565, -0.14314279137010497, -0.03324890995817009, -0.13969650288551838, -0.12307218665563166, -0.09320775556893314, 0.20794410494461718, -0.25701840472198184, -0.272045894405295, -0.05092205583570347, -0.15006764289979768, -0.21365977173194212, -0.1474372577592793, -0.20778647460858038, -0.1224922787024641, -0.2535524074813086, -0.38726889650841, -0.25428513718872553, -0.10685205109855067, -0.13182952357313169, -0.16355517132731628, -0.07546856747775332, -0.15280516309402262, -0.2786864771753033, -0.18137965429987915, -0.05280334057562274, -0.21263205214057224, -0.042931910375804135, -0.1376035285563128, -0.043053004956345314, -0.06306560757868214, 0.0019094268455169745, -0.04518310639981897, 0.04518423439880989, -0.02121434308478757, -0.1795901703754105, 0.030108740815902358, 0.07684052428305677, 0.04945495884503634, -0.1254738550541616, -0.032250210493397005, -0.2196909697168526, -0.0924586311844668, 0.049507370582753805, -0.08658383651006421, 0.06850755679194029, -0.08794764019259127, -0.09058209987826021, -0.20193338731851593, -0.05656605607879543, -0.15973777273046266, -0.015244526533704547, -0.22199546266350484, -0.1152264323806264, -0.05385105268436354, -0.06954519264313887, -0.15808797400288388, -0.04350518576454792, -0.1255375136586551, 0.05530605519103898, -9.695266012168206e-06, -0.0003740993619233022, 0.08943056333061772, -0.17025127444733162, 0.0009383517760293068, 3.167723073696509e-120, -0.28176953705289, -0.041477788113756214, -0.011927257996955347, -0.09799342793453569, 0.10477463059950998, 0.1608170342842874, 0.008911107056139993, 0.019928082262614614, -0.10464982424249959, 0.04015373319065636, 0.009208496699958244, -0.15287125816555922, -0.07884353022081077, -0.06250059624677766, -0.23264655011591817, -0.048918650076110834, -0.10491047542887183, -0.03698203611579232, -0.023432725489233246, 0.037104730245206, 0.0844739173768147, 0.0010734971248354186, 0.0245921445111683, -0.04780423247573095, -0.046635338936401635, -0.053258124561899045, -2.405975453928519e-124, 6.604183900806986e-125, 1.2158265542305604e-123, -0.1593264562070181, -0.024656228504855722, 0.06069045548048216, 0.09300591046154039, 0.025257713698100828, 0.0515376016384626, 0.14696135715584252, 0.007583709151994526, -0.029461752022185872, -0.08931202310050773, -0.09873201130469705, -0.011915022078010182, -0.23231911182546194, -0.15539920810174981, 0.021825848555815312, -0.027518631320344544, -0.0006142182744299021, -0.0941572619522211, 0.11292482472197454, 0.049064451857858564, -0.01938072786351683, 0.18568413968900588, 0.04057814152446195, -0.15556012419160917, -0.20518640037242458, 7.039164298809107e-115, -2.0957431889014347e-117, 1.3839854321465235e-115, -0.27780009785097176, 0.0461559655056902, 0.08656267197032678, 0.02074521357279158, -0.1456672188670515, 0.02589605010969507, -0.09032916610237202, -0.15931764474856971, 0.0026254186486784218, 0.0070911532210457115, -0.07653044910835703, 0.024742745797968375, 0.026025706698730368, -0.007326302966823482, 0.06273027313548325, 0.05087911167149744, -0.09537122217255459, -0.05932564666255725, 0.08737343516301638, 0.14785507192647512, 0.07221499210042323, 0.0845177591535974, 0.0033931752977343333, 0.04449326258290855, -0.3280566325178374, 1.9349234702672136e-124, 7.409169506005931e-127, -9.075786570291717e-117, -3.15285732830383e-115, -0.26221044217696965, -0.17482814142082206, -0.10218017506655919, -0.02187784584081437, 0.09217223198072448, 0.11196434862602886, 0.036093042416836335, -0.11345658780282854, 0.12169489085224798, 0.04146901929934669, 0.1357086946810778, 0.17739399234587624, 0.07179423861584065, 0.058187201678853044, 0.14573009131627254, 0.09765086564919699, 0.0617811599337407, 0.11630603227019987, 0.0046531454308627596, -0.08201216098200313, -0.08388114208166352, -0.21276724298778388, -0.28356906378544705, 9.300407588440856e-123, 3.785790672831121e-119, 1.772004255773549e-113, 4.705210496774369e-117, -1.8532061288055876e-113, -8.317574162921854e-117, -0.2901684366354098, -0.30106455688219824, -0.308241205462337, -0.29955026595111794, -0.2405129166602398, -0.10228856909867887, 0.006882118903894909, 0.043794867932304714, 0.08343927415973858, 0.14013691113805174, -0.053486895119089606, -0.014063836752898079, 0.018247915876541395, 0.08434781497778122, 0.010313744714922139, -1.732320326006573e-05, -0.0698428046621813, -0.11122551047857863, 0.00834048277972017, -0.3246049816892725, 2.7361280649640338e-120, -7.037692986688486e-114, 3.8032422148298794e-122, -3.454598993754839e-114], [5.385279350300072e-118, 9.686551828770538e-120, 5.455414038014958e-123, -1.5766756992280275e-120, 5.861271490202701e-115, -9.729798430735735e-122, 4.1374535549947424e-123, 2.389638925390098e-121, 6.877933207205862e-126, 6.763678609546595e-126, 1.0059455121501438e-118, 2.005239711805945e-124, -0.12477140731561888, -0.1029658863800662, 0.006616443458783863, -0.0024742176927540402, -1.5120093552491172e-121, -8.677299916149867e-120, -3.3458058489646614e-126, 4.279280832678272e-125, -1.7238434543530082e-127, 1.487698442155496e-117, 1.1026906044045415e-119, -6.004168491646142e-119, -4.763742679890807e-115, 3.7040679397689296e-128, 3.8664967983696254e-118, 2.5911922297866995e-116, 2.976256187210269e-116, 3.1703216846062703e-127, 2.2205856594552725e-126, -3.125972024213278e-116, 0.007125425458387453, -0.05215916875997408, 0.07282074649407562, 0.10836088022920014, -0.05705487250016783, -0.20582146501355658, 0.06573478965711221, 0.054590507013285654, 0.044661235666659214, 0.06502920725563914, -0.016931468748772823, 0.12118345742779489, 0.05305266557749923, -0.019540248081054073, 0.10497205979158626, 0.12360413169614108, 0.16846620250467265, 0.12629696761394976, 0.044267147675347784, 0.04969528813544395, 3.9689364201984514e-119, -3.915224761379708e-125, 4.147288377763784e-116, 1.0128789574565927e-119, -3.1390133741189148e-121, -3.5623793919196103e-122, 0.005987227807467337, -0.07877039920442658, -0.0032404663717384937, -0.14934350416090034, -0.08498805382141815, 0.07087078898130773, 0.08805770234625807, -0.037375128363739726, -0.08693791974700904, 0.014765260385011664, -0.09626432148874985, -0.07736038178132706, -0.12144451589405662, -0.04367687369927039, 0.018607846710586677, -0.02692571389464787, 0.003649843370681692, 0.0434636686629999, -0.02042614676156739, 0.05886467163701307, 0.12041552176645033, 0.1167907800437344, 0.08354122784621308, 0.0877906154022329, 1.0557783659017422e-122, 5.03213120755479e-117, -6.513937628404259e-126, -3.463396475446004e-116, 0.07015727513883654, 0.11986521345316802, 0.051609957960904056, 0.03351885045559156, 0.004504306834477041, 0.08695316566103231, 0.10843620371173253, -0.07875007387534275, -0.09870193647687966, -0.090777204781066, -0.10012541536083831, -0.052436090221161386, -0.15046144998262004, 0.018719540650102836, -0.11953458643992035, 0.069595178912474, 0.06650842605788362, 0.08776035559409949, 0.06964980248356589, 0.09010618388124247, 0.050006530885682555, -0.023697817618740135, 0.055470375753323364, 0.024387499612466956, 0.04385253494083459, -4.0454114402022915e-116, -3.46130363398458e-127, -0.00829630077574187, 0.08563922263496385, -0.00804204441959148, -0.06758506556587163, 0.004139791379035555, -0.1456421344300512, -0.16163501726831267, -0.25490757468946573, -0.09523204183655665, -0.1589964064252624, -0.04730607766991062, 0.0011202886625229858, -0.03485808588863673, -0.0599457304432659, -0.06635411617313487, 0.06898077880431971, 0.06841674214367491, 0.12188045063144369, 0.12483027480026727, -0.035675091977620095, 0.10568356431761225, 0.023463695595946438, 0.0651493161185878, 0.019257297700956858, 0.05831125237111079, 0.015878943357533013, -0.06213337412937352, 4.8805339459485176e-120, 0.04787685332441397, 0.049382499776581976, 0.04089849177790359, -0.10006716739764195, 0.08214180991309299, 0.024415240658469572, -0.14042795270650515, -0.08100800802614054, 0.023735283526787335, -0.040376096447395864, -0.12421038657991602, -0.14819376142219592, -0.13250182135381175, -0.07129339673212451, -0.0390802347520624, 0.023836828700735516, 0.083861431783617, 0.06231600708065575, 0.062145892489368776, 0.08058574742662789, 0.11443373006043067, 0.14662017310987774, 0.18889376901733065, 0.1541072735053042, 0.01919366128037174, 0.044411235556598413, -0.05519348690308002, -2.7159387148300993e-124, 0.026650674036391608, 0.0019193471364175095, 0.0032838340092532768, -0.14352996207219293, 0.03957155916657018, -0.2069834957325052, -0.017027839397356068, 0.06585173849878503, -0.052262754248413076, -0.014709881985833666, 0.006147597587286908, -0.04459039478596394, -0.141883988051167, -0.12249440427201688, -0.07416036421422101, 0.016649931760031475, 0.050518245577496866, 0.09008078799474699, 0.0747023087011812, 0.038756654347875626, -0.026022340335130307, -0.0332056476502141, 0.015772232936533674, 0.21494805256992658, 0.14151640160915124, 0.049459057461495794, 0.08972894661429591, 0.13557831836580908, 0.050703985817401855, 0.028263536427430583, 0.09834294739739328, -0.17427398936233612, -0.05366450550590715, -0.03852578263003235, 0.017508047329422464, -0.09911355988252346, -0.04809648819636788, -0.08722225324214629, -0.12258065779069803, -0.09072094483508064, -0.166593330671709, 0.01182106405123508, 0.09884850527684964, 0.04410794117639155, 0.01727547086961829, -0.02724208367268919, -0.03557102473226045, 0.09508711781900012, 0.03581366159419346, 0.189522240762338, -0.02808363494219798, -0.023344741216326764, 0.009578617149424666, 0.16377764194316746, -0.03540331205507246, 0.0758023503569739, 0.010796798809915511, -0.12235495172154574, 0.022851282831630668, 0.07096803555689353, 0.06320366365010995, -0.06706170488915054, -0.07751824650117967, -0.1480915976624719, -0.16215910621089794, -0.03463494275336406, -0.02676484913674479, 0.10084928546533814, -0.014185457596882996, -0.05490558101182223, -0.0986149843282788, -0.09446418543840258, 0.09542425024600262, 0.04631505984520429, 0.2207732507329441, 0.1313536728658374, 0.20430517645382215, 0.18271544660728323, 0.1320910637075669, 0.26014618358371344, 0.04081139677731952, 0.1189351350821598, 0.04999621855502354, 0.018592396006283155, 0.04697044549207126, -0.172045761287425, 0.03985014519712786, -0.059793028823825485, -0.25561127277556994, -0.15263874346698492, -0.07777054954885168, -0.008914282587613575, 0.009675518516546277, 0.00950696060149035, 0.0010254059161205276, -0.028277867042453834, 0.0007505990229798004, -0.10880308190491526, -0.013824425288918588, -0.16212592828298764, -0.08834738391732849, -0.2043998735135076, -0.23845706646649595, -0.21456144766928603, -0.14510425117687473, 0.030513093248862113, 0.0927192162986688, 0.08522470780348904, 0.07070659363287156, -0.06398278234281765, 0.008024189382284871, -0.018585487035102866, 0.0678513535465581, -0.10032898825101821, -0.06208364211989682, -0.06676862270448615, -0.1623965834810941, -0.1438149540326323, -0.11156897900249102, -0.06750675537383144, 0.03658063717264345, 0.0818125134512793, 0.12312312386721692, 0.04159342448721786, 0.19161690718736393, 0.11691086827133286, -0.04508941205648634, -0.09273244876604606, -0.09468610533555215, -0.0663398980315659, -0.18857388240492745, -0.5364737184809142, -0.5915722576915151, -0.5969068582794763, -0.3669575260626514, -0.142243090450779, -0.038215345295237624, 0.13310323860025883, 0.10754784853715867, -0.007196365831791442, -0.046820614559632226, -0.07301537656201985, 0.07975110474120269, -0.06908458015402615, -0.004229023247318566, -0.0013271428661849943, 0.07612278201081839, -0.20277422819193783, -0.20376541961151184, -0.14149874835112028, 0.08234664735738252, 0.12058069206371569, 0.09669030051269407, 0.1896650542344733, 0.045746009155016185, 0.04148480891655869, 0.01447567790743076, -0.08769492860209184, -0.14744198126876323, -0.5049988458705633, -0.6431558345302382, -0.6650547759336738, -0.43098775921546373, -0.26276850258052015, 0.09447008817163902, -0.014057132506123733, 0.07526469199846915, 0.08769635655995427, 0.007247142536741292, -0.03827024208645946, 0.12989366635713223, -0.025559905410870155, -0.15882152568306265, -0.05027327042248277, -0.025605309230877484, -0.15811710132455883, -0.16561055332409413, 0.012184160163909823, 0.024952131669831623, 0.007895629058804888, 0.21123904344536756, 0.19070658010689195, -0.02410033501227843, -0.08868324793315868, -0.016215438601971822, -0.1429191331100234, -0.14047767501220654, -0.2358613088518573, -0.20010425845922136, -0.10488478513087174, -0.16294275000180547, -0.25515577675670026, -0.13648011141711175, 0.01271530634115661, -0.08810649326122996, 0.05044766364981403, 0.06458872822722252, -0.029709382316962924, 0.05494913604643533, -0.11899662544840191, -0.03136351127546321, -0.07473193014737728, 0.015734989943494725, -0.014911901997204758, -0.09747746202677553, -0.009920030212479138, -0.009228841308432795, -0.08266195702593666, 0.10025799643972967, 0.12426673743558209, 0.12110867426730672, 0.042230828569740524, 0.05496427027919861, -0.07849803663227717, 0.012804881075628407, 0.03713850240984127, 0.0618719526054558, -0.02862168799774319, 0.07025575237052738, -0.2635177551936957, -0.1522896354739858, -0.09464905692471863, 0.00929256965229455, 0.0024289327222496654, 0.006003667046806745, -0.09340674106201557, 0.05812999693353299, 0.06648552933972852, 0.016865864401045857, 0.009077685899154557, 0.05948349859143274, -0.12206822669438912, 0.10748585066523342, 0.06179272694372879, -0.07241258610453856, -0.11277489074335152, 0.028020269142145317, 0.04654537093950649, -0.039075667739547376, 0.10438684021374015, -0.03272547678182233, -0.05474288430702248, -0.03761767688027643, 0.06811494101451661, 0.14933499819669904, -0.07084985019609978, -0.06175723604940333, 0.030887044808633902, -0.14925639178283767, -0.0015146767173724576, -0.04208044331834174, 0.042638288676452786, -0.015439166538496925, 0.0693635706114487, 0.07174978454571841, -0.13438894169323898, -0.023200332717358187, -0.04025976877073209, -0.09532968040590051, -0.05612063057544345, 0.014930748756159849, -0.13014081475497527, -0.12419302910401939, 0.06607454250568341, 0.07214165144144785, -0.01627014325754561, -0.09620409969046965, 0.13487969875374495, -0.14557842467119925, 0.042295962825091495, -0.0007486266300440999, 0.22425829428773597, 0.11512184984309567, -0.03551461978593935, 0.009468370343435286, -0.04435288169139909, 0.020477014205029398, -0.03569198801161664, 0.015531271825675012, -0.04374329984725311, 0.09329064121995782, -0.008642059264253779, -0.011177512763064277, -0.07302884866948971, -0.10387920517858533, -0.04552076343785583, -0.08466042635303338, 0.015203552806844796, -0.18803467461145687, -0.029877750605918574, -0.008857451325903164, -0.05467495314429725, 0.042595866215025625, 0.03194094241810468, 0.1010136660357999, 0.027654202335411507, -0.2229136046211578, 0.04034150322402175, 0.04547722771565736, 0.17138065992393675, 0.10025626292146929, -0.11825772395111409, -0.13709169253479947, 0.07132160118240712, -0.07772144709196452, -0.08313459247816116, -0.12040659817537068, -8.599434707559817e-127, 0.1008026104309541, -0.04656175638711116, -0.08516337043280985, 0.10704597454855802, 0.017526845667318564, -0.029543654103933035, 0.12613054846987087, 0.03290686670186168, -0.09776124346826019, 0.038292395572497355, -0.06396997618976247, -0.11445913186410044, -0.21748344288324734, -0.11795837327948262, -0.05836817741785176, -0.015152382038930549, -0.014233359100654739, 0.09282446204659602, 0.06649139530133498, 0.21428915593826003, 0.057396262225515866, -0.09905691140943375, -0.02540008910303696, 0.018596868541284763, -0.12209671778505107, 0.07927069455363102, -0.035046321419162765, -0.02288164323104911, -0.029969500173247395, 0.06180212886421021, 0.0025792549339645077, 0.10098363889602936, 0.11486742402972505, -0.004808046228893257, 0.033297934953024466, -0.045849111150181754, -0.053330461526825274, -0.029464135854120905, -0.12051511660191201, -0.12953536717346714, -0.10879746478767766, -0.06354431006640822, -0.06116370321399861, -0.0195385936139229, 0.1355121690336008, 0.2089436843541929, 0.1714061789160506, 0.13955904464081417, 0.0394040273274271, -0.13074567109648455, -0.10058016662672278, -0.20385503992219384, -0.14866770616351305, 0.07477838095925124, -0.04262633180651993, -0.005685766762098396, -0.0090458198517542, 0.06150355219564451, 0.04510539796918982, -0.005828137296796337, 0.06330146053546333, 0.06192721326120985, -0.10224450041054768, -0.006296234123063744, -0.03505322215753381, -0.010123771235410856, -0.10697887457583487, -0.12079676118904663, 0.024732422125583277, -0.009182378359621305, 0.06957737993105378, 0.22140461609291134, 0.041308408359807855, 0.18557728894510142, 0.052429853260572964, 0.10038678264428855, -0.021630535201989074, -0.08027873822799216, -0.022744331507465743, -0.019863508880985672, -0.04532208750594541, 0.03174511899957252, -0.020934872432409365, 1.1883236603621519e-113, -0.0455499493866431, 0.03902360782882776, 0.05953852179111563, 0.11392408958550566, -0.020796679825643857, 0.031299570422968666, -0.09082389139548759, 0.16277437000755543, 0.0321069905011376, -0.07402016685109161, 0.01417917473473581, -0.0850953070557934, 0.018667246363045165, 0.11631222228525759, 0.11425504996343959, 0.1406652821711243, 0.035093958140890266, -0.001884861389518503, 0.0773713090862433, -0.006596154671345226, 0.09632270170351376, 0.044016487550891076, 0.030594412688738772, 0.07481493224300233, -0.0327989242618483, 0.05858706703474316, -0.08041871438070249, -0.02995778053296299, 0.005419974054209499, -0.05673147763472655, -0.02831080900182782, 0.0034967346752979257, -0.08800387459590986, 0.07069216356444907, -0.006563018097000522, -0.01352295011948443, -0.03178970998475006, 0.0566509912316378, 0.0764675906023095, 0.20272554470734278, 0.049246605499277535, 0.12859496643022988, 0.16223119192663363, 0.039127473887723425, 0.020084671800634, 0.1182652143158652, -0.05644734314657713, 0.12037284924688686, -0.067362254622605, -0.270824527939442, 0.0871645083127349, 0.09445761631190594, -0.057498183527203775, 0.01796542653639079, 0.027103560643793684, 0.09285677991858018, 0.03181881919045773, 0.09253320103518352, -0.1421451971500744, 0.04613177327103339, -0.026775369495154636, -0.1781241514361262, -0.059227449480045075, -0.028287921647308863, -0.04036118011482227, 0.03802248918095462, 0.07273178959858131, 0.10821604770639943, -0.022462353783120653, -0.10222658753940275, 0.2853202671859632, 0.15130522505904107, 0.05214658026908988, 0.000602856221254896, 0.03160417904002509, -0.07029977369676525, -0.22119124318642808, -0.1827349741255013, 0.059179272065700325, 0.011567203019239754, -0.1131689983120294, 0.0474849494313123, 0.014205526625929553, -4.088707988873972e-123, -0.03113474176702306, 0.01604690700200562, -0.08398661752071616, 0.024321359157364456, 0.18926017724701139, 0.09228113027771621, -0.06502751797262148, -0.011115126881502041, 0.0886486955298096, 0.003926752338318591, 0.007413265679903569, 0.11258518358550983, -0.028218242059171103, 0.04112889132093785, 0.13492521497492124, -0.10810790267237669, 0.0354658101611261, -0.022871374008908662, -0.1283805832169001, -0.023414214162249848, -0.0282790918515904, -0.1093522025128339, -0.06253606500628978, 0.049376922646662366, -0.033460864054726466, 0.05590536060269949, 5.320866051602882e-115, 5.449894081126687e-115, 1.0584719249746381e-119, -0.024073524901873398, 0.042321389087925695, 0.05713898645678882, -0.004002987096837688, 0.048479522027090674, -0.04802773996704202, 0.16571676341095928, 0.18266220214113477, 0.03610621061236867, -0.09818745278530737, -0.04520756368941205, 0.008188578112034368, 0.08763907664634386, -0.012161485914709001, -0.05499922510462125, 0.031033174442204853, 0.09333764683743356, -0.08803519191984467, -0.07399885822763529, 0.059151636357617124, -0.06463837643306684, 0.0029272743055582867, 0.05508504328689628, 0.035976128170541764, -0.004891393660250876, 1.0493706818900762e-120, -8.702195689657314e-125, 1.8712907668675222e-125, 0.01137370475875051, 0.06720329807384365, 0.058632197810843445, 0.03608255427544037, 0.17885987001916895, 0.053394660921392244, 0.26450842594345925, 0.17120768431135872, 0.06990812640017958, 0.0758827832255829, 0.07162444655392135, 0.14037340146351035, 0.02385121913646109, -0.009114636673654378, -0.07967941990461609, -0.12653293544581712, 0.10000749007339768, -0.054886271740231335, -0.06974698213298565, 0.12759783204654168, 0.060176877580467095, 0.05509260100176975, 0.06842609930563281, -0.06782258425858023, -0.04949550700586418, -1.7365942884569362e-125, 3.953070878178504e-119, 3.093738928391902e-121, -2.6031060361326356e-124, 0.0032896811603452362, 0.014607819240107513, -0.1272120036070249, -0.020038578763679347, -0.13246948370228206, -0.10184344019854825, 0.06159597873286371, 0.12200071095040949, 0.06354982288594614, -0.014805138107838756, -0.10085459892601623, -0.16259969756188328, -0.02438091301078316, 0.10878357987428768, 0.006408877589007362, -0.17519107682652887, 0.047325684625862376, 0.1706597096572644, 0.0961123411212781, 0.026014660289041328, 0.028690345702874955, -0.006823088630957154, 0.025046409940760093, 9.122956244339088e-120, -1.5912696391954443e-115, -9.103874626325343e-121, 4.5785462251498595e-124, -9.014393248966846e-116, 1.6680242258478568e-114, 0.0008923662746220125, 0.03851690952252387, -0.0077298330286500365, 0.03548914701269196, 0.020531547583644005, -0.09317548715845966, 0.10406617669877749, 0.10613516632373038, -0.07942438427547774, -0.021225303153882852, 0.15566698733162498, 0.2204298435463747, 0.011653501835009628, 0.0596371725679807, 0.04683544080980543, 0.09826692652836048, 0.05336983641983493, -0.1179479053398852, 0.0018973404897896357, -0.017974481934572777, -1.407907082814183e-118, -1.6452772313157698e-125, -2.492039118531654e-124, -8.188406016411214e-121], [-3.4666440264431554e-116, -3.634580535150322e-114, 1.4336408061641123e-118, 2.352316330277682e-123, 1.649372085947895e-125, -3.482371110312194e-117, 8.455406948095538e-127, -9.712651962289858e-116, -7.937580053036958e-114, -1.7574665384113926e-113, -8.065646231842639e-114, -3.405441274289768e-120, -0.15743336990938903, -0.17775228639069027, -0.05235949468779879, -0.0978354399322052, -1.992293427689883e-118, 1.3485641048986121e-125, -1.589110050347911e-127, -7.575024025581548e-123, -4.413176586526533e-127, 7.475198146244639e-115, -2.4720250677089548e-126, -3.3278417578080596e-121, -1.2316508312576623e-127, 7.360039778225136e-115, 7.317903742397152e-116, 2.2550628526392307e-114, 1.8494079742193035e-113, -3.780375742222507e-123, 2.4708678923153598e-124, 1.2668940905776121e-120, -0.165625333889727, -0.07536672086120848, -0.10128741622022666, -0.012310527480312668, -0.14110880025498235, -0.14377868297608148, -0.12711638620234805, -0.10708070023199716, -0.1772164386024151, -0.016794260440496846, -0.15901453065284232, -0.16824283968797946, -0.09378681059313951, -0.1238771691464772, -0.19508766648216114, -0.09181173999281027, -0.13835199749683239, -0.07253371899231649, -0.050841423022832455, -0.15435069583684535, 7.370501145192753e-127, -1.5343005599641469e-117, 1.7473692759502333e-113, 2.0885328333371665e-127, 3.5599166151367656e-116, -3.0198950564406055e-120, -0.14757639868197672, -0.06059165250116446, -0.19072026977359446, -0.11518012654231173, 0.06542060879631031, 0.09586157129498836, 0.03929954875554536, -0.06228223451629625, -0.1007140103913388, -0.08990543760366414, -0.12399242913321828, -0.06505478128511087, -0.1521238212171149, -0.30102831287443643, -0.035840326022965226, -0.16053933502033052, -0.09054238153482921, 0.05601213912193001, 0.09656461425609224, 0.057638632081958074, -0.13234424284046759, -0.010407891076373074, -0.11623483176974066, -0.1416478772812442, 1.3848746771561242e-125, 1.0341211793155097e-124, -2.0581144317186626e-121, 9.124083217249723e-121, -0.11127892346353926, -0.025080885243397855, 0.06109393770380694, 0.011283200930286114, -0.024112004327027665, -0.09035606392314541, -0.1611607907364927, -0.15426117924654734, -0.01599570264049658, -0.1655635757876195, -0.08163224840122373, 0.03801385749463412, 0.04355020419030214, 0.038616633334142406, 0.12117906508693346, 0.07728096849984911, 0.06863136228623043, 0.03825757059277656, 0.12081056151901658, 0.04106866671089371, 0.03777483349057724, 0.04734848641205302, -0.0027568635398605465, 0.04027936261273891, -0.07938567672338469, 7.962051870803945e-118, 1.0969542007130466e-116, -0.13608660653808105, 0.0342739378477369, -0.005030614658239922, -0.11056578454427911, -0.15311759042524642, -0.16003790271375726, 0.011770458586968492, -0.019549566304680292, -0.031319008696258435, -0.18525938471075032, 0.012537507669209606, -0.14550338284983702, 0.05325262489657643, 0.14806790061225392, 0.12901841568003197, 0.03258049767530172, 0.05007630460775657, 0.11709937715956555, 0.1654198740542689, -0.028724924320572318, -0.029593432239600773, 0.009714296053635777, -0.06072418276041808, 0.002613973819025976, -0.12186349580715707, 0.04730347688262435, -0.09086122900612013, 2.9449510947928254e-128, 0.043435721535086014, 0.026097379971177264, -0.04139938342905651, -0.06257029477548312, -0.08655629310752658, -0.013313962644151484, -0.026164818611537997, 0.12563161576416979, 0.21757534446323099, 0.026384915093243793, -0.0056726408412843335, 0.024904201264613623, -0.011604133054319706, 0.022733851648819157, 0.0014611732818516434, 0.09368396427892835, 0.07254856921624817, 0.08833864628537705, 0.09616413112897801, -0.13936247482975636, 0.05725023391751028, -0.05544802499903467, 0.0050974626412069, -0.049270238113264926, 0.10302980000232648, -0.005994701615049316, -0.19653995781528352, 1.755536992837613e-117, -0.16115099816176578, 0.04261606588275791, -0.08153646310330775, -0.028097475743979236, 0.11212607068218877, 0.07548073793152955, -0.03742703320580588, 0.13983842324215826, 0.0008231399698235555, -0.016549980647212623, 0.01935637792756687, 0.17044745619038965, 0.09128420383143505, -0.06972381195005323, -0.08302608055907948, 0.012180796422191928, -0.04494536484547304, -0.026004453478301836, -0.014793228596477496, -0.0981535022472404, 0.15903530748130737, 0.09731708664227043, -0.04366722205076846, -0.01953933399524561, 0.020842230773296673, -0.036827959207844846, -0.2022590514379247, -0.14315906767212733, 0.039746205232008565, -0.05916402896015006, 0.03813561360405543, 0.21425041616967327, 0.006850910203748442, 0.0633551804014781, 0.06519794573605164, -0.015857929177266437, 0.1733834237792181, 0.024727676020608665, 0.10468746613333671, 0.1505131485611766, 0.050486453770364696, -0.0002144798252416074, 0.0015207859552050355, -0.02290401713841548, 0.029379906803452205, 0.10711525359047105, 0.050509710591677054, 0.05387099158666401, 0.11298651615671468, 0.09945161653476915, 0.12473745601020457, 0.08138866827195625, 0.13216523331986346, -0.08505337014320681, -0.12910760821386272, 0.1017551525098511, 0.004816704864125864, 0.04721325447540572, -0.0018756630497500466, 0.08112449963032071, 0.051773915748372853, -0.09873406567501197, 0.049517191377434114, 0.10649305285440099, 0.10267173467830312, 0.05243287228320918, 0.011184408369820592, 0.13693952866701972, -0.013157240766115604, 0.15424844036102475, 0.13944145949759407, 0.21020067472991374, 0.11670657310470997, 0.13227420483606864, 0.04031543770872715, 0.22753112043541207, 0.1105351111671461, 0.17825528377532515, 0.10428800747430228, -0.03745766388118014, 0.035669781026554215, 0.12483862943097725, -0.17000472835041608, -0.18369744275672678, -0.08092951863173396, -0.07773702408504868, -0.05981506597003942, 0.023841584827406472, 0.05481455704648489, -0.035530489564097094, 0.07107272163913744, -0.03803906809969588, 0.08600081718630655, 0.06252640987931707, -0.004731501837962118, 0.10760638061188516, -0.04925694481281047, 0.15697517940509428, 0.07483583306910208, 0.06099604109298484, 0.11998002062260892, 0.2677954692252864, 0.24083687121538125, 0.1393610920479264, 0.08104849314012257, 0.04597279644122014, -0.020376597359263005, 0.17134621064836283, 0.1348428514935123, -0.009424141204347014, 0.05808447336046364, -0.15283594752465957, -0.015414387048286333, 0.05228768767490457, -0.07672076835876503, 0.04102253782799041, 0.09639929271785196, 0.01915185814562014, 0.010487304743814043, -0.06446809373121846, -0.048107655075849395, 0.09234454193548493, 0.07636257320160537, 0.06512054915245315, 0.18846066111914153, 0.06176705938058217, 0.10694556178582951, 0.07169168361412766, 0.13994661750239987, 0.23219014237351707, 0.18405858971016253, 0.2294034696307599, 0.18212057828091807, 0.011828788306920279, -0.03746445136486766, 0.027778904395714118, 0.022713831970285567, 0.051770113558290594, -0.013078616838410936, -0.04536800305218493, 0.10381741213509461, 0.07847611553957397, 0.1416943721567828, -0.021342265691165294, -0.10472142456850965, -0.05124696815101601, -0.01684973277830979, -0.0006310258426740379, -0.022407034031214024, -0.05535387249972483, -0.0036004935311952026, 0.1268267719592981, -0.14365618920404882, -0.3782526698937127, -0.26463786839778614, -0.11757295282224565, -0.12512494169717117, -0.02559733851889021, 0.008330815090337047, 0.049031431879250666, -0.01630021864258267, 0.07862280299320522, -0.048909949236799595, -0.17454062153141753, -0.0036351125626008013, 0.08863263947228647, -0.15372203674129759, 0.022064707965807267, -0.026445459192886826, -0.025634053768485265, -0.06481600142604056, 0.02168054424287067, -0.06903350846174545, -0.05824884358907461, 0.0481730047575589, -0.05275967266712425, 0.0031594117047868907, 0.028544350890283253, -0.0619368166248306, 0.026145675846118634, -0.22222166514253588, -0.48027279454341, -0.21062427799261105, 0.0033998641309576226, -0.0684343507856891, -0.10288357823260272, -0.25554345714037596, -0.1264014224337677, -0.12016701325366935, 0.013159916703487443, -0.09928404162242441, 0.12296245035129677, -0.10176378853101388, -0.10569475799438313, -0.16711710579858266, -0.12599817210431782, 0.005613165122861017, 0.01996446994114494, 0.053865877316679876, -0.0021353228084944917, -0.08408853063247852, -0.0027253651988623463, 0.007203397940521604, 0.09740182121949215, 0.03950783747514959, 0.17330157084923142, 0.02956708787142946, -0.17771592271483874, -0.3403974582808094, -0.2557348628154013, -0.25976003158745087, -0.203735544063758, -0.21480480423026116, -0.15163161244438056, -0.21656601238993942, -0.114723096570132, -0.04941461871131316, -0.1235180088096133, -0.1463947253224838, 0.08901200678093266, 0.03889957581133243, -0.09318969140312414, -0.12287703886746787, -0.18556257400077858, -0.03580584628152163, 0.08205005994847264, 0.027399334299861584, -0.0743717804759035, -0.05367543403524085, 0.01096963988783293, 0.13854783601320234, -0.00401063533564863, -0.0332454739707785, -0.03105329493905238, -0.1062478148449207, -0.22747186597737687, -0.3923765059924488, -0.09552991638436717, -0.1047520837404019, -0.24205850308486232, -0.21710070210619642, -0.11778492989693962, -0.19096369699075993, -0.16165667795188518, -0.061867836697720745, 0.03131034475880912, 0.04246768867974707, -0.03197195046290715, -0.015802221553099252, 0.05719725010100673, -0.08195622666493704, -0.16685477386001865, -0.09948557384935329, 0.04986215330413187, -0.06151400087402313, -0.09256896229789516, -0.023998307614069625, -0.05262034456096687, 0.05457888391791253, -0.1185000037550163, -0.09117265108147923, -0.05681782122177417, -0.15996448057229992, -0.1463864870112168, -0.39046510689246927, -0.25614241854970643, -0.11167283871700544, -0.12772430801299803, -0.20080163271272417, -0.1402448436476294, -0.22781366103245673, -0.09681120156419035, 0.0773077245419212, 0.025859227082432677, 0.016807433262481998, 0.05420725790944558, -0.04220123976782728, 0.18670555741992162, -0.028858459646763007, -0.17552796152045091, 0.06020790710198645, -0.06341327187556921, -0.0039281572120884135, 0.013942902950824695, -0.026944569496662765, 0.03803315160160625, 0.06538524269806122, -0.0032434991179182055, -0.04105944263469334, -0.18813022183082517, -0.06726581669020311, -0.28384853673574817, -0.2528889253480806, -0.09629559631014457, -0.01656435168121067, -0.01891745774439337, -0.017110258281904437, -0.17768857957442227, -0.054670486893244885, -0.13757707810022113, 0.09108507408176425, -0.07329156562062256, 0.07633179567223781, -0.04681514841124094, 0.013582875157358917, -0.02176613960341866, -0.15185008863440397, -2.1179157487654892e-117, 0.037945739829045866, -0.002023324104216118, -0.03772654676212562, 0.1320685915815406, -0.039772242685926044, 0.020286013713821043, -0.038462781476961486, -0.04811231624125649, -0.1498769861136093, -0.06112373028114094, -0.05485541750323685, -0.28371448793095877, -0.15558975266184757, -0.10840405731463008, -0.053429045733927816, 0.049199521842200535, -0.06600962514767925, 0.10293155924651828, 0.02561164667695995, 0.04042964012536678, 0.023614133852106988, -0.033812301795594565, 0.09767934722228534, 0.03590426958283507, -0.15993710238861436, -0.17052080166552666, -0.09235929761538658, 0.00830470323068693, -0.017464547787642202, 0.09004998934076483, -0.214736076009429, -0.08073868789375119, -0.09816331452862583, -0.025253064502038913, -0.10016485037875456, -0.15490386712865292, -0.14909482849586855, -0.026790640465607158, -0.1683437591546111, -0.10141221142107963, -0.09377440898078572, -0.0984107543794492, -0.1349669281063249, -0.17538750053099425, -0.023354079560408754, -0.01707594531139337, 0.0248156446325941, 0.03861511008819052, 0.012021097393798627, 0.0516419307169146, -0.08894569752207511, -0.05838993809997311, -0.08748679252540553, -0.148842996328168, 0.006809476939683692, -0.13371626790232138, -0.034951384744500005, -0.1424562901828351, -0.10875015532110906, 0.18068156370393476, 0.04377801851963779, 0.06242169071308837, -0.04079800224418103, -0.12916861484754963, -0.09966506849591424, -0.2317432196704942, -0.12418074406464573, -0.0305264279077765, 0.06866501380596389, -0.010386318735437184, 0.0297585721105069, -0.020635973789375418, 0.029516543302877892, -0.021638376025132293, 0.0018920853996040308, -0.0017319919828628573, -0.05753061400408216, -0.17605524457883878, 0.00821682837636448, -0.1259806453444108, -0.08715639460675637, -0.07810028565283497, 0.014942427258211467, -2.70979020194949e-115, -0.10911660783408798, -0.056012557614326546, -0.09035997242305067, -0.025179800297486482, 0.030808538732273093, -0.023430618421654587, 0.036670759320817606, 0.014391236693512572, -0.0015347086305217467, 0.16754099183583343, 0.15199104392302432, 0.2163588847926393, 0.16468111223797977, 0.08816696716385149, 0.0837600377671671, -0.00589750828882432, -0.09757323854304081, -0.06982321973519694, -0.03081531485518787, 0.0679160583622107, 0.035440775509631546, -0.003519963741339547, -0.11563683571839117, -0.06998679092037463, 0.02740712419701878, -0.02690117952689661, -0.04144730895838477, 0.04247853658839944, 0.11719616316390143, 0.07711666679381768, 0.045223826678329, -0.10156034258144701, -0.11422083829951467, 0.09966486322782858, -0.05864608348578414, -0.004351650782705419, 0.04590982030455489, 0.028073124926614144, 0.2151650838666595, 0.19883401416897836, 0.11177361666516153, 0.013915731846839403, 0.09052695343367542, 0.0559455542642462, 0.057029780382974404, -0.0595983035959565, 0.07194775208791673, -0.0008700956844269536, 0.12774163984009088, -0.04564082917045198, 0.09241730982853569, 0.07944203251726559, 0.09615919095213009, 0.03499514097701691, -0.15924989735038447, 0.0533310644769197, -0.00030987797351725977, -0.041357760103213737, -0.08325317572464991, -0.07420862723046052, 0.05268971180505726, 0.07231892817609184, 0.03585903058501735, 0.19809182912300677, 0.1744439828766242, 0.18937681492640068, 0.1315409930663528, 0.05653019883276595, 0.15910256608259632, 0.09122076922263567, 0.10006396315078293, 0.10268530521326398, 0.20630502269478326, 0.056555091428102854, -0.02551564779373438, -0.040299576756683046, -0.046570974273917175, 0.15419504831618744, 0.01683634755553577, 