weights = [[[1.718359258788821e-125, 5.352691656835491e-118, -5.981172718220442e-126, 6.872192727514316e-122, -1.64319177998815e-116, 7.357757788869089e-117, -2.5306859728395336e-120, 6.3509356256817e-121, 2.4963554141764615e-126, -5.061560824904401e-119, 1.083457284587331e-121, 5.56813996720011e-117, -0.044733315826406314, 0.07138973985590737, 0.0782794975074838, 0.09028033667838985, 1.792212656138361e-128, -7.122717776858756e-115, 7.288895118796694e-124, -1.106392134437505e-118, 1.0185964871778448e-118, -2.6477611382547744e-123, -5.034351332250756e-119, -7.467908727265815e-115, 2.764207270337301e-126, -1.0403406299105053e-120, 1.374403834679118e-115, -1.1018801344974543e-119, 1.4061623974554275e-127, 1.9284887475232276e-120, -1.6781583397281288e-126, -4.8221724182501905e-123, 0.019500238346360492, 0.026674336387622385, 0.12045596740893666, 0.03950927601080809, 0.07439853521001825, 0.12300041500547405, 0.11105884626390772, 0.15497991343617998, 0.04343070311165017, 0.008451869486807137, 0.016657795132763286, 0.027521540240186607, 0.08225166051362584, 0.0008608706514846763, 0.05208076293782294, -0.032328349908395795, -0.009567912479530474, -0.000683928161037325, 0.03588221240025074, 0.03537256514622789, -2.8054809990113787e-120, -1.5712040768312306e-119, 2.6160119491561765e-121, 3.402728175840336e-117, -1.6188546420388234e-115, 1.9236475896850427e-124, 0.06641593168862925, 0.027708487220609843, -0.03808247285940734, -0.04771950302679152, 0.0997096799940716, 0.012300189369226926, 0.039077477810300194, -0.0446413515796236, 0.11769600906610031, 0.05181495371475874, -0.05529588716210715, -0.002472529169550334, 0.021913491451790695, 0.08024811852527886, 0.07122935337011863, 0.17272219281681866, 0.21408856366177303, 0.17847565613732896, 0.02267712394555068, 0.10907897437963913, 0.037165765178919445, 0.0456868720958468, 0.09443811789195836, 0.02985537505387772, -2.582181988064221e-121, 8.796553700146387e-127, -9.202144384336723e-125, -4.759071254472596e-123, -0.08615545911131096, 0.006212736694240674, 0.005072789937227223, 0.0364938165855177, -0.039549040139709515, 0.013435490766974595, -0.02802730618723184, -0.03067014469105056, 0.06091970558426617, 0.06992112720989216, 0.016935162628421055, -0.04611960738524131, -0.0165242401162588, -0.07302127218317021, -0.03475825534438184, 0.08914899080253146, 0.03343860201753874, -0.12523696468263762, 0.0890617344456426, 0.05434924224119682, 0.00769539932784079, 0.03325538838544562, 0.09231276464151, 7.95139168108201e-06, 0.02910721928105544, 6.426587760093643e-117, 4.222124324955341e-118, 0.006953158847783545, 0.032329718399061326, -0.017306009760915887, -0.05785589994012573, 0.09042980373265808, -0.11995518398177646, -0.11757781955284743, -0.07700200671679286, -0.17123226563859387, -0.046241495987105016, -0.05852868659739165, -0.2110213976540472, -0.13564057006553673, -0.133799775216942, 0.08197458548237924, -0.07725518699731826, 0.045410033741045526, 0.09666234768244461, 0.11239521775161113, 0.0843636419310122, 0.05247215396053713, 0.001050923667632968, 0.0838154377474873, -0.01503355792213817, 0.06920290669490736, 0.012898520853377934, 0.07897141437262753, 5.875284069511495e-124, 0.044587069081651436, 0.008417474266953065, -0.04903023917361535, -0.07673745675411367, -0.07669051170145848, -0.024291933423423742, -0.14460485099406153, -0.09545545651155164, -0.10682463076762638, -0.047719738278823656, -0.07250169098191687, -0.2274508113306219, -0.04498848653093782, -0.06030115010844043, 0.015555492353489062, -0.10407787603035136, 0.03630742840953154, -0.0812705839132061, 0.06540158318187787, 0.14243802715629494, 0.008168292406141605, 0.04027704116466655, 0.0006338808914194032, 0.018173113444681414, -0.043584363466779893, -0.07619490395690907, 0.011301323721898172, -1.0149134038311193e-114, 0.04140621830071325, -0.059250764987931547, -0.0032036535259419166, -0.037327022793928154, 0.06777417463233981, -0.022122283156852815, -0.012611903452108405, -0.17441890443331337, -0.15982719900602785, -0.09635943544244556, -0.14726795694204864, 0.08417725142084292, -0.011031606504048722, -0.006829324587475372, 0.024259158493155637, -0.1687982324983564, -0.03933437996122107, 0.017202640113479314, 0.12460958554841892, 0.12334048938409586, 0.02341811170893514, 0.10085929935316199, -0.09711052088773467, 0.06296067841909528, 0.005436348825691257, 0.03513807874604642, -0.004062318741889441, 0.024186095878630475, -0.0024432278866041543, -0.0409923722516873, 0.032903250548938355, -0.01228486069542567, -0.042469578967466295, -0.09242852021031414, -0.033230605548561276, -0.13190528065781423, -0.09399495627623945, -0.038453764516060356, 0.03709526222416514, 0.0057017404768128065, 0.15380391629801468, -0.04253971491855391, -0.14394064184984195, 0.001835446824402586, 0.027246828482557855, 0.1785676029066929, 0.10918291935905863, 0.034121219524076325, 0.057932537722494674, 0.2030824567463459, 0.08765452068780455, 0.051811920222777585, -0.0008429086808202013, -0.039171975492325976, -0.0034338548250193945, 0.023747522807268478, 0.04577342121637697, 0.00911586063293625, -0.007042234557891874, 0.06960162292027626, 0.010210274999383671, -0.02522078395102724, -0.035952159023693, -0.09121915033367717, -0.056177255236624396, -0.14486690053643683, -0.08159551577150895, 0.18508289627334384, 0.11531157385682049, 0.0724595902226622, 0.03671727072996815, 0.10992042266388762, 0.03830134943682187, 0.09397196861167666, -0.0022413321107604047, 0.14599416661710632, 0.03258891281672299, 0.13003299744714003, 0.11761276296856685, 0.1778333620881442, 0.11289909846694772, 0.024106169720010666, 0.05731692823349699, 0.031123858431432522, 0.04600171696171064, 0.0861060731254349, 0.012853048663274297, 0.11253068063921771, 0.08944630352333698, 0.08151043508325896, -0.04761595874705893, -0.13417068739472587, -0.1680669580666128, -0.015927941427631032, 0.07151025509834642, 0.157345165465788, 0.08243568554345754, 0.20134819878418125, 0.09494825635752581, -0.008607717971720422, 0.014391381683022952, 0.07701544307349248, 0.02223947606322228, 0.10765659116846206, -2.4744871338575764e-06, -0.011081179983202885, 0.05752733737254148, 0.11169900423293402, 0.07139052023769046, 0.0015221308578240516, -0.07874227681526015, -0.0625505620621783, -0.029342996618544916, -0.010698760386126056, -0.017601004282806247, 0.04638639028877733, 0.14987089271606752, 0.06751029732660421, -0.10375494108883404, -0.08333347118825758, 0.012030181426586694, 0.011546016387755934, 0.02162377520497482, 0.06493512634300123, 0.13517717013970132, 0.12476486376722894, 0.08845903895540498, -0.0041492073343228734, -0.01993739211579879, -0.020577889179262895, -0.02522368336575963, 0.05988898626992748, 0.07096775943451498, 0.09693290157244468, 0.05535754513468415, -0.052737031112180595, 0.037329301507425236, 0.07125356659404644, 0.03861316835619037, 0.04058185448696098, -0.05613585114503191, -0.09698225643942422, -0.07059789969623324, 0.16079774875746405, -0.04261304070086725, 0.08804886877698595, 0.10277976236203913, 0.15261570236262548, -0.005764874734898806, -0.058668018882285906, 0.13250158870443338, 0.0959822718309848, 0.054467080162340614, 0.0037129391120942585, -0.06129442981291967, -0.17114210022934578, -0.24268950497487313, -0.1435658336103055, -0.05995915374828455, 0.00022645673183508967, -0.15825371914244496, -0.16308613268499475, -0.07837840637326932, -0.04558416224855497, -0.07340522998563437, -0.014715236992759867, -0.019076330943666477, 0.0009268001348865947, -0.05670355931520637, -0.03170989692815663, 0.0891961861881832, 0.03692579537105088, 0.0013311709104404188, 0.03972816119778427, 0.0962444650030477, 0.1254824764274859, 0.08797250797803138, -0.08133201608471836, 0.05830310563468872, 0.011593117857045719, 0.05092137409582241, -0.09398553675631253, -0.09170856791707188, -0.26874108786350603, -0.31256771291187324, -0.1580062201976458, -0.0832283160986729, -0.0890905293226045, -0.06977250213487264, -0.09682179237122797, -0.08734406304218954, 0.07996245850433917, 0.05304075772807813, -0.0944209629952103, 0.011912870164227372, 0.008249546493005296, 0.01162539061845527, -0.009954551987266283, 0.020683513900164274, -0.07742661283441542, 0.010351993660177555, 0.10689151940694487, 0.09812389670792934, -0.08816972217643718, -0.021429910699209957, 0.03812890311719934, -0.04204480467693608, 0.06574981027093264, -0.057927466261954184, -0.014872291277404007, -0.024693871180371616, -0.23445131059440602, -0.13284738737361332, -0.08090739588651952, -0.12878222167931114, -0.1660844221105122, -0.14186254417496388, 0.08202990064613463, 0.08926956982396485, 0.027377284889650008, -0.033385785342677624, -0.11459959195790667, 0.08042575744713977, -0.020923208513274647, 0.040201487165755403, 0.04599592274407219, -0.03066701855767927, 0.0010400022487846781, 0.029512334450788064, -0.0738853568575191, 0.02730422796899923, -0.10826411741961431, -0.0233441724996001, 0.05356686224984623, -0.05813870671906158, -0.01930332852865692, -0.16932395257474506, -0.149447441112215, -0.06402992811779942, -0.21252071216668203, 0.08745567378103893, -0.04348585812860992, 0.012735695142692318, 0.0007680344578633836, 0.03928901827470098, 0.029285323688704474, 0.06425530439476539, -0.035483569269287446, -0.0426976137955557, -0.021649327128890786, 0.06877893871940849, -0.01837535156324155, -0.06990442386743412, -0.0635638055634053, -0.0367990479739152, 0.07027205670449638, 0.06476252799026412, -0.09497186004712423, 0.03567163726751521, -0.037815552215226235, -0.052820988458599, -0.050384348123584416, 0.008504884089740568, 0.035843696662410114, 0.022195729444583243, -0.05448556677112039, -0.02329144460373382, -0.06507031339549114, 0.21999187507027188, 0.12901129967983208, -0.011501342042475118, -0.09645336358172923, 0.10864669936457366, 0.006636906384356382, 0.046307030443972476, 0.11197127900832446, -0.02827709116422071, 0.11875885258926869, 0.024835849165619768, 0.026930810766857324, -0.012013431818399077, -0.0591903214670288, -0.07502464283578934, -0.015566483466690182, -0.014222331591922644, -0.03029277018720987, 0.07696725840701765, 0.10930062644380407, 0.06551478057661042, -0.02055490556152656, -0.005626398351916428, 0.18872101766096516, -0.05606556599803275, 0.09028719848219423, -0.01304996102932319, 0.011127716202012531, 0.14827341418839665, 0.11357462150037058, -0.004104132282585726, -0.21695436786142897, 0.03490744353168842, 0.031166187581966067, 0.008471551333240375, 0.09154753838778343, 0.10447506950045705, 0.08656921335170358, 0.06537064981197675, 3.241390213266897e-126, -0.016483866567762708, 0.04183065485406338, 0.03331771110172046, -0.05971426819643531, -0.06421221383067877, -0.004928815247242626, 0.08360035160248003, 0.08398473200827017, 0.05888368868604785, 0.011725050561318989, -0.03867504463207322, -0.08004668140624831, -0.10070292670424869, 0.014488616663797532, 0.16296211687693296, 0.049364753646027056, 0.06526103014706548, 0.006403067929518191, -0.04452705081011293, -0.09756005601063143, -0.0033194199085889203, 0.0880177606418452, 0.13976563066308528, 0.05809331078123304, 0.024114042785496913, 0.030917477295020448, -0.009582168857986326, 0.05282445910248048, 0.02470692532351081, 0.03838707556685337, 0.0737491317615476, -0.05837101565670729, 0.05219356865160113, 0.04263921303359327, 0.1851145065522712, 0.12131318394588436, -0.044977684456623215, -0.10598135719967006, -0.219303221338139, -0.05935919409208744, -0.1624341344546915, 0.02632051239587395, 0.09887040366532401, 0.21391313439200924, 0.06659664063489716, 0.02576857092360537, -0.125271621560759, -0.13604616575395925, -0.10020570427545196, 0.02286572874653604, 0.06657755655849636, -0.008330104036814213, -0.09173162458454194, -0.013997826384405238, 0.009152480654274733, 0.00365010644951575, 0.014866650667249263, 0.11091279137990961, -0.07728173331157925, -0.060374520157598775, 0.041197495704949696, 0.11876067804678662, 0.054034725257430964, 0.10652745468240007, -0.06498304798948505, -0.09901878089581824, -0.0947305882703435, 0.018606797446216065, -0.024587274667160115, -0.028332332879723882, 0.12326544427395493, 0.13010240185733354, -0.03158861144284102, -0.043009379983152615, -0.2354443103885305, -0.1414346382475937, -0.03591021267681179, 0.1692281090706862, 0.04090469952210023, -0.03748396039281616, -0.1014444729447252, -0.08872421196909394, -0.03392815820342156, 1.690716685968342e-123, 0.008847105913562145, 0.05676289868092535, 0.006506573012114852, -0.02564092491693074, 0.09987448947525483, 0.11903849000733009, 0.0990031441282666, 0.1840584451725767, 0.05968709837926098, 0.0902819346137521, 0.0897830229335608, 0.08462075955119203, 0.07817256737980306, -0.1031478518096292, -0.011905524830943178, -0.06280479913477593, -0.06820390745835306, -0.07858446723889548, -0.045764511550922385, -0.12816915742228757, -0.052297756929253425, 0.07099893012180178, -0.02663595984055149, -0.00720097033305187, -0.12868930061154712, -0.061531040226598596, 0.029879368398413302, -0.010925675374530189, 0.011445646399885559, 0.014658559411861857, 0.08296953234764474, 0.10158877518043993, 0.01892400793224865, -0.021371063788497964, 0.07699846938089394, 0.0061916728847575585, 0.06839216265091887, 0.020678484409889588, 0.00476133139503208, 0.09016152573482575, 0.13421727059445482, -0.06077595351059873, -0.04984694721585075, -0.04976757085152137, 0.057676312119561327, -0.19681792099291093, -0.0668069222643008, -0.07736514198189193, -0.0775973652928886, 0.009266588135038856, -0.05346307310353452, -0.1307397965488505, -0.006425144126769735, -0.045455826543742237, 0.04998968102038654, 0.03719906558475337, 0.003790073294228524, 0.008240775477716997, 0.12346810992009176, -0.011974493651207061, -0.07557726071790115, 0.10816339302287387, 0.005315685020134833, -0.04050283572790517, -0.03340656042456081, 0.14806531723267688, -0.007458619154532146, 0.05317264420871694, 0.046986851638424317, 0.011081187341493095, -0.04534279655254403, 0.0008917379686243861, 0.07839647831217382, -0.0731777707833482, 0.0006724518008703196, 0.01295152133218886, -0.05662229905185923, 0.10793629913343555, 0.046056948749794546, -0.08301448790598068, -0.09864819612126273, -0.020575528394738547, 0.0436794204858755, 1.486500455606385e-125, 0.04525623316579433, -0.0044167325803785035, 0.003695967622870799, 0.09592648772001985, -0.06939669636275622, 0.19731431903369448, 0.16241504670087523, 0.10753616963693165, 0.022650721097135694, 0.04410575324820312, 0.055579007100040385, 0.13261768228070103, 0.08476610717514345, 0.059326853882248794, -0.03725114882480032, -0.06955235562690132, -0.15275875725861507, -0.08138018436730005, -0.09074762716877129, 0.043401287919841096, -0.01101218399534158, 0.09561985851060513, -0.006812044062160761, -0.11769587381698944, 0.04250182401576722, -0.07577034738847437, -4.360196852066068e-124, 3.9087675798337753e-118, -2.0260565478313906e-117, 0.022948530216334504, -0.0543908980825305, -0.012464557458645604, 0.012025027559823903, 0.06060289257384895, 0.1579580394977839, 0.040113875860091505, -0.01852768469147327, 0.003435313841812341, 0.06860710794728621, 0.014027267133333356, -0.047622974863876066, -0.1308086566359836, 0.015037993201434776, 0.06646855504084788, 0.057427683078665616, -0.030164516198014205, 0.07361335665877003, -0.015300938254468892, -0.04352689977954262, -0.09828755471880773, 0.06405961354038567, -0.1330060368317141, 0.011650859124759478, 0.0031215185390541947, 8.812922070816881e-126, -8.606790188670193e-122, -9.303971943909326e-121, 0.016003968834440583, 0.018473581379641724, 0.001438236539607211, -0.023756753382279082, -0.012730376625485191, -0.0039471909935388525, -0.16079817187089768, 0.07466896652305527, 0.12049212721492918, 0.16365163453383708, 0.05074104349504579, 0.009988911064153715, -0.08167775890932158, 0.03105571953416685, 0.021582137378358655, 0.12663497763587703, 0.10013265182662717, 0.16601880180369635, 0.12848090212042926, 0.09524787952052637, 0.0016388729669003844, 0.03238096112063616, 0.015264010079141218, 0.008253816849814995, 0.0026852032753487366, 6.869342007510948e-124, 5.175852121477398e-118, 2.312098653231584e-120, -2.015731156148913e-127, 0.06815846201357159, -0.05469880873912278, 0.0021778980429898467, -0.12109740691596885, 0.05925234921025055, -0.06766607944078136, 0.019344667924492714, -0.0006364754684033419, 0.14162187128629192, 0.2132848883982843, 0.14524383824326909, -0.04977725510573775, 0.09921180236119588, -0.0054755438648665285, -0.12101725915275961, -0.06286359213820181, -0.12233558125407179, -0.03688259043216213, 0.03280593654978061, -0.028131391814418323, 0.05939816818847722, 0.007162963445862385, 0.032147998571364855, 2.326305137136481e-114, -7.848840622951873e-119, 1.278137314199453e-122, -4.164238697286537e-126, 3.528734267141213e-122, -2.1704408015465406e-127, 0.08703652011738165, 0.07349697834033303, 0.01709594351797168, -0.013676718581245475, 0.011697718773427264, 0.08971775520484915, -0.056532476667820214, 0.07299715590116364, 0.12088144944025796, 0.02837125591322104, 0.12683026467171526, -0.015296912178412303, -0.0735577234996024, -0.03952319709799749, 0.043175032391424645, -0.002845087033045942, 0.07421328162617537, 0.018306151137799986, -0.047069172843994846, 0.018980164035975796, 1.3297393094793916e-123, 3.6323711189159675e-117, 1.6242597959907088e-120, 6.516698232394128e-124], [-2.8611371006761545e-122, 3.0434313307587973e-122, 1.2299052526795653e-124, -7.392815427439167e-122, -2.5279326588816705e-121, -3.840861536388677e-118, -6.949012956085187e-128, -1.1629638756599453e-126, -4.05786251464148e-115, 1.984097282045606e-121, -1.0011692354527364e-124, -9.960836804339497e-120, -0.04414720189230485, 0.021594112336604635, 0.059750391948036524, 0.0629904011825651, 3.0023464220734705e-120, 2.1038091410314296e-127, -3.4646445642085794e-126, 1.553220565463195e-120, 3.2492471418581582e-118, 4.7866317302275894e-123, 3.4766732014250752e-115, 2.4889039833596725e-121, 4.622143653511934e-123, -2.5491032324449904e-124, -2.7149047569271117e-123, -3.2970254160709655e-121, -4.849586584503123e-118, -7.081982543132779e-128, 5.4405006698928695e-127, 9.935956994602461e-123, -0.01145556611033266, -0.03859271146759927, -0.04204168497142301, -0.057264279040755046, -0.06042780738808257, 0.013311986617333977, 0.03809503999927685, 0.0017183995737811294, -0.009580895580339527, -0.007126940232023461, 0.002477119970278169, -0.02042910494234007, -0.0685721462003698, -0.12082281938462718, -0.03470537392781379, 0.039163347090551075, 0.008498272049379824, -0.042380198918576036, -0.0612771386398766, -0.06344787257388072, 3.4015995902579317e-125, 1.4249775757490789e-115, -1.0033319127213198e-120, -2.6381294361027647e-125, 1.6680926596804977e-117, 8.385632954015965e-117, -0.008537798983148335, -0.04726113451417423, -0.08680408540016389, 0.04990990578005695, -0.060479922808370334, -0.0030946792257046606, -0.038916929422556895, 0.07095022604821541, 0.08610810031563741, 0.08527906149543148, 0.028976476310859395, 0.019285570856768592, 0.062169700414370525, -0.07915986313967656, -0.07021806066648173, -0.03673987051532244, 0.0146727774422807, -0.18375869104580295, -0.11292971385522262, -0.09672175624016885, -0.04898842191763514, -0.010103795458344415, -0.019180674494780964, -0.0017982244279884968, 4.945529433481508e-118, 1.0379654834580973e-126, 5.5966812379707506e-117, -7.548275515358404e-115, -0.009476208551128266, -0.08365337126446812, -0.05036265538004424, -0.008682607146319587, 0.021761570013646217, -0.0004523264509002509, 0.0981424357223619, 0.08508635987693633, 0.023254856531223066, -0.024089672892751962, -0.01925255245532282, 0.0372522890876149, -0.00635169298301366, 0.051919938474070594, -0.05002291659691076, -0.08427780328565701, 0.11202291618248617, 0.06908986696595201, -0.020302422268483986, -0.07739262007917064, 0.028722661727099332, 0.03716482462636446, 0.04736468543413545, -0.005734032469297339, 0.011336333706956957, -1.9935660978625623e-120, 1.4845261096694666e-126, -0.03972528456531155, -0.07386313501100131, -0.04449589895360379, 0.04031997035706293, -0.04899315241005042, -0.0453796047162189, -0.04016777380674558, -0.05432517026103712, 0.023136575296205178, 0.010012104510763398, 0.04935965148000704, 0.011371057157255634, -0.02861904518660331, 0.011005555653174782, 0.08709347808621297, 0.0405170947031136, 0.05804844918519934, 0.10254478232184677, 0.1027258233411389, 0.029704996204192567, -0.0686384850690992, 0.03372995796575964, 0.03134999907145248, -0.03448253489374462, 0.08712530525272542, -0.026664092135400205, -0.002455225054169595, 1.865447905381311e-118, -0.002807263662909849, -0.1012259291449828, -0.0012322465653943552, 0.005296863309487209, -0.06559208878520262, -0.046455176447006814, -0.16835527864455396, 0.0171672622506663, -0.00903268320936245, -0.045884190033516147, -0.038117596868843306, -0.08787865223034531, 0.009446351638521049, -0.057138700813157424, 0.048153277862094265, 0.09920902579933819, 0.0345616034705258, 0.06545940652058028, 0.08696491806635814, 0.13748209623886007, 0.14109630440704085, 0.019617836802431864, -0.03038582223669906, 0.002753283786602777, 0.03180803517910463, -0.002259501608904286, -0.01959101153896482, 2.7212066944683274e-121, 0.025001461648708076, -0.11665175455788838, 0.028772108176475047, 0.048155165503760325, -0.03724076282036314, -0.01425619862525458, -0.028081940131975264, -0.12966774363003009, -0.17155538853960794, -0.10121321739541282, -0.08030653493578241, -0.09710404990065906, -0.06505105781762398, -0.05296142146065995, 0.13301231761869728, 0.25628499406249144, 0.12308730881555434, 0.18753301437816622, 0.02931453493301259, -0.005710177189673393, 0.04971904118041704, 0.023699460431007503, -0.016872300526598282, -0.1778293210765721, 0.03377746323804952, 0.03343645285029184, 0.0015015043794436172, -0.009574051218449474, 0.02998609767047575, -0.0764973401933433, 0.025538939647648716, -0.009895298639467524, -0.1325944660889829, -0.05053558952274269, -0.19601495739209857, -0.10859717149501161, -0.28093195130491583, -0.25169946771818463, -0.049789797168373874, 0.051596421498302174, 0.0921758468655992, 0.04810526933179241, 0.15281393940573587, 0.07121678400820154, 0.14827921897055474, -0.019368931642700392, -0.0011763382963304086, -0.18449762429480432, 0.05786131991250266, 0.09608701734830552, 0.06011623490533366, -0.14293010963321773, -0.09756026750148501, 0.04114861274558332, -0.04087024430773197, -0.07461587326151317, -0.11416358001008503, -0.030721309068502126, -0.006470824394439982, -0.009677054039625717, -0.024049216380848604, -0.07839311337695526, -0.09994956931227876, -0.14783279117745426, -0.11119011758228235, -0.02655509781203118, -0.01839941367071341, 0.041098368355030446, -0.01112051530819789, 0.03676732876580959, -0.05364359811033714, -0.011023609024809939, -0.07641873860006687, 0.008178247977006503, 0.052390559620063094, -0.02411450675293469, -0.10992148772893437, 0.05171489056838176, 0.05877744942602484, -0.08192292659030757, 0.062056038293767754, 0.06030353952767303, 0.01982538798597884, -0.08528392062650228, 0.08404607822446593, -0.11195061617547611, -0.13999642967152598, -0.08907046912577649, -0.2094527243273724, -0.07841701402667091, 0.05009580635852371, -0.014475000264442305, 0.02846819656372746, 0.08609668732878951, 0.12556204441220042, 0.04206522569490701, 0.0026589410049394756, -0.0638889767431295, -0.07047704771772155, -0.14567497370454607, -0.14499297651123846, 0.08725800446839646, 0.085203037066864, 0.12300078419467023, 0.08495196298771641, -0.03406338266101602, 0.00987461815124072, -0.09133689980972734, 0.13524366068269741, 0.0009210158132311525, -0.08120739389852792, -0.0651973615066343, 0.048260157461820566, -0.004496534657171037, 0.03288658152408704, -0.033602893030023465, -0.04756589890841069, 0.07421866171067483, -0.03060449923725536, 0.018988172008920383, 0.022386446541047437, 0.05599021368227011, 0.11323089670036696, 0.002898607442310667, -0.09564222611868126, -0.1644230648357795, -0.12353053728848852, -0.1352256773538028, -0.1231817681685584, 0.086378132983542, 0.04523559259029183, 0.065654736323416, -0.009332922084254403, 0.09909297273806182, 0.1093824740759106, 0.046998940866352854, -0.01701126639719822, -0.024969120131956776, 0.045846149828635295, -0.08189437214502475, -0.07899426411252361, 0.004220019587031368, -0.06263038848845728, -0.024478619682157136, 0.07592083386953857, 0.15490920837840064, 0.1986526677865164, -0.09243874306246859, -0.055874123476321924, -0.04079037010262456, 0.031996217892693496, -0.18129173741261773, -0.2685649180066076, -0.14385728080327653, -0.06376937093859528, -0.04103892219608767, -0.12300212684345423, 0.08623612856167424, 0.14781744068080546, -0.007164375887010331, 0.05147616267700147, 0.049718644040910406, 0.04665644201496906, -0.008306486881087045, 0.007616235454100684, 0.0016038784268821442, -0.09645439578490544, -0.08547658310243315, -0.1215526446830263, -0.0745452339567181, 0.07994854894059812, 0.13643801582837223, 0.12090779187611964, 0.17904227136654563, 0.021645643907529388, -0.03756616025715129, -0.028530742562622113, -0.10327650684645025, -0.20181438841285687, -0.21946367821913604, -0.17058546268790337, 0.10925121349201936, -0.05542115934509718, -0.04579596715153934, 0.02359737805717021, -0.035824171364091065, -0.02349241925845823, -0.07337323169585175, 0.10872576153470281, -0.006562902445866726, 0.12985610104200307, 0.0902535147576659, -0.027346681083104382, -0.11884066395871627, 0.010842601754007876, -0.03468379398957485, -0.11728612824369002, 0.002976201992979457, 0.17761075568218046, 0.05392098789112667, -0.10234122945266468, -0.005712798238360328, -0.09128305360660939, -0.06079193308723263, 0.02779905386547852, -0.13233593529148938, -0.20085131614357057, -0.24864765426651675, -0.07052407841081813, 0.12730057463893174, -0.014572316501697567, -0.05571525903694616, -0.03810000937445467, -0.06913200172277335, -0.08715111785758495, -0.03461155961181537, -0.016826624225708738, 0.017453929070885565, 0.0077788729339047305, -0.06090580555887438, -0.13442279144033628, -0.13234686500109968, -0.08157385071909595, -0.051320994779455543, -0.13487779222804985, -0.02624925972658718, 0.05797798737426517, -0.17123879057722705, -0.1308148742288486, -0.15616862421074895, -0.27242122093960236, -0.25463739160266335, -0.16789275634009762, -0.17673884105818913, -0.10618115484174633, -0.03758281659746234, 0.022110603032011674, 0.170836059104029, 0.11100629104785607, -0.003633525882245753, -0.1545231399848701, -0.05629000324478685, -0.058240235921941975, -0.2285111068025451, -0.11180828784449703, -0.08136794783409448, -0.09776831439398703, -0.09201170717356752, 0.015474384245990765, 0.06888833047129547, -0.06450065091517058, 0.010002995130121489, -0.01339769986914791, 0.017364407023288654, -0.08033987173892479, -0.13298309784242618, -0.20290660732546653, -0.18420719436950017, -0.11182373577494095, -0.05475947444564747, -0.12443674078935549, -0.04239868437645847, -0.037226205605895984, -0.05084076738612339, 0.1135625608991031, 0.1983955491452239, 0.0059879984971254, -0.052420132695150425, -0.09739101802237665, -0.025060088831438815, -0.06606031035490341, -0.14338458026063586, -0.20979323761159038, -0.03066860491879608, -0.06950685660362266, -0.13320279757237383, -0.06942264210242963, -0.022668099745524063, 0.040703580900058704, 0.025297990870108072, -0.06238811880632854, -0.06886307831879354, 0.020796483820096377, -0.07603159435678734, -0.15720876078732018, -0.10749087528317001, -0.011323194198520714, 0.03403964891795797, 0.06715958393869405, 0.07536298658339687, 0.08817498321312352, 0.03337357568222741, 0.04960748745480031, 0.15600272173555893, -0.07380593559234494, -0.08671873397291233, -0.12411747404020802, -0.18698983823358017, -0.1306639626192738, -0.0707433875351563, -0.03038911011321682, -0.04691706540983746, 0.030643732722041662, -0.013768263088252039, -0.06146389885139095, -0.10822296629051062, 0.009684072766104897, -4.125072304130201e-125, -0.05170594409246672, -0.09752633101920145, -0.008219060531137572, -0.014358229035330914, -0.022556783315606795, -0.026139297803944264, 0.059691045092399156, 0.05721834445696912, 0.09995823741480576, 0.12219887581928027, 0.10675611054022559, 0.10956689240818107, -0.013548037704033155, -0.043429657327145814, 0.0894004276967792, -0.05844205011514437, -0.04626877893043029, -0.14757104946874963, -0.08186659157055808, -0.11273216872623074, -0.1543376078209839, -0.03210992946076944, -0.09342243932427512, -0.08723034735351408, 0.04678095860663736, -0.027213507410786795, -0.012336525186111764, -0.034903992738666956, -0.0753232199196648, -0.0486856764041034, -0.004041126792640355, 0.04183301217199293, 0.09271676705790766, 0.11808107121603008, 0.17252309690786294, 0.03799655595445422, 0.00393548574739194, 0.03680034868119495, -0.05779327424957739, -0.11198331632165853, -0.11404756573256455, 0.06234798752677011, 0.05497282447636204, 0.09980178741095032, -0.010101655863123607, -0.062154930367784425, -0.15167768978297916, -0.04496490922741608, -0.05941434571878173, -0.09106477253874891, -0.15368694070587158, -0.04841140249050863, -0.006985398105619949, 0.052508635776184254, 0.047411350929049786, -0.04412406952067062, -0.07888581338554687, -0.14687436103021226, -0.12150575848571524, 0.04845122608351704, 0.0036112519810356293, 0.05093015617130664, 0.0586939995355658, 0.013740672986891184, 0.022781519061997456, -0.11118729037698488, -0.14576047363588876, -0.06649820705909093, -0.0800947823256921, 0.037636227484191466, 0.10051709483695534, 0.08082324820709634, 0.028298412481979472, 0.02589875996889322, -0.06709458198494514, 0.07158172789881767, 0.053497016626328206, -0.07149781037713154, -0.033138114180644995, 0.07914661968898068, -0.06844409703067263, -0.00948792905871675, -0.08276877953991199, -5.804805416987397e-115, -0.11425019569331646, -0.10083061767759632, -0.012400202184969402, 0.007025818879032601, 0.09865210482946593, 0.012799226907413596, 0.20132833396860428, 0.2022865030446442, 0.15599038782359112, -0.04120894358781592, -0.14298970881387446, 0.0020286817249125177, -0.09116649586776618, 0.02886289102649753, 0.09979425299121153, 0.06980066596029112, 0.19970160220875685, 0.16596358556190327, 0.024219339438953706, 0.11716408507224972, 0.05315331721285336, -0.034225555668901175, 0.004168428121211624, -0.01961734919873627, 0.03608429124357336, 0.009674714299466688, -0.039237442240566495, 0.0007515129982685736, -0.07658083973768798, -0.1025001871471365, -0.038642053625470685, 0.08452057629819144, 0.08735457005776302, 0.04389941309047736, 0.13951037902581678, 0.15339586429868493, -0.0017666185265695327, -0.04300921781903868, -0.00766861944411031, -0.07368228889400194, 0.11030986398903068, 0.10351150036227787, 0.11996679190455035, 0.050531172977151095, 0.13225228641047004, 0.1608129870755047, 0.20941736677291276, 0.0016625694424854164, 0.04688705679683736, 0.010284215697077742, 0.018243405634367278, -0.0075184422965009325, 0.013700810657541834, 0.0009187910029351409, 0.015693756240595075, -0.001566908444064506, 0.0019564101933023568, -0.017820892094398345, 0.0978878351706058, 0.11910921174020751, 0.010240267345609155, 0.12870533715847973, 0.0730950517905462, 0.008786767572648912, -0.0010319197215138104, -0.008674558725776335, 0.09097417949736285, 0.15141348883914638, 0.10653416191348446, 0.13133054267563052, 0.0061303933345811116, 0.03441957075627503, 0.060970338315446126, 0.07176940736557658, 0.0994109755309026, 0.004884606563818434, 0.044229879816466984, 0.05485395907100812, 0.03622936469785294, 0.01407212734220562, 0.0365415503169473, -0.02690809935458561, 0.014393826720091592, -9.441592369117129e-123, -0.05407597179303549, 0.019989184132425078, 0.009873622416947905, -0.01179258024909013, 0.057010630107329145, -0.0007529236831076045, -0.02988964524302604, 0.021538469711858174, -0.02885085260088653, 0.1338796448520897, 0.17297331162966212, 0.09043505847101639, 0.08641766494221907, 0.005629926592420944, -0.053249124264673146, 0.12377894549637068, -0.02190469639780431, 0.0033889162185493826, -0.019937564042401792, -0.014135818949114629, 0.13781262991083762, 0.08129890276031733, 0.08001829726356753, -0.016695029819580102, -0.09362417702710753, -0.09772991521377998, 4.876356805531312e-124, 2.975760908485609e-129, 1.0412785307572843e-125, -0.024648590628182924, 0.015471474406873022, 0.055376854368638165, -0.10024036903789056, -0.05131522199234359, -0.07036716970717137, -0.042217590122549095, -0.09186731579287419, -0.016434729911529302, 0.07672012516448397, -0.022917245661237047, -0.03893439113731776, -0.1486479808991776, -0.0014139416264565758, -0.08349094438957103, 0.02922813114149508, 0.06614755497956454, -0.03915473109225775, -0.023140014219134277, 0.04082122801990335, -0.08276653333639505, 0.023750032865878914, -0.01098591367860177, -0.03675868752926452, -0.004486796911537366, -6.0218871452833e-117, 2.4169808666950206e-125, -2.4009460764350994e-121, -0.05994581217386131, 0.01682006492731889, -0.12566020776307985, -0.07133194969385478, -0.029767542701452532, -0.12184760594293202, 0.013931218414540265, -0.06711949842451728, -0.09444239190379816, -0.04220558126114952, -0.13870722866170762, 0.023226772289036374, 0.06032637612860888, -0.051618471181535695, -0.058902705330919826, -0.08281561858568004, -0.10209276929072926, -0.1430598995969712, 0.0036681746420293977, -0.03118943076326644, -0.04161154981198935, -0.10083567944252968, -0.092727877469663, 0.018007504815243002, -0.015559049496622696, -2.837402810081404e-118, 2.8798504276300483e-120, -2.5618982422508916e-122, -5.830698166226577e-129, -0.012524836467907417, -0.024171031966443376, -0.05995974061589276, -0.035407772405424864, -0.07459788158331566, 0.058330540217547716, 0.05917655494723809, 2.5812253554346735e-05, 0.01641968960212992, -0.037631442316916015, -0.004762692881383438, -0.08672023828482746, -0.12028605124607225, -0.00864458705814975, -0.12981414433498104, -0.13161735744228023, -0.10725143468405116, -0.13269635228499632, -0.08126018186246717, -0.07307340142152771, -0.10379657536269214, -0.07165108229724435, -0.015941474867460084, 2.0090905063457977e-117, 3.4570786125238072e-118, 2.3040672931503832e-117, -2.5810384477492876e-121, 2.6614830540461016e-120, 7.330112227687378e-115, 0.0033034759944422384, -0.025176578244591137, -0.08438412494597416, -0.03268386101345682, -0.09702352321189224, 0.029836443177680173, 0.029342471283708326, -0.046137752075804665, -0.06815032180481372, 0.04080222647103935, -0.02609580529170047, 0.03396992100384661, 0.03889872270065577, -0.0849222371754567, -0.03798197901589763, -0.07821027916422749, -0.08096540674959189, -0.10812640651463883, -0.013671792912303887, -0.003268243716115142, -1.3945500932816094e-125, -5.530114375097967e-120, 8.868088647511567e-124, 2.8495708698821627e-125], [3.6282195155808275e-114, -1.3030342560760605e-125, 2.984278744578858e-123, 2.4353411946195372e-123, 9.437088032744328e-124, -1.8163481147392741e-124, -1.5219969620281675e-120, 9.965454773100257e-118, -4.545358330099518e-118, -5.8643585384889574e-120, 1.6807298858953663e-123, 6.955862314111214e-127, -0.02502498429935392, -0.038435075040335, 0.05211737828483769, 0.03547513584905297, 1.2726138897691781e-118, -1.0527527698883845e-119, 4.096288267951394e-115, 9.889161986709614e-122, -6.787368763072985e-126, -7.622191924326416e-127, 3.6547808431631983e-119, 1.0063129678872209e-124, 8.061526937311883e-128, -2.6023018474490355e-124, -2.468236103870511e-120, 5.6364509281590336e-123, 2.9209302754640837e-118, -2.1159864897233335e-127, -4.6734849664843324e-124, -1.5173243666435326e-124, 0.1156607210070177, -0.059800254564522766, 0.06450689522105803, 0.02043788754805735, 0.07887599869056523, 0.05167028291840594, 0.008878747864080777, 0.06264739714160271, 0.0691953770707428, 0.06938824750025425, 0.026642353570935706, 0.15264003480975832, 0.07606820292159383, 0.07867444028045158, 0.09955685416923754, 0.016430325228905193, 0.03323808976869396, 0.07289609818821159, 0.015837311278107256, 0.030827301539792754, 8.548077109618619e-122, 1.9705618874288014e-126, 5.7573801016592343e-126, -9.154539690005347e-120, 3.5203423141596745e-119, -2.687464116156036e-124, 0.07630860371023662, -0.001326919842896503, 0.1003341523922412, -0.023300968534420378, 0.008562879537609936, -0.03853512238441238, 0.08528320203025551, 0.042691783233487185, -0.06862534090955608, 0.07499409682154594, -0.12458713535499416, 0.05312943247332521, -0.0698566874794207, 0.05564612227206094, 0.14324516534418769, 0.12624584733382688, 0.13982342136258785, 0.029595777134721512, 0.03791816874098813, 0.10254238241464624, 0.024774188091993454, 0.07024972012303757, 0.052712847578524694, 0.05370220286433857, -1.4211432077191799e-118, -5.815960091289632e-127, 2.9848711989375087e-116, -1.2552009580919503e-127, 0.06667540984543188, 0.04607560967940635, -0.031513023392119366, 0.06968823538645649, 0.0456583801580894, 0.09429455597232222, 0.06506485913545136, 0.032145108256980304, -0.0027966081769413126, -0.0856199113669314, 0.0011133524320510112, 0.023007063406634706, 0.026107255613506405, -0.09389235652447415, -0.01796797196094174, 0.043066855095951415, 0.060532304782069106, -0.02810757019059411, 0.0768016261321798, 0.060663914868586716, 0.03178222328438291, 0.02677359532940206, -0.036853760722150755, 0.03967582722978649, 0.11254705337926679, -5.761069453456586e-119, -3.693331740867155e-119, 0.024550026048677183, 0.01463415588249246, -0.03633626382512909, -0.005290164619785898, 0.16434681997761288, 0.042168578930757865, 0.07678794364209439, -0.011938170633676089, -0.062041577338329094, -0.03575958129107172, -0.08402721823760845, 0.0953064982807619, 0.12465072761738619, 0.08562311300779689, 0.043420868449026324, -0.017479668042016214, 0.05314473769430411, -0.04028532863859186, 0.00998160711209844, 0.04469702008113967, 0.02128322359731564, 0.040565512516458874, -0.007163377302151817, 0.05062311872805349, 0.0400218582259168, -0.05757833920144103, 0.011596885168821383, -1.2154778989822904e-117, 0.05205205796744961, 0.0879289302650175, 0.07076050326215669, 0.08494586754745365, 0.054207961889528096, 0.003702821453714677, 0.03890571336799595, 0.06987278903375381, 0.01632347910341952, -0.08969846495867695, -0.009551321737943761, 0.03335548776049033, 0.032330269258044275, -0.04399328964994629, -0.05463250039193836, 0.058053517652462264, 0.06294152575119873, 0.06966779551116757, 0.13305078247212263, 0.061282002160926566, -0.01196507805893282, 0.034953783302438486, -0.012396722903241992, 0.012528755958415384, 0.03790547344894873, 0.05675511505225762, 0.05831181795605807, -3.0937868125678666e-122, -0.014470276837503342, -0.011119388728195857, 0.05539661667715316, -0.02145288794873877, -0.05319402398808991, -0.007617851456759637, 0.018364859227709064, -0.03690892236141373, 0.005203137644380249, -0.04712019736148725, 0.08385334222384996, 0.06362416245434933, 0.008623987193954222, -0.1464922666328192, -0.031163989929323933, -0.07187384855051457, 0.1563319679742065, 0.02790854535906788, 0.03467975661404752, 0.020855254130965607, 0.0350723480714472, 0.020238974094386436, 0.011797861301800867, -0.0735732826384627, 0.12603209963035963, 0.07822924313627427, 0.01701895070691586, 0.11364680160969551, -0.001055052417303427, 0.009734577824560728, -0.050089493861309814, -0.03037489851178777, 0.03916165963956618, 0.0027205298696654544, -0.027594190410789244, 0.036067873026724616, 0.027341116717657894, 0.0705119602957009, 0.07835344504306174, 0.09718938053544976, -0.08098602767931706, -0.012251615492995013, 0.02392681618387769, -0.10772458076697644, -0.005822961793006944, -0.14456409173514756, -0.17273152544079753, -0.012623183292623161, 0.007281352717217577, 0.04210517991798484, -0.0018388243406382632, 0.08828437297986826, 0.00590818170318206, -0.015701027707310952, 0.005809501542000224, 0.07744111904306476, 0.061208135134545816, 0.03140968024049573, -0.057512664920927305, 0.04117485252636155, -0.06597816435893958, -0.09670011302008294, 0.000416435162904306, 0.022406314083483897, -0.07557220423766296, 0.04006390069592561, 0.07870605146327458, -0.02155639665999355, -0.047157851652863264, -0.11450099804707627, -0.01955444953019277, 0.02737851184681912, -0.07452751150652497, -0.10257267462104293, -0.2090236090364937, -0.09628738197065144, -0.07018120390776807, -0.05116203105654296, 0.0950951653595234, -0.061858811636911676, -0.1122589465109182, 0.017628433056595665, 0.004323763889039877, 0.05798405537066887, -0.01386085563702466, 0.013229331880803134, -0.06016042203218695, 0.09624879662702696, 0.048815452975058224, -0.014497940304514874, 0.03894680743130699, 0.1252919465539054, -0.004997145824125132, 0.10546553890675703, 0.024248593920686245, -0.08803354656690418, -0.0754583661429914, 0.024546213720289152, -0.06930880572197899, -0.1696343235155373, -0.05043346214920944, -0.14348637774631776, -0.15742163036969983, -0.15344442337475186, -0.12716953314109458, 0.00862289702931176, 0.030586907098854595, -0.137304460372331, 0.00797329665822754, 0.10251442806742056, -0.01596840526776232, 0.030186213247058922, -0.0655239138490555, 0.008103291933967837, -0.048215992985521906, 0.021786019430917403, 0.08946747937897936, 0.061923378150235873, 0.013267994105602011, -0.019394397847502944, 0.005658483853468289, -0.01548121960361249, -0.02002047781412945, -0.07181920937552148, -0.143349348049387, -0.080061677987652, -0.1988663877878324, -0.16613338876632222, -0.23121690257215538, -0.2064456597666313, -0.26247402966400774, -0.06366027778257012, -0.09438526849797989, -0.03998687567939442, -0.09373690378945784, -0.07209159273191675, 0.02494180116102909, 0.044036939136866744, 0.01485388455868846, -0.05695476822699382, 0.04350614168699256, -0.08868515567116796, 0.034122068209141036, -0.05551103707267304, -0.06582403792392319, -0.10801857418142718, -0.0512784574957826, -0.02916462858351735, -0.07352853557889406, 0.012794069800891362, -0.14721970371693402, -0.08931479432278137, -0.11564413476548263, -0.0506347159641238, -0.19126346080190734, -0.1605496737689509, -0.10587813109061776, -0.21329437097526824, -0.1063563606343363, -0.08634891975458595, -0.11573745020675372, 0.01262986564475823, -0.014842582527508374, -0.0249799418442676, 0.009978773034537517, 0.03292271554144304, -0.007228857423272188, 0.07120999316472078, 0.06055264021152542, 0.06958424851506534, 0.05749052282144603, -0.012652268344494733, 0.02357810474671818, -0.10572870743122234, -0.0982623553222054, 0.038322021057803565, -0.08021841149855531, -0.09382698490476576, -0.00037005694610635744, -0.045833413512562246, -0.12489686387263636, -0.015612899712643132, -0.08601303691013983, -0.19263848128185207, -0.12131826274461464, 0.004004776913331218, -0.10101497016390815, -0.1467757628402087, -0.1899536759157815, -0.12329435355268756, 0.0563237119315059, 0.026673308178391465, -0.12960417103823893, 0.04198244308702771, 0.01780015628531619, 0.09537693138055789, 0.060900248477127626, 0.050638136383498455, -0.06620548142093169, -0.03553274399988392, -0.00035066225464598915, 0.0632281043911391, 0.019668102973374454, -0.12150268026266949, -0.10264312770534538, 0.01004645505519857, 0.08542957861028862, 0.0006243914190410605, 0.004508713629915118, -0.01696896721708873, -0.07109135257776056, -0.039333805951363286, 0.0026405075869762565, 0.0531824677649328, -0.08023274867213924, -0.1515888053714262, -0.037874635707728435, -0.0833882097660322, 0.03118230460997494, 0.10487534650918248, 0.07546069603750626, 0.081992654560513, 0.09775866351242031, 0.035151665872346326, 0.03562687282056573, 0.048230527371108736, -0.0658230872270041, 0.017521907324922936, 0.04827794973407108, -0.01572926418387795, -0.07386997745390878, 0.016250380177230028, -0.024419950637747104, 0.10406293230340168, 0.07541446412265465, 0.06932320517838338, 0.06647164912603634, 0.05139461560067343, 0.061004090254655106, 0.0885412917747229, -0.060446981599241494, 0.046895559003625, -0.10605559906027127, -0.005019992467303274, 0.05531981602674288, 0.008241397104787978, 0.041944185251267106, -0.005208903393277771, -0.02891426014869028, 0.13238078595128935, 0.013938433730399878, 0.018088106474683292, 0.07330641549086479, -0.07044274884065589, 0.043850538938653046, -0.0336529541531002, 0.09686239030341683, 0.10768700795912328, -0.03184371529651118, 0.032303126399104425, -0.10507308781379686, 0.006322606053978278, -0.023617268607567, 0.010040210519530695, 0.0900675445421232, 0.05943455262610136, 0.15559007310023615, 0.11723538548044896, 0.08078082779400542, 0.12022582299048439, -0.03144340329025098, 0.04082368634935781, 0.03831257345178647, -0.0856839520583942, -0.007065774548375259, 0.0176280489949565, 0.05706457681304967, 0.03198232508476349, -0.03204030354586118, 0.08987132448741153, 0.011935607735467046, -0.022294121588870074, -0.045530397605375354, 0.029047818563091462, 0.031452514589052474, 0.015564564637698283, -0.009427450319638752, -0.08411321590809126, -0.09623699093759155, -0.04085459365276043, -0.018456538763483802, -0.09314099471472548, -0.014419721590934723, 0.17940040121196474, 0.13477137272284978, 0.11912968078884145, 0.019971724795459046, 0.015578160650058225, -0.09917451421464102, 0.12700623916167209, 0.02897796416154919, -0.03995755306260325, -0.026111444379033028, 0.022621595171308725, 0.01605622198883062, -0.037791386605624054, 0.03705410585815283, -1.5460874996707152e-125, 0.027399518496306976, 0.013020943394141024, 0.10506680168452608, 0.025730263768972163, -0.04635260612708881, 0.12296517384171092, 0.07472598916450313, 0.07025107734990658, -0.14224903229598063, -0.09102923104924637, -0.020154546162860377, -0.02360530332311356, 0.08549087138611372, 0.18466970971854352, 0.047959313217138935, 0.05830014220018921, 0.08471489522871613, -0.05153454025713007, 0.0228035623138136, 0.05271856243253393, -0.003567415489812124, -0.04761684949155697, 0.07183867353080435, 0.03121544703802063, -0.05003210010137572, -0.12707603923853336, -0.05856826488684208, 0.08508159143662247, 0.025071352863595395, -0.009160518662513049, 0.008833267309582572, 0.050108488760229206, -0.04321019563720045, -0.003990032474798319, -0.018334381735600896, 0.045989492802729584, -0.044708682002358675, -0.040066773223399424, -0.04802549789201205, 0.02209272469011021, 0.034915136857443865, 0.06830472641610985, 0.07700392856904159, 0.13857140157980788, 0.1339197112861782, 0.056148566776655244, 0.03894882003965607, -0.03433620599706988, 0.015294431475410241, -0.06000637948614736, 0.04161313002803415, 0.013986974079390369, 0.14191487182176374, 0.025485018372958225, -0.02332032740406527, 0.03229053885573909, 0.022914289934203375, 0.07667626153822268, -0.06020172764590624, 0.059478793334805706, -0.06319288924917708, -0.02354996980446834, 0.056689239657732544, 0.1283329315132835, -0.056419627841086235, -0.02658408519380116, -0.029418882027117708, 0.06825271547818255, 0.06155221964590857, 0.0917900460390681, 0.05865720077616888, 0.1441258530175501, 0.10941403726619907, 0.028682694239917494, 0.045690750540755005, 0.041972796923167556, -0.03532942666681736, -0.0021553062675502286, 0.09827445469307819, -0.11430018740592865, 0.08865370051804258, 0.0695544116343968, 0.025049848827110872, 2.0329931496939776e-121, 0.025046698662129448, 0.07324143509494102, 0.015742415230509958, -0.03451989154343586, 0.05071704632898456, -0.02453986524551453, 0.08024000696392877, 0.07361489234253822, 0.04754494627639794, 0.04912491999004355, 0.12890863694922358, 0.06222811875088142, 0.04815394583392959, 0.10457160398908143, 0.042620044301152425, 0.05755059584392797, -0.06408980287168459, 0.1038102715009231, 0.1059411051317766, 0.09681746584414776, 0.027756257031278514, -0.017155106675915334, -0.00790994098436735, 0.09894081850164303, -0.08402690350797862, -0.03541742518773503, 0.11741738661053443, 0.06666869027374316, 0.04426444233884565, -0.003211982232021251, -0.06085212561831092, 0.0015449168355293828, 0.11513233875131051, 0.06623374007380514, 0.06978742517418499, -0.008673374666531172, 0.12655373140108542, -0.021818905837313555, -0.01977053694194235, -0.009109020697677859, 0.05422475188164887, 0.043011294637273406, 0.01446531366320952, -0.014820003499794116, 0.07323976410148184, 0.12555891253330634, 0.0689350383490246, 0.026731151156184088, -0.004177988885721284, 0.02029563631168378, -0.024494045998252733, 0.10291202978798297, -0.0757203960807386, 0.012682501322048583, 0.013413012615047086, 0.04669547835123703, -0.08707729305861212, -0.026095571994545354, -0.0005070923092125771, 0.11345964042407512, 0.08327132168888099, -0.09083434008406427, 0.058567545379282764, 0.07468120957595215, 0.09388547721924921, -0.09670780405863466, 0.012538050352181354, 0.03755309550873881, -0.09543565402374724, -0.05139242011734946, -0.0751946290147897, -0.01991733585304039, -0.024211609606516093, -0.08031628353436064, -0.02817013465487019, 0.09695394919384795, -0.01129981467401851, 0.016056558049446838, -0.002993082509579374, -0.03717622378416446, -0.01184634970707225, 0.02389590309753105, 0.06759601278431561, -2.6113398693960706e-124, -0.04460188902818885, -0.027686343176579906, 0.013438231265444904, 0.060736855973496914, -0.07231581616808305, 0.03069998267054107, -0.03008539690902754, 0.0034791317100061965, 0.0728130088656971, -0.09502108419252028, 0.03523520258044093, 0.045801390715168845, -0.045076591173503475, -0.11767445504718944, -0.08709540889217517, -0.03588768639319811, -0.1032211909396923, -0.06650287948579274, -0.08643595790051505, -0.0003863610766019354, 0.012576382308334876, 0.07192812199770364, 0.022291401347395042, -0.01457859419541391, 0.04534584333188955, -0.016745896116576894, -7.348282596970499e-115, -2.3824439138329073e-121, -8.602559370586781e-128, 0.06911022871756298, 0.003869340141201307, 0.1073226169932097, -0.0019573312631278057, -0.06941842420358517, -0.029973069800578133, 0.05193161893485603, 0.0008754630742594064, -0.034797593323543305, -0.03866225051131717, 0.006389076116787019, -0.14237826576035464, -0.2899335388072497, -0.2032587997390038, -0.05226368970158463, 0.015518383172515698, 0.008322233859678351, -0.028352613045689357, 0.01775199808453831, 0.009750303847998567, 0.012878225047280282, 0.023896612687292047, -0.04041704255660727, 0.009996479660322372, -0.012914227101722192, 1.6679038189782584e-116, 4.284868424958e-125, -8.528231774407352e-125, -0.06770380098502117, -0.02904719994827475, 0.08735537103025362, 0.036211152417934114, 0.1109798688919277, 0.06813609404134115, -0.018342056621361905, 0.06211566722596587, 0.07624103432757927, -0.04553170737705818, -0.02302973289236963, -0.03165196888608371, 0.005256315617638478, -0.054884506974483285, 0.048225236535005, 0.07914405046074545, 0.056121685686510256, -0.1459671298932664, -0.07707663860100333, 0.0905048989602846, 0.09891870001223603, -0.0249134775907329, 0.01779274888259634, 0.07194370955068387, 0.0711458927292369, 8.161035306496798e-122, 1.7168158773846857e-123, 1.0269919365387187e-121, -3.724240034482763e-126, 0.07047662005178378, -0.012382040891748339, 0.0604782269146339, 0.01500556802140573, -0.064289004597972, -0.017659840117428632, 0.07447974825461526, 0.05599653130153232, -0.042632460377512095, 0.06304524433414949, 0.06220199310946347, 0.10773342533876312, 0.13286619773810396, -0.05339546294325269, 0.0013713668247855955, 0.04789832079405983, 0.034150922972168894, -0.07381427059644918, -0.005492740462061191, 0.05107423598975718, -0.006222463745681788, 0.016515964182795648, 0.06541222937828868, 1.9315544459593482e-114, -6.085878568819948e-127, 1.793753942179389e-123, 5.806633035312686e-121, 2.2645110129742927e-115, 1.6341889002256245e-121, 0.09441671545136787, 0.09955836966345416, 0.05705244606500251, 0.08783382188100608, 0.0060626910502522315, 0.06390660435051772, 0.10280819351231525, 0.12730860043983389, 0.1902492688701758, 0.15171829481315321, 0.12461685921710805, 0.08791215698398454, 0.10958444120046153, -0.001070245996446652, -0.007526146944545699, -0.0029639102639999098, -0.003924896107102719, 0.003823467423232518, 0.10690077697215454, 0.013322149972554908, 2.3270201473248344e-122, -2.461081212637581e-123, -4.6887618587519825e-120, -1.796201645266979e-123], [-3.1008274667221346e-123, 2.2850965366839163e-115, -9.947707866201858e-126, 1.8246122010326334e-126, -5.941127432204221e-131, 8.901414262368495e-127, 2.8161012467889146e-124, 2.5168769112229107e-124, -5.179777469032377e-124, 2.7110254085209623e-125, 1.3453102677282444e-114, 1.7223758274047342e-125, 0.06040130676564822, 0.047207932742327686, -0.06126910963975987, -0.02445874083811529, 3.417664060853493e-125, 2.0655547399296683e-124, 1.1081111504786104e-121, -3.726084217244693e-125, -5.6572305262576335e-121, 4.32042261667573e-125, -3.3411603533469446e-122, 1.0373673367871611e-126, -5.29412646072206e-118, -6.380587455608983e-118, -2.853410490346156e-114, 2.5109256216681408e-126, -3.641325209480865e-129, -1.3315607583220018e-122, 2.057187606421218e-117, -6.900823420669728e-123, 0.10835008070006276, 0.06014537280284235, -0.04745944153755541, -0.03508799825875686, -0.02749608927388442, 0.049281224994650284, 0.05529148481791099, -0.02901852974926035, 0.06077899257800889, -0.03189559157473784, 0.011575370730342345, 0.008765599834884587, 0.04572346924136598, 0.04006310229335363, 0.06920834644954782, -0.018042001865758484, 0.038991444547027784, -0.008593519673196876, -0.05080619570644615, 0.0055502509393081665, 7.009950263168324e-119, -1.8132760899523774e-122, -1.6945971796984408e-122, 6.451207335225858e-117, -7.873593083378788e-129, 2.7469967895213266e-129, 0.010029491455967843, -0.047493527012259076, 0.03993273768109472, -0.015926354098452885, -0.05056062057653142, 0.08025175414750994, -0.008327750152939758, 0.017019524200057135, 0.022796209647457644, -0.038392898380321096, 0.04288368873904994, -0.07989361471562541, -0.0334663883823628, -0.014202174911780845, -0.05547829770014854, -0.017608679070858252, -0.08645879918358396, 0.08244157906475912, 0.06756147889369968, 0.030582943996695602, -0.03973086959474398, 0.03969922991526278, -0.009995108812879416, 0.016319245293850405, -2.0412077641265807e-122, 1.0913653414961354e-117, -2.169097115305513e-125, 2.8421174481870286e-120, -0.02007843612388996, -0.0781745864381317, 0.13519537852828928, -0.05231827547698842, 0.009827603260464104, -0.011759885570275293, -0.0009732108492030282, -0.006974796366972298, 0.06725474031233428, -0.025689198551000842, -0.15805330409468216, -0.04066552491432181, 0.047171686792829924, 0.029983233779208713, 0.04747407317051814, -0.007609142559640947, 0.12846871342395105, 0.09643761627795398, 0.01777800605998052, 0.03144971569868458, 0.0012585251017742582, 0.006095305359125446, 0.05227198513531041, -0.0702321809296506, -0.05522048799084779, 1.30365833664537e-125, -2.1060440611299864e-114, 0.04656806523765227, 0.0701941629618746, 0.03158732776055311, 0.024670327669848103, -0.015685197233337864, -0.00962775018018465, -0.028950838351069905, -0.15496659294635695, -0.05951842364028277, 0.005100796532918886, 0.02754085513110485, 0.09704567371034259, 0.0074617256326978245, 0.05379353779216036, -0.02231261086775469, 0.09820674723355981, -0.07762622960048059, 0.029683194916042304, 0.06736966456887476, 0.058194305323749466, -0.00017503671341439106, 0.010119654925530365, -0.06806343409641921, -0.0803558303022159, 0.004656330430271301, 0.006665122389559458, 8.639257354709183e-05, -1.8480645981701383e-116, -0.004443409571828919, -0.08017187183766786, -0.05203197125470375, -0.09944518962187965, -0.08607536009605724, 0.003285213742763822, -0.03569623034598596, -0.03605326516356289, 0.03739344227453221, 0.038934856953039526, 0.03975766939700659, 0.001513719697106667, 0.01193258465723166, -0.08006555897034666, -0.08509683793659077, -0.05803758114074451, 0.10427239443468024, 0.01609938315658899, 0.04464258011537436, -0.08434146793675543, 0.06221500120885994, 0.09760313013886651, -0.04144666733211313, 0.07166250264184035, -0.07759808346848429, 0.03219483001752919, -0.05709581412828409, 5.837084479564791e-125, -0.03152264311013917, 0.00243754450686287, -0.030337203313102443, 0.010313170694932853, 0.052062848714803905, -0.1412381481657696, -0.03286756111135107, -0.041125344380488836, 0.0055343603348049575, 0.04254475330520874, 0.1562538426759269, 0.02021670301226295, 0.035132742478268454, -0.04664583716152497, -0.14987017991761445, -0.1754535709317356, 0.028782623553971234, 0.052525716137151214, 0.06994441478004913, 0.0753752230017163, -0.1320439560548174, 0.025333110587638503, 0.06593406825408303, -0.049475413475231704, 0.007391329131339558, 0.030408906004051304, 0.10128335356936, 0.01164986957091769, 0.05455287575417241, 0.020290925362663706, -0.16757183757358102, -0.04692559510693171, -0.04176507470406195, -0.1425758034713297, 0.017619058486375648, 0.08704871945011514, 0.10936230573839673, 0.022619846257977298, 0.04862426531396626, -0.0996892378497157, -0.04387198743449093, 0.04669855234933246, -0.014072289271308283, -0.15864574157477018, -0.08105596388263081, 0.10878882409540445, 0.07239308751250412, 0.05271804447765471, 0.11391346521081559, 0.09051026222750003, 0.005998217335909052, -0.08592218913888135, -0.03819839166729573, 0.009049392224750458, -0.017539998951231248, -0.02183876503468907, 0.015712686298280435, 0.06939504723459043, -0.07593111803468779, -0.039832340551783085, -0.11203920850135904, 0.027058566116980137, 0.05589495247570614, 0.057513173305332906, 0.1126262197174413, -0.04209606539633977, -0.06275600081804293, -0.05741486691822434, 0.012413595359762868, -0.02216532664953351, 0.09112656636432778, -0.04187713040620113, 0.022031545338225628, 0.04975480482834752, -0.045456980505893245, -0.037955995155054295, 0.06511466790786798, 0.05940871287169927, 0.02158218522533095, 0.04409944951953474, 0.033770556680652104, -0.04090519968384322, -0.047400184158411275, -0.05513663385700754, -0.05919572185725988, 0.09317182975866727, 0.037851927041519, -0.05788689867916514, -0.13683005493228162, -0.13092262709266456, 0.066995441445435, 0.14021802898057115, -0.00871915040077496, 0.05606668842591097, 0.10041989738856201, -0.11852219456224448, -0.18081463301217443, -0.0030034754819024266, -0.12612504443914746, 0.011719730451259595, -0.08719704884866862, -0.14945662247226937, -0.1508689944333582, -0.18182491397744585, -0.04344244628792335, -0.04745439717218051, -0.06723866688724954, -0.15025787310302435, -0.19657928963907148, -0.01283277643472015, -0.0562264312550615, -0.037789312230355546, -0.055476603963874695, 0.02944781144908582, -0.009497009937980154, -0.039146260189668144, -0.09597080959642859, -0.06582176161485793, 0.11460114841495507, 0.13657340386049657, 0.15838328512667194, 0.12551558720839698, 0.10907105455076524, 0.011174667182014628, -0.21529957042764156, -0.27748952421518647, -0.13895174534120158, 0.08591234794485166, -0.04922972847113717, -0.03670203362901119, -0.004682874660756374, -0.044607995806091316, -0.11643131580476533, -0.09422954143260036, -0.07528948358227118, -0.021479876074953566, -0.13023151291988944, -0.000859910193077554, 0.03437961082574914, 0.06165189060646882, 0.14246478335449958, -0.0015625532592735546, 0.0168378246661745, 0.010263885391135442, -0.09675425725914039, -0.07888393832917495, 0.12155385420082358, 0.1439514566168918, 0.20312031400578145, 0.19645396651560473, 0.053522587798066616, -0.09432452930587476, -0.12777543786742418, -0.04373193383210286, 0.04947923345993372, 0.08918799910080359, 0.06589309998505034, 0.07049068008424961, -0.019682375787744764, -0.08407490917866975, -0.06593202275039263, -0.10000308424202707, -0.12881815583108866, 0.028709762796680343, -0.14641398247293666, -0.0777978827997206, -0.00715872511202142, 0.0019708928294123193, -0.07156388731044422, -0.09364790865730568, 0.03747867162874912, -0.01611757109922972, -0.09702026052135015, -0.09207784091603774, -0.023285445056491657, 0.1556954418216269, 0.26778765452744063, 0.045488133216973606, 0.048499295590275854, -0.0334225956571992, -0.15702785102461758, -0.08126012454539616, 0.13954720896555384, 0.09160792961651866, 0.06614005828574965, 0.027943250281079503, 0.05436382781286001, 0.014311527907608826, 0.045146401278008626, 0.010819737767270942, -0.09760957313777743, 0.012377210451674439, 0.045537233048758785, -0.1425293083236841, -0.023013740094970845, -0.014974861919474232, -0.027602650088067896, 3.9660549354015765e-05, -0.019440259341307498, 0.024366817007508722, -0.05633754503788712, -0.05409223810367491, 0.0835341489199964, 0.04298517717023119, 0.2512501005329735, 0.12536195108504608, -0.06629859115834381, -0.07567964282534005, -0.08984465947642939, 0.018295950912798335, 0.17316109562341267, -0.05537228011195619, -0.12084324424179323, 0.048033307771907986, 0.05035345691388908, 0.14473288868734915, -0.05189946508926753, 0.06180830289149739, 0.08999228999370716, 0.05203235294598858, 0.11882793178691729, -0.050825326898725896, 0.015447836109908708, 0.03379279173384949, -0.03501050406190904, 0.017425789570601948, -0.11123095286424725, -0.05483728640509889, 0.037105220007106456, -0.03712882702400782, 0.06589912294313613, 0.13996948374529292, 0.12176299311454361, 0.18732505050581255, 0.0929744832284864, -0.03086865782288439, -0.0251986014989245, 0.043229913029423014, -0.11361356566639855, 0.01618078933964432, 0.0930789181268787, 0.06634266224792265, -0.005234084684430251, 0.10092324753992447, 0.03576304176788649, 0.11844135308535338, 0.12045943617717321, 0.03859859411132783, 0.04253789013974186, -0.06669881151029713, -0.058085277890423996, -0.07262209554242056, -0.028433546257231764, -0.09287820823920012, -0.034034603246821546, -0.03757662990787371, 0.020113764195257917, -0.14821873645884004, -0.0406947235403989, 0.12120481406015933, 0.17217167037181044, 0.20333469917615993, 0.12940351693865823, 0.19120019532531926, 0.023699427644405423, -0.06552243505385372, -0.11478867315929253, -0.09592785397854885, 0.00358205692180189, 0.0148990502110667, -0.02762926067123304, 0.1553057948796111, 0.07644954284104459, -0.09834579098720954, 0.060165411021552206, 0.04237785058966004, 0.025879757320654253, 0.01460383576247296, -0.07081244655890999, 0.024725989421162945, 0.010694169870419079, -0.057734069920332906, -0.04598524220786152, 0.08147501597665043, -0.12062601655943232, -0.17956119633059062, -0.15118106828547015, 0.15623484218834457, 0.012067221314471408, 0.08588533047301863, 0.15378447811931173, 0.09640097931682806, -0.0597099245238451, -0.1734585470709183, -0.030748080488206476, 0.008254937781135193, 0.007704794212323475, -0.05705489090847397, 0.12814754161342248, -0.018966027551738755, -0.002885139449364238, -0.10282565551555863, 0.017912848208537804, -0.10134211372501584, 0.05493263674515202, -0.10297117743976143, 0.0571561564575919, 3.8275936546492036e-121, 0.0033050514653580852, 0.031015101679980055, 0.0031136822879404254, 0.011646282168173056, -0.13466689430110404, -0.09095461654355931, -0.16013502726393108, 0.03630643985116807, -0.04000572945677692, 0.12804174178141975, 0.19538962955983596, 0.221484669055395, 0.08680341353515555, -0.089550035316978, -0.16959974703881786, -0.1255499225579886, -0.08097306493606153, 0.0025826245614921344, 0.09171903686239799, -0.05238445546965393, -0.05231902200472349, -0.030814204185151465, -0.001875575312930085, 0.05542641727116128, 0.0009383317739893401, 0.05343777501618592, 0.021463792985805252, -0.027489115058602485, -0.022941775578638784, 0.04060521100067226, 0.01247353354361198, -0.029559008533064937, -0.18220387148547945, -0.15085651229336022, -0.10082040402834629, -0.06924444759140519, 0.13563500248125843, 0.060716462968038065, -0.0737461582275175, 0.08301213616959666, -0.00468920752817519, -0.0994712271049089, -0.0767740684758775, -0.13416190030446848, 0.0265915159324904, 0.019115775278145255, 0.0812699511925784, 0.009422381672718855, -0.03257577333498791, -0.013590292729502103, 0.011404970709750247, -0.029644787808646343, 0.010952005878126688, 0.0599754040373328, -0.01894998589578998, -0.03657205541179041, -0.056714047938790264, -0.05191820280168799, -0.0738053452609465, -0.07192007285032367, -0.010742301927311177, -0.03214085352416777, -0.06847886040439284, -0.08573369964009465, -0.03603266556214545, -0.07627827424226812, -0.0183354322534887, 0.019192500677826137, 0.10290029866313512, 0.0034871437122487386, -0.14347927643716935, -0.1824042435352711, 0.010897890204588456, 0.1348451632394027, 0.025409127370787814, -0.014678903206262273, -0.15973613747672913, 0.05712948408456416, 0.06261987728779633, 0.050115484665931284, -0.027952626831453473, -0.03364837071147684, -0.11652567618435211, 1.6824737488983968e-123, -0.027508970100342336, -0.051645443868724494, -0.04560096870576313, -0.024718561251416832, -0.07169162928087608, -0.044749575791089374, -0.2012157594797257, -0.057109136014835915, -0.11262196061039743, -0.12720826928047965, 0.04576183783262254, 0.04398943570144351, 0.04375833701217174, -0.04438957286916606, -0.07247786924389335, 0.045440109840578086, 0.11754731486165049, 0.14043035253060682, 0.025438290937221896, -0.051104133879143115, -0.0431189498235149, 0.021618791333149402, -0.02342323619326005, -0.03723527539000723, -0.021361806828645816, -0.08576055302296563, 0.03855603792356229, -0.03955413153551402, -0.02815966633290465, 0.019820630971776783, -0.09666495655075154, -0.010089609432243275, 0.08073640425352688, -0.11439662257077715, -0.18923580288115202, -0.0970757413549004, -0.002656390340543576, -0.10927660194995453, -0.06307454908987195, 0.15287537662820586, -0.004705058716544457, 0.02688018069735795, -0.09913123517228141, -0.057901423427054004, 0.07191462104405799, 0.1332308949078866, 0.006070671898871812, 0.08739020875754419, -0.030480241915748527, 0.08096017001660215, 0.010914686840493794, -0.06610167314546288, -0.022243318061789138, 0.0459538546483412, -0.07178449289322256, -0.04097754586178916, 0.08537660701067876, 0.050488676239858386, 0.008027692391049479, -0.04892633456482116, 0.017279622193187603, -0.16313756245735156, -0.18622058261319577, -0.14032061227860557, -0.07178815512505127, 0.05239851310799167, 0.0014714699145862062, 0.014667993393916117, -0.061988461828930905, -0.0031626471845040377, 0.0737663598031634, 0.14485402919232213, 0.06506111585794476, 0.07188161755792, 0.0648102991593026, -0.03285325801299435, 0.010941754688220468, -0.1229052115291635, -0.06875974067139337, -0.08314910148357123, 0.04302718641043036, -0.030201237892049173, 0.04401556033234183, -1.1109774148466724e-119, 0.011780896868805627, -0.06838607054360436, 0.07455996291757123, -0.05466763415405865, 0.0825772919633506, -0.04070102739682267, -0.04843874410083334, -0.06042740279876114, 0.003456331774398446, 0.03217435457002352, -0.03206585411955171, 0.06107565082483633, 0.017020441675805405, 0.054558862864524556, 0.11529778396823565, 0.16207586102466107, 0.08028347040373572, -0.03676421440278588, -0.11132504918078062, -0.10568189828497472, 0.006523612448784171, -0.1640814736189574, 0.016707099376866937, 0.03173708999247779, 0.05009703596990667, 0.03822286892453172, -4.658395507336909e-123, -1.4208776912847905e-118, 6.138945361213193e-126, 0.014570361969588252, -0.008943818340078872, -0.060009979711937264, -0.060463995946157444, -0.0877673987141074, 0.027078581901233776, 0.005852631730151635, -0.019967104376369827, -0.04328506565202905, 0.052426675145114454, -0.06682693005131203, 0.02175363364385039, -0.023147491691426183, -0.016884196260561705, -0.022652574828918026, -0.10232146483437818, -0.14563155085736007, -0.028001890579207878, 0.011303021112900128, 0.024445005327075296, -0.02072911138021722, -0.018453415094550136, -0.024579539949903292, -0.09116923983275035, -0.026082734834144708, -3.592811951708722e-116, 1.9070925615006137e-114, 1.0761996235546008e-118, 0.017625618689826435, 0.03748151365577539, -0.011598343856757985, -0.042590156847339716, 0.04181087861107716, 0.006477154689445872, 0.013837313892589641, 0.16624948118669988, -0.008792756728585049, -0.08397592814713845, -0.1449796563069975, -0.12589521534417678, -0.011438661199076643, -0.0804466072095679, -0.013154463588830061, 0.09935701007766948, 0.1169052050260296, -1.738407630041558e-05, -0.035488757044328786, -0.028974589628600108, 0.06410775126307691, 0.04188425473900251, -0.05704216734638261, -0.052477460221413905, 0.025679479805476198, 1.5386758798958606e-120, 3.597872618653621e-119, 1.0432679315581715e-115, 2.546627474010807e-115, -0.009031189132088786, -0.02686048973342578, -0.00874571839213391, 0.04960590015388188, 0.03741534487392712, 0.07148803812112717, 0.019592906500647784, 0.03558788178799626, 0.06506876315420387, -0.00499756721091063, 0.0401945452784605, -0.024677006648999994, -0.15445260416596393, -0.10619206761029086, -0.023043954180722023, -0.002013083597711654, -0.004112348562652637, -0.06040717830230203, 0.024807831482773674, 0.05187695623782118, 0.07401634706855699, -0.02890882698598563, -0.02645398184343196, -4.380985027692734e-121, 2.912494215340664e-127, 8.329127219761118e-118, -1.8280891655272203e-117, -9.01648349592374e-120, 2.4968616843477513e-124, -0.043096537390550374, -0.026658689951139427, 0.09739337308601886, 0.027695034267389344, 0.0035592615038518302, -0.040133235881545375, -0.014051668389033467, 0.06983428866922942, 0.09302896379115802, 0.09319300813364158, -0.0039692625725933186, -0.04010685529111535, -0.06212867339239513, -0.01411131453536655, -0.07746534667635221, -0.04782933322903003, 0.006830617605585998, -0.06604075765954252, -0.07838050127852882, 0.020569362446734598, 1.3413755706898356e-122, -2.2679800262421764e-120, -8.294587375117341e-122, -1.5097063185143577e-123], [-1.192353315440166e-118, 5.41127985039343e-126, 6.995519029253768e-123, -1.616114341160768e-116, -6.873133440181915e-128, 4.223203288388636e-128, 9.652098383422728e-121, 1.5376468187587064e-121, 6.555670743200737e-120, 9.957919751545956e-124, -4.067292866569673e-124, -3.256623771335323e-120, -0.09048443912656269, 0.009175019571669442, -0.025975999550947773, -0.0023320181121335866, 3.2140827802820636e-121, 1.6797330804930003e-127, 2.5609499589589575e-124, 2.0720306039277215e-127, -1.9712418282890098e-118, -5.637221752618692e-125, 1.3415445474148676e-117, -2.0233574854632917e-121, 6.545769260613753e-115, -1.764176336022428e-123, -7.885957551189971e-118, -6.361202856662134e-124, 8.670610359592356e-121, 3.242967537034593e-123, 4.2110999186464783e-125, 3.289065188225552e-119, 0.0446000393546715, 0.04599785932450842, -0.01941436197133868, -0.056515346296795194, -0.11436293300477561, -0.03223908311148313, 0.10320789502097132, 0.07573934466506158, 0.09815724177247266, 0.08716529317147294, 0.12387920516756995, 0.10213177893101019, 0.007836390661902358, 0.04389732281590051, 0.09320447963216891, 0.018381645393935716, 0.036637546756056016, 0.0014569049343840226, -0.00249331986327629, 0.022983897933155827, -3.8158210824756296e-119, -6.613859262232297e-124, -6.937541419595263e-122, 1.0447264476960704e-120, 3.5638641987008284e-118, -1.073714492586804e-124, 0.07381230399944338, -0.015365199444135648, 0.07215521244464651, -0.016773663765130693, 0.025532034261677158, 0.0033887636031137017, 0.04713374881415756, -0.015177944066595306, -0.02037148518226103, -0.029060538059423643, -0.10232106980109966, 0.01627571954836072, 0.13724941937424368, 0.06933764384493879, 0.024738623843061223, 0.047147768970591676, -0.04458962702305729, 0.0010059957388444882, 0.04152292622189458, 0.06086955406241168, 0.049440673941085284, 0.05967350345214282, 0.0561872647344918, 0.0025223716340940167, -3.1090530862936555e-120, -2.5199359102760126e-124, -6.401627639684468e-115, 3.6919796657344294e-127, -0.029780594174057373, 0.029511396585892326, -0.04443427127563953, -0.006422844551868666, -0.08483564236183927, -0.043621311752470394, -0.028857982257160276, 0.007257679182182312, 0.06741286057577725, 0.025641767534792616, -0.06594444056543322, 0.10734808781810513, 0.08195070736355384, 0.0008402273495596037, 0.04627426297774361, 0.10442926873303104, 0.0774773237594162, -0.010353985966235577, 0.0933413220680903, 0.03558654748486661, 0.04760503805984062, -0.04629550045592937, 0.04006489681292091, -0.05245757651762596, 0.0049910179715506155, -4.323643869772065e-125, 2.8188370089330337e-122, 0.07202797601784287, 0.033950175785334, -0.02302211281463805, -0.13756649931394582, -0.011002512978899117, 0.06047899158818597, 0.03814350614859645, -0.0342354780099625, 0.1342276402252278, 0.07281512570994184, 0.006496975843566132, -0.028270852013440952, 0.010544702569207046, -0.015714721389836987, -0.07790235921612224, 0.0299398129155316, -0.07920231428925781, 0.013397918121849648, 0.07024465874548068, 0.14211650753469007, -0.01803770068699998, 0.03418735661450519, 0.102759092654622, -0.02744686038349014, 0.016361948717429145, 0.011272275071122223, 0.0494013752136692, 2.709124030907133e-115, 0.0219603621448606, 0.07923158822678024, 0.06635703309968706, -0.010057204036160946, -0.11404422230372549, -0.028571042131716216, -0.12140976378423962, 0.06409705897202621, -0.0019299350576941455, 0.0752334535681844, -0.010096728267433613, -0.025386516882412814, -0.019681691082425783, -0.015836060593536875, -0.010781754946971997, -0.17240875991777363, -0.12370844223641064, -0.07053698906226168, -0.011008287174372985, -0.12710809880139198, -0.1184561651646882, -0.00999763770002498, 0.06690567067053674, 0.011434662123007625, 0.050057820804521966, 0.056044811159837275, 0.010582554896101343, 4.0408176186222243e-125, 0.050896631387871816, 0.03883643607857937, 0.04339718268330633, 0.08703185057003864, 0.040030004588330614, 0.08023601055096126, 0.08693920175901171, -0.033377869038994076, -0.0549319667372493, -0.03811559885344072, 0.02687673314462735, -0.0785871410737602, -0.011420028733196511, -0.08649501486532278, -0.03329234689613403, 0.045503334082205575, -0.046775398217230306, -0.012648770518847496, -0.08186379445056598, -0.03156732851546979, 0.002168540944971431, -0.030936528874751682, 0.04128641265831686, -0.008523409692669341, 0.04311225870510337, 0.046625472615902656, -0.06206327815387318, 0.05668265808587601, 0.00020929539691975373, -0.0364927445678899, -0.0834110964767149, 0.06575338364668752, 0.08959840436843045, 0.020906273238302464, 0.06192602268573528, 0.004505477981838457, 0.004411906171319657, -0.04566651414331741, -0.07818378446169855, -0.004595676886111036, -0.14074493327997156, -0.1425235153151492, 0.02898468892588098, 0.08006112877565853, 0.05372679326544087, 0.017417043203059344, -0.02190871192721524, -0.02701045765562527, 0.01591306342829289, 0.018143746138359375, 0.025971513282426802, 0.11349859957018939, -0.06147426773227484, 0.03592127337368238, -0.010111304999196687, 0.010097183725430257, 0.0445702621542717, 0.015321395646053181, 0.050848743313361415, 0.07843124731551616, 0.03908278738574318, -0.00026626921696792515, 0.12698925861842278, 0.1331682393329519, 0.10359176500631015, 0.0687088113916801, 0.04662454663622151, -0.04942845509223248, -0.1757383159678911, 0.017985727355913153, 0.11444121028548762, 0.23269474505478613, 0.04235099890918283, 0.009389350978254956, 0.01334457003145188, -0.021170845297913406, 0.01651768063181013, -0.013994335237229249, -0.02485440388853413, 0.11189342699668052, -0.09948526443612488, -0.07139597005569233, 0.006069471372597109, 0.11186059275372114, 0.09166752304075348, -0.0036946004502660594, 0.00582484830107439, 0.06471398648112325, 0.05966136394341815, -0.043092633915766294, 0.029619583179731554, 0.13339660172878312, 0.02728391191309229, 0.11062901468949968, -0.06336883819488869, -0.2187081406477263, -0.08034800918185812, 0.05686838994763913, 0.031018309736788482, 0.11088826349267844, -0.0632313044089132, 0.05703873191590675, 0.1432177253106349, 0.1904017262802557, 0.02762835011729217, 0.039621982459496816, 0.07384916806181845, -0.006725167544869182, 0.07315624458286529, -0.03751943804630957, -0.0019096198545200118, 0.1008268872073891, -0.007769720496813974, 0.09128236049292958, -0.06968415942701378, 0.1342653572433716, 0.06700095941638404, -0.031083265602859147, -0.029402271352255156, 0.05466295236785856, 0.06798725044220504, 0.12541875984605558, 0.13322171817113518, -0.09132464447373796, -0.09768861555773316, -0.14072174529252326, -0.022617186118526412, 0.07010586689173257, 0.001630007660912777, 0.12411116965093179, 0.09641905249919477, 0.11021862050514165, 0.06485733657525038, 0.08490476609150428, 0.023130000710903566, 0.031781323324418624, -0.032479077243920615, -0.045851524619820415, -0.09188304517173133, 0.008081738274750486, 0.0018236106871009042, -0.03627827759286548, -0.011208933417480837, 0.03754667325715674, 0.0033121968015219863, 0.004660271430857343, -0.0270917882127295, 0.0965697447409473, 0.19429657957626048, 0.10213913892444526, 0.14615998845457112, -0.08245048142222518, -0.20824808016112256, -0.08099938460420704, -0.09996204417089045, -0.010765825330517339, 0.12568980175426706, -0.010577951173045025, 0.021428589514574853, 0.10216145394716392, -0.03071886657933299, 0.05191678027617735, -0.017276066464505708, 0.04399720540171385, 0.01800647204996631, -0.003031324915113224, 0.018186933626574843, 0.03618979891088467, 0.04719131369149304, 0.0758069400040811, -0.028248844023316122, -0.03647053650870769, 0.07938982330386177, 0.053833010892587026, 0.13503561518930446, 0.04158938906190219, 0.18215497980476242, 0.2432847927298892, 0.04543771366776882, -0.021201640339201726, -0.2427276029652166, -0.36812410706610166, -0.12146048428110535, 0.13242570701146394, -0.005634926113273284, 0.06395754252460062, -0.07921672851878307, 0.007518979897660356, 0.012508501006588017, 0.021509213769028722, 0.10137193921490308, 0.0550060055865133, 0.010364515908606393, 0.13752147741644027, 0.09138643073366884, 0.058893022838489774, 0.02871400290181819, 0.022726812381680214, 0.03760477415842812, 0.012025408590123503, 0.0838180094154091, 0.12610815050705357, 0.15065461472681185, 0.24631376792601642, 0.13000598410326025, 0.25844888084902484, 0.11038124128117971, -0.20298764617168788, -0.2941105186795784, -0.35686368473908353, -0.07437372574627801, -0.012805063533355443, -0.02574449452133897, 0.015013225507344468, -0.019145381421942286, 0.03948113478221664, 0.11178497761031411, 0.0714520427762624, 0.13979174932698607, 0.016544282886638076, 0.05979014269661751, 0.11661035802825741, -0.10733318753485012, 0.02316679029778629, 0.08313099477991302, 0.08398084590429414, 0.036129910019058104, 0.027201936974810968, 0.12155313912005278, 0.11865592771782368, 0.1749682483776781, 0.09635519487887165, 0.21440892102099068, 0.15641252077866055, 0.0020536763530991705, -0.08176756051460853, -0.2698624382869181, -0.1948003866708614, -0.12407042403848736, 0.03596974033806083, -0.033572666868248, 0.04090571517403072, -0.0821271316862217, 0.00690980782979179, 0.02024499930636799, 0.0889630488515173, 0.07318058192856677, -0.002456404224195525, 0.051578964683603616, -0.04516403933264609, 0.018189532005908667, 0.08643697128941297, -0.05490528880460223, 0.02824062795836869, -0.06317263773256444, -0.09878643877725288, 0.033269602573623554, 0.10293057101770033, 0.11307954710296582, 0.02742177352506899, 0.1257836516286322, -0.050733887413185026, -0.14202247780892374, -0.2471538518508078, -0.2659967515448463, -0.22006958642072563, -0.12715115039059513, -0.11439374389566999, -0.16322704496529705, -0.06462884975655843, 0.021735736771498072, -0.024242661253378622, 0.030750219493405357, 0.05246183579819695, 0.059404231664598184, -0.08242942729025166, 0.08207075187882072, -0.006879797633230326, 0.027291418017896925, 0.031204663178240152, 0.0429819169103119, 0.013654511567387779, 0.04715114643279134, -0.02336259065509511, -0.012755808783930157, 0.14183059361909844, 0.1062291927770183, 0.1365000207828451, -0.0965803273662606, -0.10056278203305624, -0.2366186870177421, -0.3342919053715811, -0.2650921748985043, -0.1043526729916079, 0.022073918150443485, -0.13548781553113623, -0.09172397938798613, -0.04471707656647152, -0.0328130409852944, 0.053611745867745524, 0.09161454498045947, 0.06227355873118946, -0.077848167282392, -0.06015766688448124, 0.14121615937931817, -0.008313220877917263, 0.04281120032275044, -4.7717526423602434e-117, -0.04000759277307284, 0.06400011289633496, 0.06851150475806221, 0.12188122911450956, 0.10273410022711693, 0.06965319164437181, 0.04611811561485771, 0.004217123863249606, 0.0470210131023259, -0.1725693082804886, -0.2554181739647573, -0.21797253821387214, -0.16952396317969207, -0.03719972195133521, -0.04793587717902216, 0.0619248108780512, -0.06938368617876728, 0.07120500161704905, 0.07250636649192949, 0.008541661331514095, 0.040275111243816684, -0.06560580253939517, 0.005304873664710224, 0.052839743860067734, 0.07053246940129625, -0.009798195992384918, -0.04576278253397565, 0.042781558128625816, -0.0626250482570157, 0.007018761318813921, 0.007918133187758952, 0.02593423173001867, -0.008492395976821292, -0.011746027182958111, 0.008706888999813771, 0.05995148823414959, 0.03742480329865113, 0.02755993131769571, -0.16823824219264308, -0.242874622900466, -0.06660056695770689, -0.02611959526514168, -0.06674937453053786, -0.023341904321311214, -0.007411531930421753, 0.09994173704244634, 0.00906711761072423, 0.07395624652534372, 0.005410618702606594, -0.025919295708191768, -0.06620177915822427, 0.11288987581822796, 0.05096031502738434, -0.08722417897661566, 0.044711230298527124, 0.027199247767132295, 0.06206158241015797, 0.02698012007834033, 0.060239371360588406, 0.028085000472674693, 2.5407397833651455e-05, -0.007799591199393713, -0.010343941426805435, -0.026136696195342684, 0.001474711813037847, -0.0007177547995430355, -0.15391383524670801, -0.026655649006412818, 0.0011186184615830338, 0.09815665832320934, -0.0689921292106513, -0.11774823818908373, -0.1296577746393433, 0.10980767942924582, -0.06593965059328782, -0.055820361628635906, -0.07518745352099396, -0.07637767298725835, -0.027905716183590914, 0.06840722553001193, 0.0018721073561822578, -0.07051351973512657, -0.012615726192259893, -5.123638894626229e-126, 0.0940560423432582, 0.018446373543169803, 0.07332365316798387, -0.06156340456075932, 0.019215331046216234, 0.0008916004958496987, 0.07291577995791074, -0.017143837546157763, -0.0367154947283861, 0.044583680067901914, -0.09926650128901866, -0.033875433900247255, 0.016802704132291228, -0.09177537052395386, -0.017751551482985704, 0.027546472362604144, 0.05295486741576412, 0.08704065682238556, 0.06158476556625757, -0.00042108550418262406, -0.012977208492908175, -0.028957459698183696, -0.22043532767153326, -0.08599267744767666, 0.01445723226282388, 0.07616118859586776, -0.018022071984561818, 0.04358691378131359, 0.07154908283258131, 0.03235888819465323, 0.028866034052883568, -0.0026942262375948185, 0.007809273140133296, -0.08873885869314484, 0.03662037765683101, 0.04429094460011727, -0.023034774278645417, 0.014431002595119664, 0.12858544676271053, 0.042093073835006475, -0.03378115503883833, -0.09677287334712856, -0.0336128702652516, 0.021598656175035084, -0.05541568018970016, 0.0482854795909589, -0.008042395670758115, -0.06527424924340146, -0.0009992222244930003, 0.030532018487612247, -0.08161741502978695, 0.03768815044780025, 0.07440965714777988, 0.038846116839595005, 0.026076855811417096, -0.02062066868168265, 0.05099339059890768, 0.05894745156933516, -0.08569075131203889, 0.017710747317709327, 0.02580358759207205, -0.007793684948926728, -0.05157868236441297, 0.06711920545390157, -0.05572855900431773, 0.04537305145091285, 0.0025719349513926492, -0.013402106376791909, 0.08381356192728112, 0.0007006079954314161, -0.05458144106508454, 0.00396181818474918, 0.02560740717975456, -0.0685508467797765, -0.08945283973072062, -0.01947456479717129, 0.02830014645340859, -0.05242611876738471, -0.014821745459392771, -0.07246081209341602, 0.10942653927524673, 0.03671316638599038, 0.030658206247542154, 3.761453895050323e-115, 0.04155189088473439, -0.06436011443756735, -0.03652717258664788, 0.07138431288176403, 0.038149287986730236, 0.08419690107654006, 0.012595836382870368, 0.09909976702591043, 0.06614337291262701, -0.0012766117850721715, -0.06546223479024628, 0.032691596904791266, 0.03279054005006891, 0.006778595908027124, -0.03039993959477889, -0.022306574481220857, 0.023483204610962028, -0.022168939333865878, -0.0408421893705582, 0.06697781020134365, 0.026896969183550078, 0.04621985086645423, 0.026251106977805482, 0.005284360346199343, 0.06758443320256582, 0.03923670896424269, -2.9430812475326986e-126, -1.6317020931552796e-125, -3.1478824771452813e-114, 0.033960642407572815, 0.061639963130848296, 0.0778205889753506, 0.12902530192978556, 0.053346005474496, -0.03194851562716246, 0.004019362368006849, 0.04574573257526248, -0.08458773506866747, -0.02794914651330018, 0.07048622374331538, -0.033415488968503756, -0.07976103927295174, 0.008130170640631724, -0.029883047980178275, 0.03061688733624397, 0.009181363501436978, -0.055128508690938265, -0.07397446696229833, 0.09035308215918593, -0.058958554426916866, -0.09903782505655788, 0.06560491340565608, 0.060923310020367695, 0.05827109466464567, 8.951786111136053e-123, 1.144308579232308e-124, 3.6635620296470515e-116, -0.02066543663321504, 0.0004075068897153921, 0.06903115126883023, 0.03577067717321428, 0.05014418264772733, -0.06547074530801275, 0.09787161398051789, 0.02782671303448666, -0.01306034048476258, 0.04819992625453643, 0.11382922354561005, 0.04064415067142385, 0.018479250089304164, -0.007056799447247297, 0.17858734289687545, 0.023092408106247707, 0.020762738035405508, -0.10769756393981, -0.06681218295699999, 0.016137361717672796, 0.04953686095186136, 0.06946431348229581, -0.03520321238996876, -0.002967615166082954, 0.02229717572301041, -4.403384947834011e-118, 4.721139683606998e-117, 1.0394186298386922e-121, 2.0244322061944948e-117, 0.005703106699778489, -0.05185098869622929, 0.08379193977452146, 0.007973762788553086, 0.007900002015730432, 0.06345952630450419, -0.05288879291207761, -0.07853896699179617, -0.044670593935445355, 0.04925598462410363, 0.054936295650534775, -0.04281264788162321, -0.046757904782861036, 0.03252147054691895, 0.07240897382853288, -0.04011630818521445, 0.08327940063630157, 0.09378596250875909, -0.007027415544991831, 0.050635597806338875, -0.03067716178039857, 0.11280770351296157, 0.08845059210706208, -5.187442048642249e-130, -2.566329021532114e-126, 1.2508268123086093e-117, -7.494424509136232e-115, -7.959951264266458e-117, -4.3670508976326e-117, 0.1055109086121086, 0.055215832448343494, -0.0017745827850329033, 0.037168148379559916, -0.011303098637667623, 0.001712717705105268, 0.06208556577359966, 0.04058668841863585, 0.09166341618500769, 0.01807058290135168, -0.001029207464457414, 0.0114113668893578, 0.00022618367459129133, 0.011141607912210225, -0.04822057122649767, 0.0018546166781968666, -0.11505811421358393, -0.0326186376643908, 0.03371685458720627, 0.039075421044702616, 1.9730137293607463e-127, -3.2884186332430047e-121, 3.589892060947724e-114, -8.495895957915283e-117], [2.677653543914882e-117, -7.106830720264755e-115, 1.392404007670309e-118, -1.072865713636163e-127, -5.772179737480629e-121, 1.7486896134429178e-118, -2.2600540744823265e-125, -5.58286948397376e-117, -9.883945712616118e-116, 1.0273207504070928e-119, -2.968020249133398e-129, 2.9510874722568516e-116, -0.02125775082926843, -0.010345416749860168, 0.027444297477680683, -0.047777968427063444, -8.383310705960898e-120, 6.960639632516714e-121, -6.828488350054217e-124, 6.351935782479691e-118, -3.4827071406079536e-115, -5.065702177410239e-118, 1.3620889850471176e-118, 2.962710376272047e-116, -3.619832875937276e-127, -5.426247241483566e-126, 8.86410021461497e-127, 4.71005263718144e-117, 7.171970700891771e-115, -6.522524598729335e-115, 2.5210641819165007e-115, 2.7670076781586558e-118, -0.04502335897906436, 0.044763166818725476, -0.02696670641142908, -0.03821569202052109, -0.03958348518263375, 0.006878081351787716, 0.03250643425436866, -0.009450637636161998, 0.043818346607386434, 0.0008660477038229297, 0.11222314234820663, 0.00614663809723698, -0.024886610983182154, 0.04981271174734008, -0.004106054210809705, -0.07483966945002028, -0.004814583191509263, -0.06701063957364121, -0.08092577888313134, 0.04047701671366375, 4.8623869608274966e-123, -1.4352847577228193e-118, -4.5096466997901276e-128, 1.1038105667751723e-121, -1.0032944392842965e-117, 1.3610527970142764e-124, 0.006374317819252494, -0.03362746273165223, 0.03443842488058966, -0.05505317284685285, -0.057190051140039014, 0.04476632243239486, 0.0336721910541971, -0.01630277169708004, 0.0664532900269434, 0.07218990956078343, -0.0511721677662933, 0.06406369252944268, 0.017580051926387348, -0.02732204822502549, -0.09109666487663189, -0.05143630113678492, -0.10069283198608008, -0.1113919301970478, -0.13099480040391465, -0.024350573206599807, -0.00965643974504462, -0.028294106933958604, -0.055062963892533554, -0.049892021090098194, -8.80336921877868e-121, -5.269270095937025e-118, -7.268475908541453e-129, 6.883645344688802e-126, 0.020910562409119055, 0.05112176013384408, 0.02729011990282438, -0.08723838037005975, -0.04381740307906789, -0.09834450535165663, -0.009507294781849578, 0.05802099367063603, -0.012922531091171077, -0.1942819593276375, -0.04728004826977227, -0.015095159126711949, -0.06675166283936855, 0.03295213911266334, 0.06321197835011196, 0.035602801576198814, 0.026182408885647372, -0.00035873191377764057, -0.047415677653298495, -0.024882032409263843, 0.02275654633823438, -0.007656820681403227, -0.09666804708681168, -0.00402429141406401, -0.006915826645587335, -1.504399950369743e-122, 3.037669852174705e-122, -0.044425975470973524, -0.033560802597461054, -0.057212854644899405, -0.02720661008712111, 0.012959763571355542, 0.028305435142509352, -0.019166366744246644, -0.06502505372871024, -0.04295047325664595, -0.04502020089869754, 0.012173223330083234, 0.06259756170543257, 0.04888700095213144, 0.11479791123771062, -0.00974297248303704, 0.05459440745259733, 0.006134822838387269, 0.11130164674174188, 0.11421116900378393, 0.09503569612563482, -0.05685706730758359, -0.024997678477989355, -0.02721777257990325, -0.06659360964412908, -0.077724454990781, -0.00516327042459411, 0.02146584208259211, 9.816333323363095e-126, 0.003895797525750016, 0.010848542674800923, -0.07461605920062551, -0.05561917825784803, 0.09420970693436474, 0.05318582333781523, -0.1393819574211861, -0.043517065361679506, 0.041739480298773786, -0.029359284455753767, 0.10866570184377469, 0.01702691862675643, 0.057003328459494434, 0.10861360625042553, 0.07240064499355849, 0.03811281354488013, 0.12722553373878834, 0.06624285223502362, -0.04656544504892906, 0.07765312777464571, 0.029051386603869602, 0.01868972219072041, -0.030389880357482642, -0.08941882875017004, 0.0769361154069468, 0.1043378132459285, -0.002216352678920894, 9.431806316846874e-124, -0.002404095049793946, -0.04076161960307996, 0.05309970174247419, 0.032533640136288226, -0.07114190978735951, -0.03864115910220961, 0.02093892095638864, -0.07987540453385643, -0.03077464509354489, 0.012317220985127381, 0.11062769583522637, 0.10308938012179249, 0.020043231062131683, -0.056596346436960605, 0.08492724639214776, 0.14822939133418875, 0.19897149211615517, 0.039473279029624636, 0.14303202283659974, 0.052887791484155344, 0.06962871830086116, 0.045342168239567306, 0.026314022323855796, -0.06727069771536448, -0.05388399074067304, -0.0246006787269883, -0.027452452478287138, -0.02017317742593204, -0.0002662018181097276, 0.040800166851127265, -0.004516523033398455, 0.02600179752828097, -0.021769123175206618, -0.04322390600794488, -0.07976908847590315, -0.17467512037947755, -0.04385709589063767, 0.07388754816403309, 0.04818493416913989, 0.021206623784623353, -0.013250535175545891, -0.06415035861783533, -0.026935993111554587, 0.01659657415516142, 0.08659105707036263, 0.08465681407551737, 0.06610641109346407, 0.08215216811362598, 0.09449234905712461, -0.016757764893779614, 0.02955800244818472, -0.04407300614887237, 0.025343973376192288, -0.02917146957491494, -0.025725207573385866, 0.04010297993314046, -0.026006889617028756, 0.07261647215826797, -0.041745252605817275, -0.03382290808586418, -0.07314834718874386, -0.0694910506984923, -0.02011425542070566, 0.03503955078007301, 0.12017505352867221, 0.08342362857835338, 0.06098039964813702, 0.0022887947841581944, -0.003399750672467412, -0.005110737278646408, 0.014119002693946336, 0.013164111161576968, 0.07691289125405969, 0.08797459792621208, 0.13197280880713425, 0.13398506568523724, -0.0008199771460617369, 0.004187853958048746, 0.07555873485853379, -0.03926296583986669, -0.030166667947295594, -0.08573973462091405, 0.04388083545901003, -0.020724614676508508, -0.048087984096148804, 0.09874894675476528, 0.15681819046131298, 0.0279651845417946, 0.10016827090026079, 0.12788330344242174, 0.06114052481283846, 0.13654630158977465, 0.11661690334780765, 0.06791143685585414, -0.13677251701654455, -0.1860833077191057, -0.10620392085834113, -0.09548293732995174, -0.021963671562055864, 0.013744234308382956, -0.11269599178094948, 0.0740693077155197, 0.04515639756120965, 0.0539561145539013, -0.004381394550397832, -0.0013320913373747625, -0.004043282516541838, 0.0538617305627749, 0.009995370485576116, 0.03126542024118634, -0.03129039040859777, -0.05136927528354561, 0.04085284808746502, 0.07507821702806738, 0.07192701563395677, 0.0671079404908888, 0.18064166795337733, -0.005533163443330728, 0.14081748820009557, 0.1356381471463155, -0.03475714010432818, -0.02497698350662839, -0.0639652169420526, -0.0752533027215322, -0.17355157459997966, -0.0737801852359139, 0.035754784151510455, -0.04415030423514028, 0.02468130723624238, 0.09956372193211957, -0.05027515658684082, 0.036908937798335595, -0.008311302239971372, 0.11315219585481802, 0.07267691008177289, -0.01697672443327572, 0.04610417260282117, 0.04083181966877348, 0.04741315634693297, 0.004053946159212988, -0.0976682128339102, -9.202104897578941e-05, 0.09187056732251363, -0.05776179096852086, 0.08912124156376973, 0.05277068098330651, 0.12437729126529705, 0.015815505490429226, -0.004567962714263179, -0.01317234620555647, 0.08939701464078148, 0.03926133658235902, 0.04353826368554149, -0.1294648185023904, -0.09279323266202352, -0.0432723815621702, -0.11638374156813887, -0.14771819095574923, 0.0024435133449906576, 0.062220630322352734, 0.1547329172286158, 0.13501606185854445, 0.1278852129667534, -0.023006309627147947, -0.021337199528627976, 0.013032516688715318, 0.10176676445999999, -0.0004795365514590602, -0.04814293826186458, -0.02289468087672801, 0.11189415128137503, -0.08507268767798949, -0.04833711729703912, 0.14243143934469418, 0.07215002476249752, -0.09927021536778032, 0.0106727810864549, 0.06582835847896877, 0.11261286009817863, 0.07117066940177827, -0.10510782415531528, -0.11858858909044435, -0.19356839034094808, -0.14864145483468663, 0.011885736638938157, -0.12078805441327976, -0.04296061076090002, 0.1294624466845361, 0.054531398631483846, 0.09374805523700534, 0.08131279046842693, 0.02797924651579577, 0.02767040027721525, -0.08715939999362465, 0.07019167299742769, 0.02342296612552738, 0.00714363137149837, 0.03162041148767968, 0.13495918529006048, -0.03544747874882038, -0.04192352004648119, 0.020348792613582755, -0.09585745080564231, 0.05310792518818399, -0.01527557637196926, -0.03237512059761369, -0.008773638325657494, -0.05287164731786346, 0.0127222417178282, -0.055937505160215104, -0.05014309651112468, 0.017494443132886252, -0.0686599711802871, -0.07632397761611255, 0.025074921869735728, 0.10616941807871445, 0.18803395903008968, 0.08240928831512812, 0.009758443090307859, -0.11217783042547018, -0.07723161467751709, -0.09386483025235227, 0.09086656699979787, 0.012362947768190696, -0.012407573406707858, -0.09366377398700881, -0.04257370573423977, 0.08477516649398403, -0.0035198843225579283, -0.08878160862561903, 0.01924364738410836, -0.17703601651696899, -0.1760756862016698, -0.0834790773703291, -0.08307802048137958, -0.08477826084272347, 0.09271091526622041, -0.0018106858411164192, 0.05313430678977553, 0.06190761257054988, -0.060353558447422836, -0.11113241265542463, -0.05443883751010968, -0.02442929092598637, 0.06444796864015408, 0.004145368884960405, -0.0569345648949319, -0.13505682834158336, 0.077028552526491, 0.13370401232630338, -0.002763697432208023, -0.00988217619665145, -0.03780184301933216, -0.016421407872611964, 0.06556619052709596, 0.008764077805262829, 0.0145465227753156, -0.009653084803384714, -0.02921480348486217, -0.05767780823885639, 0.0567869908787249, -0.03834288877678489, 0.03318467351831847, 0.043648141667423826, 0.030084465363735272, -0.062337868552173034, -0.01474663782685105, -0.03893595532391364, -0.086533185551858, -0.08899915436527706, -0.07313079273856499, 0.043451924736543836, 0.09284706001700498, 0.0049701797151810835, -0.14283890543470487, -0.014398691859016424, -0.12744768924191965, 0.012195359736614151, 0.021564798702671, 0.025997490563315292, 0.04877942041679047, -0.055486172667910116, 0.10673577599276234, 0.036747679473520686, -0.0890585075374857, 0.06534751771511653, -0.08183173160381475, 0.0943231246891301, -0.01604404114137842, 0.042750964802310144, 0.07105477879866694, 0.16982738851540924, 0.16011472387715175, -0.11258381170518972, 0.012131160308808642, 0.03829442349031885, -0.10908445547916475, -0.09747281833085107, 0.008491182810713102, -0.08469079585484185, 0.00928080015567, -0.032422494014620884, -0.014270365061405301, 0.05486622815999055, 0.05088404910682659, -0.05183941136707481, 0.001211030869810737, -1.2752247190938237e-117, 0.03609661967645554, 0.03964409058695229, 0.09037775330605108, 0.09595465012467637, -0.027504610016208013, 0.08123975254818099, 0.007455909853815464, 0.035240630996753695, 0.00581653455980726, 0.061254986815182356, 0.224446700241921, 0.1953120869173575, 0.1400489677049725, -0.03656214993182585, -0.22317319189584747, -0.20229065207173128, -0.15568763754706216, -0.18229374197144033, -0.09525472980937874, -0.021213056351024568, -0.15607516271025362, -0.07822778753253594, 0.047724441994888143, -0.0421429358361518, 0.033745161603378045, 0.06739064267085336, -0.0008000355400614814, -0.04146863557821662, 0.016352091558051094, 0.026838663796430084, -0.008876669440671132, 0.015672238306297936, -0.01873314404597339, 0.05577803531275746, -0.013294535996622683, 0.008174290217038164, 0.12278272007363443, 0.12985405232107766, 0.24574012934277115, 0.10492518334667382, -0.057328178764897444, -0.20251321182584658, -0.3244273134780105, -0.1986609434763399, -0.028140863066996234, -0.009443964826403604, -0.1765081080636702, -0.10315391679250958, -0.11385294385694271, 0.027752141306915955, -0.021925773034225087, 0.08620152300501799, -0.048671138358171495, 0.02548613565744002, -0.06750093913939208, -0.0401481631421949, -0.03389662160808467, -0.04268570074605433, -0.09551353466963522, 0.040165114488152916, -0.10468287484140636, 0.02707550072887815, -0.003084120017552625, 0.05255432820961623, 0.12828705709334484, 0.17037324087117295, 0.16874091334463184, 0.07701724770373596, 0.04876631926545816, -0.29896491302512396, -0.20456287430832762, -0.0593068393421341, 0.03326012035126563, -0.08223682070643451, -0.1735384831627573, -0.0367432603774685, -0.038227841332396144, 0.043868449746982605, 0.0699659941233161, 0.007729023391518486, 0.007548641858489323, 0.011725576882703759, 0.009165068572990303, 4.900789953429212e-118, -0.08356717015721908, 0.10116784706275785, 0.08237168508824387, 0.016235350559166948, -0.0015849035915292498, 0.08309395561820641, 0.11802078434376902, 0.23211195728306713, 0.14535027780706672, 0.13281484931432852, 0.16706855728141692, 0.05847576947623681, -0.07473420667667051, -0.3318813779491382, -0.05225504416970567, 0.05308792629097195, 0.028684047443906926, 0.03324091641966281, 0.01240150582386189, -0.07053643301464188, 0.0319448691544346, -0.09788515529855737, 0.001697507489794053, 0.0982405227108206, 0.053040728786189595, 0.05951143242884155, 0.052785504326477786, -0.042494768063330024, -0.04341430393700797, 0.031426434828069755, -0.0013368257932802594, 0.04166032170138922, 0.04660114412301566, 0.09076808699254238, 0.04436366116045805, 0.05834301713500153, 0.12245408358399688, 0.13007392866530612, 0.08168240202393989, -0.02197810384700588, -0.2551569714405116, -0.1524807091222531, -0.0701901402716346, 0.03466134088794607, 0.0983629779947664, 0.036758121900164566, -0.013596970329658183, -0.043088285820359944, 0.06319913943317712, -0.010350988317564062, -0.12781427899398806, 0.036735551828882294, 0.014552372916266028, 0.09720221525383439, -0.006990953541602664, -0.02912599727799919, 0.022995874966789998, -0.03499444633358109, -0.08604571357175217, -0.0350100141859959, 0.04362559866133532, 0.15184620898419451, 0.09084934887186441, 0.09007312976515008, 0.14329061271040547, 0.12646136695199664, 